tree
version=v4
num_class=1
num_tree_per_iteration=1
label_index=0
max_feature_idx=2047
objective=binary sigmoid:1
feature_names=Column_0 Column_1 Column_2 Column_3 Column_4 Column_5 Column_6 Column_7 Column_8 Column_9 Column_10 Column_11 Column_12 Column_13 Column_14 Column_15 Column_16 Column_17 Column_18 Column_19 Column_20 Column_21 Column_22 Column_23 Column_24 Column_25 Column_26 Column_27 Column_28 Column_29 Column_30 Column_31 Column_32 Column_33 Column_34 Column_35 Column_36 Column_37 Column_38 Column_39 Column_40 Column_41 Column_42 Column_43 Column_44 Column_45 Column_46 Column_47 Column_48 Column_49 Column_50 Column_51 Column_52 Column_53 Column_54 Column_55 Column_56 Column_57 Column_58 Column_59 Column_60 Column_61 Column_62 Column_63 Column_64 Column_65 Column_66 Column_67 Column_68 Column_69 Column_70 Column_71 Column_72 Column_73 Column_74 Column_75 Column_76 Column_77 Column_78 Column_79 Column_80 Column_81 Column_82 Column_83 Column_84 Column_85 Column_86 Column_87 Column_88 Column_89 Column_90 Column_91 Column_92 Column_93 Column_94 Column_95 Column_96 Column_97 Column_98 Column_99 Column_100 Column_101 Column_102 Column_103 Column_104 Column_105 Column_106 Column_107 Column_108 Column_109 Column_110 Column_111 Column_112 Column_113 Column_114 Column_115 Column_116 Column_117 Column_118 Column_119 Column_120 Column_121 Column_122 Column_123 Column_124 Column_125 Column_126 Column_127 Column_128 Column_129 Column_130 Column_131 Column_132 Column_133 Column_134 Column_135 Column_136 Column_137 Column_138 Column_139 Column_140 Column_141 Column_142 Column_143 Column_144 Column_145 Column_146 Column_147 Column_148 Column_149 Column_150 Column_151 Column_152 Column_153 Column_154 Column_155 Column_156 Column_157 Column_158 Column_159 Column_160 Column_161 Column_162 Column_163 Column_164 Column_165 Column_166 Column_167 Column_168 Column_169 Column_170 Column_171 Column_172 Column_173 Column_174 Column_175 Column_176 Column_177 Column_178 Column_179 Column_180 Column_181 Column_182 Column_183 Column_184 Column_185 Column_186 Column_187 Column_188 Column_189 Column_190 Column_191 Column_192 Column_193 Column_194 Column_195 Column_196 Column_197 Column_198 Column_199 Column_200 Column_201 Column_202 Column_203 Column_204 Column_205 Column_206 Column_207 Column_208 Column_209 Column_210 Column_211 Column_212 Column_213 Column_214 Column_215 Column_216 Column_217 Column_218 Column_219 Column_220 Column_221 Column_222 Column_223 Column_224 Column_225 Column_226 Column_227 Column_228 Column_229 Column_230 Column_231 Column_232 Column_233 Column_234 Column_235 Column_236 Column_237 Column_238 Column_239 Column_240 Column_241 Column_242 Column_243 Column_244 Column_245 Column_246 Column_247 Column_248 Column_249 Column_250 Column_251 Column_252 Column_253 Column_254 Column_255 Column_256 Column_257 Column_258 Column_259 Column_260 Column_261 Column_262 Column_263 Column_264 Column_265 Column_266 Column_267 Column_268 Column_269 Column_270 Column_271 Column_272 Column_273 Column_274 Column_275 Column_276 Column_277 Column_278 Column_279 Column_280 Column_281 Column_282 Column_283 Column_284 Column_285 Column_286 Column_287 Column_288 Column_289 Column_290 Column_291 Column_292 Column_293 Column_294 Column_295 Column_296 Column_297 Column_298 Column_299 Column_300 Column_301 Column_302 Column_303 Column_304 Column_305 Column_306 Column_307 Column_308 Column_309 Column_310 Column_311 Column_312 Column_313 Column_314 Column_315 Column_316 Column_317 Column_318 Column_319 Column_320 Column_321 Column_322 Column_323 Column_324 Column_325 Column_326 Column_327 Column_328 Column_329 Column_330 Column_331 Column_332 Column_333 Column_334 Column_335 Column_336 Column_337 Column_338 Column_339 Column_340 Column_341 Column_342 Column_343 Column_344 Column_345 Column_346 Column_347 Column_348 Column_349 Column_350 Column_351 Column_352 Column_353 Column_354 Column_355 Column_356 Column_357 Column_358 Column_359 Column_360 Column_361 Column_362 Column_363 Column_364 Column_365 Column_366 Column_367 Column_368 Column_369 Column_370 Column_371 Column_372 Column_373 Column_374 Column_375 Column_376 Column_377 Column_378 Column_379 Column_380 Column_381 Column_382 Column_383 Column_384 Column_385 Column_386 Column_387 Column_388 Column_389 Column_390 Column_391 Column_392 Column_393 Column_394 Column_395 Column_396 Column_397 Column_398 Column_399 Column_400 Column_401 Column_402 Column_403 Column_404 Column_405 Column_406 Column_407 Column_408 Column_409 Column_410 Column_411 Column_412 Column_413 Column_414 Column_415 Column_416 Column_417 Column_418 Column_419 Column_420 Column_421 Column_422 Column_423 Column_424 Column_425 Column_426 Column_427 Column_428 Column_429 Column_430 Column_431 Column_432 Column_433 Column_434 Column_435 Column_436 Column_437 Column_438 Column_439 Column_440 Column_441 Column_442 Column_443 Column_444 Column_445 Column_446 Column_447 Column_448 Column_449 Column_450 Column_451 Column_452 Column_453 Column_454 Column_455 Column_456 Column_457 Column_458 Column_459 Column_460 Column_461 Column_462 Column_463 Column_464 Column_465 Column_466 Column_467 Column_468 Column_469 Column_470 Column_471 Column_472 Column_473 Column_474 Column_475 Column_476 Column_477 Column_478 Column_479 Column_480 Column_481 Column_482 Column_483 Column_484 Column_485 Column_486 Column_487 Column_488 Column_489 Column_490 Column_491 Column_492 Column_493 Column_494 Column_495 Column_496 Column_497 Column_498 Column_499 Column_500 Column_501 Column_502 Column_503 Column_504 Column_505 Column_506 Column_507 Column_508 Column_509 Column_510 Column_511 Column_512 Column_513 Column_514 Column_515 Column_516 Column_517 Column_518 Column_519 Column_520 Column_521 Column_522 Column_523 Column_524 Column_525 Column_526 Column_527 Column_528 Column_529 Column_530 Column_531 Column_532 Column_533 Column_534 Column_535 Column_536 Column_537 Column_538 Column_539 Column_540 Column_541 Column_542 Column_543 Column_544 Column_545 Column_546 Column_547 Column_548 Column_549 Column_550 Column_551 Column_552 Column_553 Column_554 Column_555 Column_556 Column_557 Column_558 Column_559 Column_560 Column_561 Column_562 Column_563 Column_564 Column_565 Column_566 Column_567 Column_568 Column_569 Column_570 Column_571 Column_572 Column_573 Column_574 Column_575 Column_576 Column_577 Column_578 Column_579 Column_580 Column_581 Column_582 Column_583 Column_584 Column_585 Column_586 Column_587 Column_588 Column_589 Column_590 Column_591 Column_592 Column_593 Column_594 Column_595 Column_596 Column_597 Column_598 Column_599 Column_600 Column_601 Column_602 Column_603 Column_604 Column_605 Column_606 Column_607 Column_608 Column_609 Column_610 Column_611 Column_612 Column_613 Column_614 Column_615 Column_616 Column_617 Column_618 Column_619 Column_620 Column_621 Column_622 Column_623 Column_624 Column_625 Column_626 Column_627 Column_628 Column_629 Column_630 Column_631 Column_632 Column_633 Column_634 Column_635 Column_636 Column_637 Column_638 Column_639 Column_640 Column_641 Column_642 Column_643 Column_644 Column_645 Column_646 Column_647 Column_648 Column_649 Column_650 Column_651 Column_652 Column_653 Column_654 Column_655 Column_656 Column_657 Column_658 Column_659 Column_660 Column_661 Column_662 Column_663 Column_664 Column_665 Column_666 Column_667 Column_668 Column_669 Column_670 Column_671 Column_672 Column_673 Column_674 Column_675 Column_676 Column_677 Column_678 Column_679 Column_680 Column_681 Column_682 Column_683 Column_684 Column_685 Column_686 Column_687 Column_688 Column_689 Column_690 Column_691 Column_692 Column_693 Column_694 Column_695 Column_696 Column_697 Column_698 Column_699 Column_700 Column_701 Column_702 Column_703 Column_704 Column_705 Column_706 Column_707 Column_708 Column_709 Column_710 Column_711 Column_712 Column_713 Column_714 Column_715 Column_716 Column_717 Column_718 Column_719 Column_720 Column_721 Column_722 Column_723 Column_724 Column_725 Column_726 Column_727 Column_728 Column_729 Column_730 Column_731 Column_732 Column_733 Column_734 Column_735 Column_736 Column_737 Column_738 Column_739 Column_740 Column_741 Column_742 Column_743 Column_744 Column_745 Column_746 Column_747 Column_748 Column_749 Column_750 Column_751 Column_752 Column_753 Column_754 Column_755 Column_756 Column_757 Column_758 Column_759 Column_760 Column_761 Column_762 Column_763 Column_764 Column_765 Column_766 Column_767 Column_768 Column_769 Column_770 Column_771 Column_772 Column_773 Column_774 Column_775 Column_776 Column_777 Column_778 Column_779 Column_780 Column_781 Column_782 Column_783 Column_784 Column_785 Column_786 Column_787 Column_788 Column_789 Column_790 Column_791 Column_792 Column_793 Column_794 Column_795 Column_796 Column_797 Column_798 Column_799 Column_800 Column_801 Column_802 Column_803 Column_804 Column_805 Column_806 Column_807 Column_808 Column_809 Column_810 Column_811 Column_812 Column_813 Column_814 Column_815 Column_816 Column_817 Column_818 Column_819 Column_820 Column_821 Column_822 Column_823 Column_824 Column_825 Column_826 Column_827 Column_828 Column_829 Column_830 Column_831 Column_832 Column_833 Column_834 Column_835 Column_836 Column_837 Column_838 Column_839 Column_840 Column_841 Column_842 Column_843 Column_844 Column_845 Column_846 Column_847 Column_848 Column_849 Column_850 Column_851 Column_852 Column_853 Column_854 Column_855 Column_856 Column_857 Column_858 Column_859 Column_860 Column_861 Column_862 Column_863 Column_864 Column_865 Column_866 Column_867 Column_868 Column_869 Column_870 Column_871 Column_872 Column_873 Column_874 Column_875 Column_876 Column_877 Column_878 Column_879 Column_880 Column_881 Column_882 Column_883 Column_884 Column_885 Column_886 Column_887 Column_888 Column_889 Column_890 Column_891 Column_892 Column_893 Column_894 Column_895 Column_896 Column_897 Column_898 Column_899 Column_900 Column_901 Column_902 Column_903 Column_904 Column_905 Column_906 Column_907 Column_908 Column_909 Column_910 Column_911 Column_912 Column_913 Column_914 Column_915 Column_916 Column_917 Column_918 Column_919 Column_920 Column_921 Column_922 Column_923 Column_924 Column_925 Column_926 Column_927 Column_928 Column_929 Column_930 Column_931 Column_932 Column_933 Column_934 Column_935 Column_936 Column_937 Column_938 Column_939 Column_940 Column_941 Column_942 Column_943 Column_944 Column_945 Column_946 Column_947 Column_948 Column_949 Column_950 Column_951 Column_952 Column_953 Column_954 Column_955 Column_956 Column_957 Column_958 Column_959 Column_960 Column_961 Column_962 Column_963 Column_964 Column_965 Column_966 Column_967 Column_968 Column_969 Column_970 Column_971 Column_972 Column_973 Column_974 Column_975 Column_976 Column_977 Column_978 Column_979 Column_980 Column_981 Column_982 Column_983 Column_984 Column_985 Column_986 Column_987 Column_988 Column_989 Column_990 Column_991 Column_992 Column_993 Column_994 Column_995 Column_996 Column_997 Column_998 Column_999 Column_1000 Column_1001 Column_1002 Column_1003 Column_1004 Column_1005 Column_1006 Column_1007 Column_1008 Column_1009 Column_1010 Column_1011 Column_1012 Column_1013 Column_1014 Column_1015 Column_1016 Column_1017 Column_1018 Column_1019 Column_1020 Column_1021 Column_1022 Column_1023 Column_1024 Column_1025 Column_1026 Column_1027 Column_1028 Column_1029 Column_1030 Column_1031 Column_1032 Column_1033 Column_1034 Column_1035 Column_1036 Column_1037 Column_1038 Column_1039 Column_1040 Column_1041 Column_1042 Column_1043 Column_1044 Column_1045 Column_1046 Column_1047 Column_1048 Column_1049 Column_1050 Column_1051 Column_1052 Column_1053 Column_1054 Column_1055 Column_1056 Column_1057 Column_1058 Column_1059 Column_1060 Column_1061 Column_1062 Column_1063 Column_1064 Column_1065 Column_1066 Column_1067 Column_1068 Column_1069 Column_1070 Column_1071 Column_1072 Column_1073 Column_1074 Column_1075 Column_1076 Column_1077 Column_1078 Column_1079 Column_1080 Column_1081 Column_1082 Column_1083 Column_1084 Column_1085 Column_1086 Column_1087 Column_1088 Column_1089 Column_1090 Column_1091 Column_1092 Column_1093 Column_1094 Column_1095 Column_1096 Column_1097 Column_1098 Column_1099 Column_1100 Column_1101 Column_1102 Column_1103 Column_1104 Column_1105 Column_1106 Column_1107 Column_1108 Column_1109 Column_1110 Column_1111 Column_1112 Column_1113 Column_1114 Column_1115 Column_1116 Column_1117 Column_1118 Column_1119 Column_1120 Column_1121 Column_1122 Column_1123 Column_1124 Column_1125 Column_1126 Column_1127 Column_1128 Column_1129 Column_1130 Column_1131 Column_1132 Column_1133 Column_1134 Column_1135 Column_1136 Column_1137 Column_1138 Column_1139 Column_1140 Column_1141 Column_1142 Column_1143 Column_1144 Column_1145 Column_1146 Column_1147 Column_1148 Column_1149 Column_1150 Column_1151 Column_1152 Column_1153 Column_1154 Column_1155 Column_1156 Column_1157 Column_1158 Column_1159 Column_1160 Column_1161 Column_1162 Column_1163 Column_1164 Column_1165 Column_1166 Column_1167 Column_1168 Column_1169 Column_1170 Column_1171 Column_1172 Column_1173 Column_1174 Column_1175 Column_1176 Column_1177 Column_1178 Column_1179 Column_1180 Column_1181 Column_1182 Column_1183 Column_1184 Column_1185 Column_1186 Column_1187 Column_1188 Column_1189 Column_1190 Column_1191 Column_1192 Column_1193 Column_1194 Column_1195 Column_1196 Column_1197 Column_1198 Column_1199 Column_1200 Column_1201 Column_1202 Column_1203 Column_1204 Column_1205 Column_1206 Column_1207 Column_1208 Column_1209 Column_1210 Column_1211 Column_1212 Column_1213 Column_1214 Column_1215 Column_1216 Column_1217 Column_1218 Column_1219 Column_1220 Column_1221 Column_1222 Column_1223 Column_1224 Column_1225 Column_1226 Column_1227 Column_1228 Column_1229 Column_1230 Column_1231 Column_1232 Column_1233 Column_1234 Column_1235 Column_1236 Column_1237 Column_1238 Column_1239 Column_1240 Column_1241 Column_1242 Column_1243 Column_1244 Column_1245 Column_1246 Column_1247 Column_1248 Column_1249 Column_1250 Column_1251 Column_1252 Column_1253 Column_1254 Column_1255 Column_1256 Column_1257 Column_1258 Column_1259 Column_1260 Column_1261 Column_1262 Column_1263 Column_1264 Column_1265 Column_1266 Column_1267 Column_1268 Column_1269 Column_1270 Column_1271 Column_1272 Column_1273 Column_1274 Column_1275 Column_1276 Column_1277 Column_1278 Column_1279 Column_1280 Column_1281 Column_1282 Column_1283 Column_1284 Column_1285 Column_1286 Column_1287 Column_1288 Column_1289 Column_1290 Column_1291 Column_1292 Column_1293 Column_1294 Column_1295 Column_1296 Column_1297 Column_1298 Column_1299 Column_1300 Column_1301 Column_1302 Column_1303 Column_1304 Column_1305 Column_1306 Column_1307 Column_1308 Column_1309 Column_1310 Column_1311 Column_1312 Column_1313 Column_1314 Column_1315 Column_1316 Column_1317 Column_1318 Column_1319 Column_1320 Column_1321 Column_1322 Column_1323 Column_1324 Column_1325 Column_1326 Column_1327 Column_1328 Column_1329 Column_1330 Column_1331 Column_1332 Column_1333 Column_1334 Column_1335 Column_1336 Column_1337 Column_1338 Column_1339 Column_1340 Column_1341 Column_1342 Column_1343 Column_1344 Column_1345 Column_1346 Column_1347 Column_1348 Column_1349 Column_1350 Column_1351 Column_1352 Column_1353 Column_1354 Column_1355 Column_1356 Column_1357 Column_1358 Column_1359 Column_1360 Column_1361 Column_1362 Column_1363 Column_1364 Column_1365 Column_1366 Column_1367 Column_1368 Column_1369 Column_1370 Column_1371 Column_1372 Column_1373 Column_1374 Column_1375 Column_1376 Column_1377 Column_1378 Column_1379 Column_1380 Column_1381 Column_1382 Column_1383 Column_1384 Column_1385 Column_1386 Column_1387 Column_1388 Column_1389 Column_1390 Column_1391 Column_1392 Column_1393 Column_1394 Column_1395 Column_1396 Column_1397 Column_1398 Column_1399 Column_1400 Column_1401 Column_1402 Column_1403 Column_1404 Column_1405 Column_1406 Column_1407 Column_1408 Column_1409 Column_1410 Column_1411 Column_1412 Column_1413 Column_1414 Column_1415 Column_1416 Column_1417 Column_1418 Column_1419 Column_1420 Column_1421 Column_1422 Column_1423 Column_1424 Column_1425 Column_1426 Column_1427 Column_1428 Column_1429 Column_1430 Column_1431 Column_1432 Column_1433 Column_1434 Column_1435 Column_1436 Column_1437 Column_1438 Column_1439 Column_1440 Column_1441 Column_1442 Column_1443 Column_1444 Column_1445 Column_1446 Column_1447 Column_1448 Column_1449 Column_1450 Column_1451 Column_1452 Column_1453 Column_1454 Column_1455 Column_1456 Column_1457 Column_1458 Column_1459 Column_1460 Column_1461 Column_1462 Column_1463 Column_1464 Column_1465 Column_1466 Column_1467 Column_1468 Column_1469 Column_1470 Column_1471 Column_1472 Column_1473 Column_1474 Column_1475 Column_1476 Column_1477 Column_1478 Column_1479 Column_1480 Column_1481 Column_1482 Column_1483 Column_1484 Column_1485 Column_1486 Column_1487 Column_1488 Column_1489 Column_1490 Column_1491 Column_1492 Column_1493 Column_1494 Column_1495 Column_1496 Column_1497 Column_1498 Column_1499 Column_1500 Column_1501 Column_1502 Column_1503 Column_1504 Column_1505 Column_1506 Column_1507 Column_1508 Column_1509 Column_1510 Column_1511 Column_1512 Column_1513 Column_1514 Column_1515 Column_1516 Column_1517 Column_1518 Column_1519 Column_1520 Column_1521 Column_1522 Column_1523 Column_1524 Column_1525 Column_1526 Column_1527 Column_1528 Column_1529 Column_1530 Column_1531 Column_1532 Column_1533 Column_1534 Column_1535 Column_1536 Column_1537 Column_1538 Column_1539 Column_1540 Column_1541 Column_1542 Column_1543 Column_1544 Column_1545 Column_1546 Column_1547 Column_1548 Column_1549 Column_1550 Column_1551 Column_1552 Column_1553 Column_1554 Column_1555 Column_1556 Column_1557 Column_1558 Column_1559 Column_1560 Column_1561 Column_1562 Column_1563 Column_1564 Column_1565 Column_1566 Column_1567 Column_1568 Column_1569 Column_1570 Column_1571 Column_1572 Column_1573 Column_1574 Column_1575 Column_1576 Column_1577 Column_1578 Column_1579 Column_1580 Column_1581 Column_1582 Column_1583 Column_1584 Column_1585 Column_1586 Column_1587 Column_1588 Column_1589 Column_1590 Column_1591 Column_1592 Column_1593 Column_1594 Column_1595 Column_1596 Column_1597 Column_1598 Column_1599 Column_1600 Column_1601 Column_1602 Column_1603 Column_1604 Column_1605 Column_1606 Column_1607 Column_1608 Column_1609 Column_1610 Column_1611 Column_1612 Column_1613 Column_1614 Column_1615 Column_1616 Column_1617 Column_1618 Column_1619 Column_1620 Column_1621 Column_1622 Column_1623 Column_1624 Column_1625 Column_1626 Column_1627 Column_1628 Column_1629 Column_1630 Column_1631 Column_1632 Column_1633 Column_1634 Column_1635 Column_1636 Column_1637 Column_1638 Column_1639 Column_1640 Column_1641 Column_1642 Column_1643 Column_1644 Column_1645 Column_1646 Column_1647 Column_1648 Column_1649 Column_1650 Column_1651 Column_1652 Column_1653 Column_1654 Column_1655 Column_1656 Column_1657 Column_1658 Column_1659 Column_1660 Column_1661 Column_1662 Column_1663 Column_1664 Column_1665 Column_1666 Column_1667 Column_1668 Column_1669 Column_1670 Column_1671 Column_1672 Column_1673 Column_1674 Column_1675 Column_1676 Column_1677 Column_1678 Column_1679 Column_1680 Column_1681 Column_1682 Column_1683 Column_1684 Column_1685 Column_1686 Column_1687 Column_1688 Column_1689 Column_1690 Column_1691 Column_1692 Column_1693 Column_1694 Column_1695 Column_1696 Column_1697 Column_1698 Column_1699 Column_1700 Column_1701 Column_1702 Column_1703 Column_1704 Column_1705 Column_1706 Column_1707 Column_1708 Column_1709 Column_1710 Column_1711 Column_1712 Column_1713 Column_1714 Column_1715 Column_1716 Column_1717 Column_1718 Column_1719 Column_1720 Column_1721 Column_1722 Column_1723 Column_1724 Column_1725 Column_1726 Column_1727 Column_1728 Column_1729 Column_1730 Column_1731 Column_1732 Column_1733 Column_1734 Column_1735 Column_1736 Column_1737 Column_1738 Column_1739 Column_1740 Column_1741 Column_1742 Column_1743 Column_1744 Column_1745 Column_1746 Column_1747 Column_1748 Column_1749 Column_1750 Column_1751 Column_1752 Column_1753 Column_1754 Column_1755 Column_1756 Column_1757 Column_1758 Column_1759 Column_1760 Column_1761 Column_1762 Column_1763 Column_1764 Column_1765 Column_1766 Column_1767 Column_1768 Column_1769 Column_1770 Column_1771 Column_1772 Column_1773 Column_1774 Column_1775 Column_1776 Column_1777 Column_1778 Column_1779 Column_1780 Column_1781 Column_1782 Column_1783 Column_1784 Column_1785 Column_1786 Column_1787 Column_1788 Column_1789 Column_1790 Column_1791 Column_1792 Column_1793 Column_1794 Column_1795 Column_1796 Column_1797 Column_1798 Column_1799 Column_1800 Column_1801 Column_1802 Column_1803 Column_1804 Column_1805 Column_1806 Column_1807 Column_1808 Column_1809 Column_1810 Column_1811 Column_1812 Column_1813 Column_1814 Column_1815 Column_1816 Column_1817 Column_1818 Column_1819 Column_1820 Column_1821 Column_1822 Column_1823 Column_1824 Column_1825 Column_1826 Column_1827 Column_1828 Column_1829 Column_1830 Column_1831 Column_1832 Column_1833 Column_1834 Column_1835 Column_1836 Column_1837 Column_1838 Column_1839 Column_1840 Column_1841 Column_1842 Column_1843 Column_1844 Column_1845 Column_1846 Column_1847 Column_1848 Column_1849 Column_1850 Column_1851 Column_1852 Column_1853 Column_1854 Column_1855 Column_1856 Column_1857 Column_1858 Column_1859 Column_1860 Column_1861 Column_1862 Column_1863 Column_1864 Column_1865 Column_1866 Column_1867 Column_1868 Column_1869 Column_1870 Column_1871 Column_1872 Column_1873 Column_1874 Column_1875 Column_1876 Column_1877 Column_1878 Column_1879 Column_1880 Column_1881 Column_1882 Column_1883 Column_1884 Column_1885 Column_1886 Column_1887 Column_1888 Column_1889 Column_1890 Column_1891 Column_1892 Column_1893 Column_1894 Column_1895 Column_1896 Column_1897 Column_1898 Column_1899 Column_1900 Column_1901 Column_1902 Column_1903 Column_1904 Column_1905 Column_1906 Column_1907 Column_1908 Column_1909 Column_1910 Column_1911 Column_1912 Column_1913 Column_1914 Column_1915 Column_1916 Column_1917 Column_1918 Column_1919 Column_1920 Column_1921 Column_1922 Column_1923 Column_1924 Column_1925 Column_1926 Column_1927 Column_1928 Column_1929 Column_1930 Column_1931 Column_1932 Column_1933 Column_1934 Column_1935 Column_1936 Column_1937 Column_1938 Column_1939 Column_1940 Column_1941 Column_1942 Column_1943 Column_1944 Column_1945 Column_1946 Column_1947 Column_1948 Column_1949 Column_1950 Column_1951 Column_1952 Column_1953 Column_1954 Column_1955 Column_1956 Column_1957 Column_1958 Column_1959 Column_1960 Column_1961 Column_1962 Column_1963 Column_1964 Column_1965 Column_1966 Column_1967 Column_1968 Column_1969 Column_1970 Column_1971 Column_1972 Column_1973 Column_1974 Column_1975 Column_1976 Column_1977 Column_1978 Column_1979 Column_1980 Column_1981 Column_1982 Column_1983 Column_1984 Column_1985 Column_1986 Column_1987 Column_1988 Column_1989 Column_1990 Column_1991 Column_1992 Column_1993 Column_1994 Column_1995 Column_1996 Column_1997 Column_1998 Column_1999 Column_2000 Column_2001 Column_2002 Column_2003 Column_2004 Column_2005 Column_2006 Column_2007 Column_2008 Column_2009 Column_2010 Column_2011 Column_2012 Column_2013 Column_2014 Column_2015 Column_2016 Column_2017 Column_2018 Column_2019 Column_2020 Column_2021 Column_2022 Column_2023 Column_2024 Column_2025 Column_2026 Column_2027 Column_2028 Column_2029 Column_2030 Column_2031 Column_2032 Column_2033 Column_2034 Column_2035 Column_2036 Column_2037 Column_2038 Column_2039 Column_2040 Column_2041 Column_2042 Column_2043 Column_2044 Column_2045 Column_2046 Column_2047
feature_infos=[0.0048764930106699467:0.18745152652263641] [-0.089621581137180328:0.084274262189865112] [0.01828354224562645:0.15763011574745178] [-0.033624559640884399:0.061333805322647095] [-0.11369697749614716:0.10751305520534515] [-0.12798169255256653:0.022331099957227707] [-0.095358766615390778:0.057069700211286545] [0.00064242316875606775:0.067473903298377991] [-0.12789458036422729:-0.066161133348941803] [-0.33360856771469116:-0.13025693595409393] [-0.20983028411865234:-0.13859935104846954] [-0.29830724000930786:-0.18650227785110474] [-0.081065267324447632:0.015611755661666393] [0.1390363872051239:0.35980871319770813] [0.032117340713739395:0.10532853752374649] [-0.14224205911159515:0.066916227340698242] [0.18719501793384552:0.26847079396247864] [-0.082268461585044861:0.033381585031747818] [-0.66081571578979492:-0.26770243048667908] [-0.062476657330989838:0.080394364893436432] [-0.026883339509367943:0.099973641335964203] [-0.015806360170245171:0.087680526077747345] [-0.067851297557353973:0.047211453318595886] [-0.16945530474185944:-0.083523258566856384] [0.0086940545588731766:0.19090491533279419] [0.24530351161956787:0.46625056862831116] [0.13267889618873596:0.2645479142665863] [-0.033217553049325943:0.19004462659358978] [-0.13002847135066986:-0.0065394071862101555] [-0.079158149659633636:0.061193536967039108] [0.049909632652997971:0.11309017241001129] [-0.30515682697296143:-0.15710704028606415] [-0.18067546188831329:-0.060247931629419327] [0.11382129043340683:0.23302000761032104] [0.021716104820370674:0.1126212552189827] [-0.16382041573524475:-0.061773184686899185] [-0.14059406518936157:-0.040577065199613571] [-0.0074034254066646099:0.092913053929805756] [-0.20114223659038544:-0.096525721251964569] [-0.046422403305768967:0.030384602025151253] [-0.13916908204555511:-0.049734443426132202] [-0.07993394136428833:0.024451974779367447] [-0.042955834418535233:0.03092239610850811] [-0.51076501607894897:-0.09536530077457428] [-0.018450088798999786:0.17552940547466278] [0.27661445736885071:0.3625539243221283] [0.20095479488372803:0.26801449060440063] [-6.3951039919629693e-05:0.1513773649930954] [-0.052586697041988373:0.076879613101482391] [-0.050784580409526825:0.073134914040565491] [-0.26143303513526917:-0.18805930018424988] [0.008309987373650074:0.073885805904865265] [-0.014227490872144699:0.20872539281845093] [0.008112921379506588:0.15586040914058685] [-0.096251741051673889:-0.010897076688706875] [0.083146192133426666:0.27772814035415649] [-0.30009686946868896:-0.062096159905195236] [0.037580780684947968:0.14252051711082458] [0.22299796342849731:0.37630107998847961] [-0.081225894391536713:0.029449602589011192] [-0.24577979743480682:-0.037647485733032227] [-0.11491736024618149:-0.028605394065380096] [-0.18466766178607941:-0.0022007955703884363] [-0.016043992713093758:0.077882528305053711] [-0.096023961901664734:0.058309454470872879] [-0.40382698178291321:-0.18326146900653839] [-0.19969554245471954:-0.031433135271072388] [0.13432694971561432:0.2436148077249527] [0.033765688538551331:0.093742817640304565] [-0.07471812516450882:0.10947217792272568] [-0.02914302796125412:0.10689786821603775] [-0.9417346715927124:-0.28078639507293701] [-0.22393332421779633:-0.012232998386025429] [-0.10355179756879807:-0.017328575253486633] [-0.0170851219445467:-0.0037274030037224293] [0.047368615865707397:0.16716572642326355] [0.021388232707977295:0.1388184130191803] [-0.012676583603024483:0.11830705404281616] [-0.038101337850093842:0.032964121550321579] [-0.13368657231330872:-0.060771133750677109] [-0.13391493260860443:-0.049210906028747559] [-0.10749157518148422:0.15823732316493988] [-0.083086602389812469:-0.015189112164080143] [0.11893293261528015:0.2449353039264679] [-0.095222413539886475:-1.220544618263375e-05] [-0.041343234479427338:0.045083086937665939] [0.039581943303346634:0.11112427711486816] [-0.17651689052581787:0.035476930439472198] [-0.16180059313774109:-0.012425755150616169] [0.057981248944997787:0.2214508056640625] [0.15559905767440796:0.28986907005310059] [-0.05185936763882637:0.066691204905509949] [-0.022060602903366089:0.16079315543174744] [-0.13590556383132935:-0.022530350834131241] [0.1850864440202713:0.39615413546562195] [-0.14601530134677887:0.005229657981544733] [-0.073024511337280273:0.10260002315044403] [-0.030920239165425301:0.10898797959089279] [0.30500870943069458:0.73076170682907104] [-0.12547360360622406:-0.063695847988128662] [-0.069721221923828125:0.063239894807338715] [-0.23830260336399078:-0.11514291167259216] [-0.012305943295359612:0.17672522366046906] [-0.056753069162368774:0.011015799827873707] [0.042017795145511627:0.26938924193382263] [-0.16115272045135498:-0.086874231696128845] [-0.19887001812458038:-0.088456675410270691] [-0.20680505037307739:-0.030761096626520157] [-0.037859506905078888:0.10263276100158691] [-0.17987845838069916:-0.042243435978889465] [-0.031603187322616577:0.052538570016622543] [-0.16256958246231079:-0.031450051814317703] [-0.048224281519651413:0.11739303171634674] [0.0041573820635676384:0.087518244981765747] [-0.055213015526533127:0.091936998069286346] [-0.26938566565513611:-0.12186602503061295] [-0.050605069845914841:0.09594438225030899] [0.0054574855603277683:0.091341108083724976] [-0.14054395258426666:0.047158908098936081] [-0.19821199774742126:-0.015310255810618401] [0.077139750123023987:0.20164461433887482] [-0.019671026617288589:0.08928767591714859] [0.48038321733474731:1.0407670736312866] [0.0040635694749653339:0.075728669762611389] [-0.15298064053058624:-0.10268346965312958] [-0.073648020625114441:0.038050241768360138] [-0.20927537977695465:0.034348167479038239] [-0.065084785223007202:0.10898050665855408] [0.19561219215393066:0.32038581371307373] [-0.11746013909578323:-0.043732032179832458] [-0.11943641304969788:-0.048703469336032867] [0.062975428998470306:0.13495936989784241] [-0.035185299813747406:0.078764751553535461] [-0.36818712949752808:-0.083762228488922119] [-0.17275381088256836:-0.086964718997478485] [-0.094422295689582825:0.24431498348712921] [-0.058664187788963318:0.069027036428451538] [0.062306970357894897:0.17310328781604767] [-0.0056509166024625301:0.074278831481933594] [0.033177673816680908:0.21654528379440308] [0.065783604979515076:0.17034322023391724] [-0.19924235343933105:-0.0020520680118352175] [0.077278360724449158:0.28387507796287537] [-0.034879207611083984:0.054733522236347198] [0.062127154320478439:0.14394719898700714] [-0.051984302699565887:0.11354526877403259] [-0.028737861663103104:0.06477665901184082] [-0.012191150337457657:0.049139071255922318] [0.0074651753529906273:0.063589602708816528] [-0.054432462900876999:0.014881840907037258] [-0.079244881868362427:0.0085941888391971588] [-0.11443737149238586:-0.0026878942735493183] [-0.1044485792517662:-0.011327649466693401] [0.057406358420848846:0.12707267701625824] [-0.21052837371826172:-0.080743908882141113] [-0.21995805203914642:-0.046901535242795944] [-0.098046965897083282:0.0078810174018144608] [-0.17558856308460236:0.031070826575160027] [-0.085555575788021088:-0.015024276450276375] [-0.021282212808728218:0.085278443992137909] [-0.11605755984783173:0.099968291819095612] [-0.11737338453531265:0.094529770314693451] [-0.086323902010917664:-0.030426602810621262] [0.10470107942819595:0.18528679013252258] [-0.098005034029483795:0.028755081817507744] [-0.1900818794965744:-0.054608240723609924] [-0.44622847437858582:-0.25601133704185486] [-0.039353679865598679:0.012343067675828934] [-0.24852903187274933:-0.12643413245677948] [-0.077980309724807739:0.17336584627628326] [-0.061534449458122253:0.068237818777561188] [-0.018911644816398621:0.24677069485187531] [-0.050961721688508987:0.1620914489030838] [-0.12263374030590057:-0.034764345735311508] [-0.10840737074613571:0.016601245850324631] [-0.013356942683458328:0.041638284921646118] [-0.075191505253314972:0.029245207086205482] [-0.09813331812620163:0.062228213995695114] [-0.065801255404949188:0.085206076502799988] [-0.16809780895709991:0.050395824015140533] [-0.13402767479419708:-0.022736644372344017] [-0.46861225366592407:-0.27631565928459167] [-0.28344812989234924:-0.10054466873407364] [-0.19728139042854309:-0.068989396095275879] [-0.14467288553714752:-0.037118162959814072] [-0.0024965470656752586:0.10517918318510056] [-0.17915576696395874:-0.069345764815807343] [0.039010554552078247:0.17798210680484772] [0.053008850663900375:0.20781226456165314] [-0.082484245300292969:-0.0075321970507502556] [-0.52059465646743774:-0.32573843002319336] [0.0051993844099342823:0.097319640219211578] [0.09670218825340271:0.26878312230110168] [-0.11733338981866837:-0.046326305717229843] [0.010835940018296242:0.074537701904773712] [-0.14311636984348297:-0.00010345552436774597] [-0.025029156357049942:0.16841769218444824] [-0.07892792671918869:0.19887590408325195] [0.10591369867324829:0.27202069759368896] [-0.3343031108379364:-0.13509604334831238] [-0.43174830079078674:-0.24770258367061615] [0.0350777767598629:0.13573078811168671] [-0.068988747894763947:-0.029941702261567116] [-0.059995703399181366:0.0012428575428202748] [-0.28439280390739441:-0.083273440599441528] [-0.06908242404460907:-0.014747439883649349] [-0.078702405095100403:0.088097676634788513] [-0.14595772325992584:0.0072737983427941799] [0.15824513137340546:0.2614586353302002] [-0.082252487540245056:-0.020604545250535011] [-0.0051875114440917969:0.059044215828180313] [-0.029509669169783592:0.062598414719104767] [0.057634361088275909:0.21913501620292664] [-0.040403310209512711:0.064375266432762146] [-0.098217308521270752:-0.0092711849138140678] [-0.13848544657230377:0.064805597066879272] [-0.19765260815620422:0.01669687032699585] [-0.073054686188697815:0.031982433050870895] [-0.21876776218414307:-0.027623007073998451] [0.14042998850345612:0.24272288382053375] [-0.052797529846429825:0.065170750021934509] [0.024004451930522919:0.10512544959783554] [-0.14817282557487488:-0.059796866029500961] [0.17983549833297729:0.26971355080604553] [-0.011216818355023861:0.057181283831596375] [-0.0788249671459198:0.066248401999473572] [-0.089865997433662415:0.072333984076976776] [-0.061971798539161682:0.058450687676668167] [-0.070823192596435547:0.091481700539588928] [-0.2210509181022644:-0.08777240663766861] [-0.17424391210079193:-0.066732250154018402] [-0.079450823366641998:0.061162669211626053] [0.29453375935554504:0.46157845854759216] [0.14108152687549591:0.24269662797451019] [0.0074627222493290901:0.12866614758968353] [0.0080156642943620682:0.15909336507320404] [-0.22441047430038452:-0.029401233419775963] [0.023302998393774033:0.072629347443580627] [-0.093690179288387299:0.03616965189576149] [-0.031153406947851181:0.049752335995435715] [-0.052958104759454727:0.062034837901592255] [0.087244041264057159:0.30306518077850342] [-0.11080627888441086:-0.040912609547376633] [0.01164859626442194:0.083608739078044891] [0.32050442695617676:0.51118934154510498] [0.01529141329228878:0.090755835175514221] [-0.20903956890106201:-0.10637369006872177] [-0.17417263984680176:-0.068138144910335541] [0.0027257408946752548:0.19215685129165649] [-0.087645381689071655:0.0017222107853740454] [0.072080515325069427:0.36977899074554443] [0.0031852617394179106:0.12431038171052933] [0.25529870390892029:0.3756181001663208] [-0.13278681039810181:0.081498384475708008] [-0.080297753214836121:0.040586724877357483] [0.094540685415267944:0.1977502703666687] [0.018012423068284988:0.075010240077972412] [-0.044279489666223526:0.023074500262737274] [0.094435602426528931:0.25711652636528015] [-0.021138252690434456:0.021334227174520493] [-0.20892725884914398:-0.036936555057764053] [-0.13384272158145905:-0.054261751472949982] [0.15127904713153839:0.24706776440143585] [-0.093332521617412567:-0.0361068956553936] [-0.042019061744213104:0.043272282928228378] [0.057636681944131851:0.15293091535568237] [-0.25845274329185486:-0.019330205395817757] [0.066515833139419556:0.24826687574386597] [-0.0094908243045210838:0.19473445415496826] [-0.017534881830215454:0.057512059807777405] [-0.11447447538375854:0.0573737733066082] [-0.031632035970687866:0.13805978000164032] [-0.031748242676258087:0.10328614711761475] [-0.064833752810955048:0.023550424724817276] [-0.025167424231767654:0.14247143268585205] [0.20058445632457733:0.42245751619338989] [-0.071763284504413605:0.014715526252985001] [-0.080611921846866608:0.030859531834721565] [-0.01734287291765213:0.12609526515007019] [0.024217249825596809:0.1078067347407341] [0.060963869094848633:0.14639087021350861] [0.18192155659198761:0.31446936726570129] [-0.083491802215576172:0.058448459953069687] [-0.53123724460601807:-0.030813256278634071] [0.0065006539225578308:0.047825049608945847] [0.092873357236385345:0.26606416702270508] [-0.097831003367900848:-0.030318686738610268] [1.4733977877767757e-05:0.055973663926124573] [-0.025094792246818542:0.058534897863864899] [-0.044845074415206909:0.046001564711332321] [0.18804150819778442:0.30631077289581299] [0.038500133901834488:0.13371600210666656] [0.058175809681415558:0.12214066088199615] [-0.064407989382743835:0.048931233584880829] [0.059087760746479034:0.17611293494701385] [-0.16295778751373291:-0.0095004802569746971] [-0.02827305905520916:0.056440673768520355] [-0.091882407665252686:-0.024427331984043121] [0.08151707798242569:0.1673956960439682] [-0.16099642217159271:-0.030621448531746864] [0.040383636951446533:0.11104563623666763] [-0.13793249428272247:-0.028364347293972969] [0.066684991121292114:0.2294050008058548] [-0.19834026694297791:-0.10216334462165833] [0.029819425195455551:0.13148786127567291] [0.10022396594285965:0.17756031453609467] [0.011247285641729832:0.086081929504871368] [-0.10610748827457428:-0.037023387849330902] [-0.13704827427864075:-0.012216098606586456] [-0.051086504012346268:0.025621414184570312] [0.18825578689575195:0.31884756684303284] [0.17121239006519318:0.32719951868057251] [-0.27780276536941528:-0.048813674598932266] [-0.076317481696605682:0.035655327141284943] [0.054336916655302048:0.13513965904712677] [0.20735232532024384:0.39591741561889648] [0.0087558310478925705:0.14138905704021454] [-0.046717055141925812:0.039562106132507324] [0.41524049639701843:0.75729823112487793] [-0.11208569258451462:-0.041368842124938965] [0.19321490824222565:0.42741042375564575] [0.087120354175567627:0.21482695639133453] [0.13644169270992279:0.24946363270282745] [-0.031967826187610626:0.11190641671419144] [-0.033989910036325455:0.084337122738361359] [0.017149252817034721:0.11703073978424072] [-0.030174223706126213:0.020099200308322906] [0.034255452454090118:0.11375930905342102] [0.036446768790483475:0.24759773910045624] [-0.20446565747261047:-0.07384122908115387] [-0.050163812935352325:0.006044402252882719] [-0.1773083359003067:-0.11128999292850494] [0.09456179291009903:0.17756456136703491] [-0.053175345063209534:0.018440093845129013] [-0.36293798685073853:-0.14519010484218597] [-0.078337088227272034:-0.0036379673983901739] [-0.34276717901229858:-0.15082463622093201] [0.053894113749265671:0.46861046552658081] [0.074651964008808136:0.28596806526184082] [-0.1108391210436821:0.021029163151979446] [0.16152378916740417:0.25675195455551147] [-0.055425733327865601:0.019797408953309059] [-0.42010986804962158:-0.26822063326835632] [0.0081102615222334862:0.1479949951171875] [0.16349868476390839:0.31244102120399475] [-0.0091448836028575897:0.11466680467128754] [-0.080969281494617462:0.034869369119405746] [-0.12836304306983948:0.14302220940589905] [-0.10329297184944153:-0.011026563122868538] [-0.020262040197849274:0.081586368381977081] [-0.019756576046347618:0.091120265424251556] [0.066687531769275665:0.17594155669212341] [0.010719833895564079:0.07410643994808197] [-0.38378259539604187:-0.061536680907011032] [0.07457355409860611:0.19576598703861237] [0.072986677289009094:0.14138439297676086] [-0.10203304886817932:-0.0018472204683348536] [-0.0057810675352811813:0.076914370059967041] [0.018589304760098457:0.24794876575469971] [0.12100860476493835:0.32527968287467957] [0.074484139680862427:0.14438429474830627] [-0.068371765315532684:0.024113131687045097] [-0.070197612047195435:0.26428943872451782] [0.0029382093343883753:0.095395565032958984] [-0.01157067809253931:0.098379217088222504] [0.057207610458135605:0.15363992750644684] [-0.33126702904701233:-0.16617429256439209] [-0.099658548831939697:0.085066065192222595] [0.048150423914194107:0.12298387289047241] [-0.065949879586696625:0.15485537052154541] [-0.021062102168798447:0.25934335589408875] [-1.2329431772232056:-0.45093452930450439] [-0.3319433331489563:-0.17757128179073334] [-0.21182407438755035:-0.092144481837749481] [-0.31977328658103943:-0.18033970892429352] [0.01423188578337431:0.13669054210186005] [-0.0391433946788311:0.1854393482208252] [-0.19963191449642181:-0.099916435778141022] [0.0024477699771523476:0.22782224416732788] [-0.04167141392827034:0.064059458673000336] [-0.016429886221885681:0.043894525617361069] [0.18290165066719055:0.35756251215934753] [0.082027710974216461:0.21405397355556488] [-0.10410845279693604:0.065671049058437347] [-0.21963447332382202:-0.10642378777265549] [-0.048267967998981476:0.021037632599473] [-0.066496029496192932:0.073743395507335663] [-0.036881431937217712:0.077222719788551331] [-0.069958910346031189:0.0075765317305922508] [0.033970221877098083:0.13112901151180267] [-0.036212507635354996:0.11824885010719299] [-0.16763018071651459:-0.094177350401878357] [0.25989645719528198:0.41807138919830322] [-0.0229774359613657:0.066230878233909607] [0.0017090383917093277:0.10409551858901978] [-0.069022580981254578:0.011277069337666035] [0.047585677355527878:0.16171127557754517] [-0.30374297499656677:-0.020679112523794174] [-0.31866291165351868:-0.057323239743709564] [-0.13696257770061493:-0.052552253007888794] [0.068156950175762177:0.20666003227233887] [-0.064184367656707764:0.094961002469062805] [-0.027462024241685867:0.029637685045599937] [-0.082233250141143799:0.028377112001180649] [0.076356075704097748:0.22514669597148895] [-0.020246893167495728:0.03131452202796936] [0.22096206247806549:0.34022247791290283] [-0.081336244940757751:0.07346990704536438] [-0.18435646593570709:-0.10189219564199448] [-0.20247100293636322:-0.017626050859689713] [0.27030262351036072:0.39095941185951233] [-0.11995229870080948:-0.013459037989377975] [-0.2299620658159256:-0.12131229788064957] [-0.10477792471647263:0.01217174157500267] [0.080143250524997711:0.18620505928993225] [-0.034454464912414551:0.059437111020088196] [-0.083912491798400879:0.056806616485118866] [-0.16905629634857178:-0.05484820157289505] [-0.3063347339630127:-0.11108017712831497] [-0.040564157068729401:0.16800439357757568] [-0.08901078999042511:0.0082423044368624687] [-0.096236005425453186:0.093427941203117371] [-0.086793296039104462:-0.017073767259716988] [-0.057542994618415833:0.02540859766304493] [-0.071736574172973633:0.037049785256385803] [0.042253538966178894:0.19625368714332581] [-0.043837215751409531:0.14908798038959503] [-0.12451730668544769:-0.024337446317076683] [-0.067401915788650513:0.026766875758767128] [-0.062242832034826279:0.065694332122802734] [0.079459011554718018:0.20881533622741699] [0.0043306550942361355:0.14030726253986359] [-0.077179692685604095:0.028511518612504005] [-0.25870987772941589:-0.13861909508705139] [-0.036318965256214142:0.10841779410839081] [0.016370868310332298:0.21208538115024567] [-0.45299634337425232:-0.26554197072982788] [-0.058060389012098312:0.087834969162940979] [-0.34391209483146667:-0.1740696132183075] [0.099893555045127869:0.30178079009056091] [-0.22239281237125397:0.06477055698633194] [-0.048490002751350403:0.02951783686876297] [0.00039677286986261606:0.14242765307426453] [0.049491915851831436:0.24845398962497711] [-0.12436869740486145:-0.030123922973871231] [-0.083362028002738953:0.10711532086133957] [-0.022231660783290863:0.095086894929409027] [-0.38026842474937439:-0.12735638022422791] [-0.085156165063381195:-0.010492615401744843] [-0.054956939071416855:0.056913834065198898] [-0.05772780254483223:0.079309090971946716] [0.050858885049819946:0.15263234078884125] [-0.036659665405750275:0.042963650077581406] [-0.16151246428489685:-0.03825349360704422] [-0.026872118934988976:0.058668971061706543] [0.11692400276660919:0.22775627672672272] [-0.55314159393310547:-0.33480027318000793] [-0.17895112931728363:-0.02434084378182888] [0.033013548702001572:0.18514274060726166] [-0.10546097904443741:0.14512179791927338] [0.019444709643721581:0.074283935129642487] [0.26575037837028503:0.42288026213645935] [0.0028022271580994129:0.054433275014162064] [-0.046189162880182266:0.069739252328872681] [-0.21594509482383728:-0.072353504598140717] [-0.11276325583457947:0.023328540846705437] [-0.18107032775878906:-0.099614858627319336] [-0.15894328057765961:0.069949015974998474] [-0.25456756353378296:-0.051379553973674774] [-0.46828249096870422:-0.33506384491920471] [-0.0064021805301308632:0.16138529777526855] [-0.06773877888917923:0.036056447774171829] [-0.082182176411151886:0.017837882041931152] [0.14963383972644806:0.22544969618320465] [-0.0053099268116056919:0.1000756099820137] [-0.040785975754261017:0.1476396918296814] [-0.7531161904335022:-0.44921144843101501] [-0.0056357923895120621:0.076968826353549957] [-0.10608893632888794:0.10798943787813187] [0.01162404753267765:0.080284543335437775] [0.033367082476615906:0.15602479875087738] [0.003567784558981657:0.038757957518100739] [0.1619131863117218:0.25757065415382385] [-0.043189145624637604:0.042908094823360443] [0.03475329652428627:0.0902448371052742] [-0.18904522061347961:-0.035322997719049454] [-0.01912374421954155:0.07781558483839035] [-0.0021756335627287626:0.083265721797943115] [-0.16168758273124695:-0.068718992173671722] [-0.50847160816192627:-0.26745292544364929] [-0.044279769062995911:0.036891862750053406] [-0.097839325666427612:-0.015412998385727406] [0.047703757882118225:0.16406548023223877] [0.073564760386943817:0.17425701022148132] [-0.043315179646015167:0.096436053514480591] [-0.52744513750076294:-0.38044777512550354] [-0.12712128460407257:-0.044010769575834274] [0.062092166393995285:0.18869510293006897] [-0.28622090816497803:-0.18909929692745209] [0.014663275331258774:0.10160123556852341] [-0.15146991610527039:-0.016094999387860298] [-0.05320671945810318:0.01484356913715601] [-0.18291288614273071:0.018140546977519989] [-0.02674102783203125:0.04856552928686142] [0.23476360738277435:0.38588529825210571] [0.080193229019641876:0.27692651748657227] [-0.079415746033191681:0.0030420827679336071] [0.02952118031680584:0.1587534099817276] [-0.13833418488502502:-0.015244074165821075] [0.24720731377601624:0.33677977323532104] [-0.08870290219783783:0.018154725432395935] [-0.18891224265098572:-0.13311752676963806] [-0.10100682824850082:0.095197923481464386] [-0.39011445641517639:-0.25368687510490417] [0.0080785537138581276:0.091153435409069061] [0.091568239033222198:0.17923220992088318] [0.020294439047574997:0.16358749568462372] [0.32086524367332458:0.751578688621521] [-0.10750506073236465:0.0035380763001739979] [-0.25792998075485229:-0.16935800015926361] [-0.078879006206989288:0.033382538706064224] [-0.052938405424356461:0.068338364362716675] [-0.1940901130437851:-0.020011588931083679] [-0.85148859024047852:-0.38964512944221497] [0.16073174774646759:0.29352283477783203] [-0.23582713305950165:-0.11690714955329895] [-0.16895999014377594:-0.049956198781728745] [-0.40381702780723572:-0.14044010639190674] [-0.1692768782377243:-0.077915996313095093] [-0.13336606323719025:0.01112659927457571] [-0.13609521090984344:-0.052933301776647568] [-0.38779175281524658:-0.21947252750396729] [-0.08374553918838501:-0.049834422767162323] [-0.00894178356975317:0.19466841220855713] [-0.15616101026535034:-0.076180770993232727] [-0.19423724710941315:-0.064700327813625336] [0.018030203878879547:0.15976408123970032] [-0.1271769106388092:-0.012600184418261051] [-0.024628635495901108:0.073355644941329956] [-0.16224148869514465:0.03129296749830246] [-0.23334814608097076:-0.13097289204597473] [-0.12455036491155624:0.060952845960855484] [0.10060964524745941:0.24414996802806854] [-0.18017268180847168:-0.052151337265968323] [0.13995885848999023:0.30735617876052856] [-0.043410208076238632:0.054329302161931992] [-0.096237115561962128:0.042500272393226624] [0.10852576047182083:0.23875756561756134] [0.16431218385696411:0.29546162486076355] [-0.15635529160499573:-0.0052986531518399715] [-0.019295593723654747:0.036135643720626831] [-0.0058798138052225113:0.065045356750488281] [0.092468775808811188:0.18674090504646301] [-0.0040383771993219852:0.049065724015235901] [-0.03963344544172287:0.086407281458377838] [0.050749287009239197:0.13737265765666962] [-0.23107820749282837:-0.092094488441944122] [0.1182868629693985:0.23355346918106079] [-0.3465099036693573:-0.23650521039962769] [0.11442351341247559:0.21830971539020538] [0.13804462552070618:0.24996884167194366] [-0.021922178566455841:0.071001254022121429] [-0.22024998068809509:-0.090874001383781433] [0.062270089983940125:0.13825426995754242] [-0.63246315717697144:-0.41250330209732056] [0.004128327127546072:0.12695805728435516] [0.043910238891839981:0.15973664820194244] [-0.02113938145339489:0.060961354523897171] [-0.06089353933930397:0.046504657715559006] [-0.17593094706535339:-0.071246400475502014] [0.17148163914680481:0.25559526681900024] [-0.045793842524290085:0.088095217943191528] [0.17425110936164856:0.26346740126609802] [0.058543343096971512:0.39848655462265015] [-0.25082030892372131:-0.037825118750333786] [-0.14071609079837799:-0.052371267229318619] [0.14809972047805786:0.34409156441688538] [-0.069198116660118103:0.067637957632541656] [-0.063061624765396118:0.062432374805212021] [0.14922350645065308:0.25933843851089478] [0.025132158771157265:0.089690275490283966] [-0.11501891165971756:0.012597967870533466] [-0.080321989953517914:0.0031666287686675787] [-0.094317257404327393:0.0091736055910587311] [0.04268815740942955:0.25207987427711487] [-0.01161040086299181:0.08029019832611084] [0.037872403860092163:0.09190022200345993] [-0.096471384167671204:-0.0085856309160590172] [0.017711108550429344:0.16947765648365021] [-0.026503358036279678:0.19438554346561432] [-0.030749822035431862:0.052073579281568527] [-0.17000344395637512:-0.045169912278652191] [-0.029959997162222862:0.12021089345216751] [-0.47373899817466736:-0.2374165952205658] [-0.070424854755401611:0.040090326219797134] [-0.069091416895389557:0.023426353931427002] [-0.40727391839027405:-0.16712731122970581] [-0.013794028200209141:0.093628004193305969] [0.043343838304281235:0.20274561643600464] [0.01819252036511898:0.14806738495826721] [-0.17800523340702057:-0.031176697462797165] [-0.11035605520009995:-0.027089312672615051] [-0.019891561940312386:0.15411065518856049] [-0.012981569394469261:0.12717105448246002] [0.075386196374893188:0.24219143390655518] [-0.11756771802902222:0.037361990660429001] [0.052598610520362854:0.13126383721828461] [-0.016216207295656204:0.19777238368988037] [-0.11173631250858307:-0.017971863970160484] [0.045568972826004028:0.239686518907547] [-0.16130812466144562:-0.040156684815883636] [-0.048467330634593964:0.16944703459739685] [0.025254355743527412:0.11726395040750504] [-0.3634067177772522:-0.18658261001110077] [-0.063094332814216614:0.055155456066131592] [-0.019978741183876991:0.056282851845026016] [-0.040872141718864441:0.2136145681142807] [-0.028617335483431816:0.036471839994192123] [-0.41579693555831909:-0.22292633354663849] [-0.42238643765449524:-0.231769859790802] [-0.013341170735657215:0.08121412992477417] [0.12155371159315109:0.25936135649681091] [-0.21388852596282959:-0.11126696318387985] [0.13369190692901611:0.30060377717018127] [-0.5869135856628418:-0.43024948239326477] [0.14410573244094849:0.34881338477134705] [-0.17388781905174255:-0.062013875693082809] [-0.02767382375895977:0.11056622117757797] [-0.15684203803539276:-0.05880901962518692] [-0.013280780985951424:0.092778272926807404] [-0.16839088499546051:-0.026694644242525101] [-0.051407147198915482:0.021056393161416054] [-0.27781397104263306:-0.12280350923538208] [-0.13032883405685425:0.064562641084194183] [-0.15081095695495605:0.11378210783004761] [-0.014261339791119099:0.10396760702133179] [-0.28872904181480408:-0.061280995607376099] [-0.041143938899040222:0.071594499051570892] [-0.2968335747718811:-0.22452585399150848] [0.039864838123321533:0.20580334961414337] [-0.31301721930503845:-0.055256247520446777] [-0.090300962328910828:0.048191189765930176] [-0.12960328161716461:0.024026690050959587] [0.15679365396499634:0.25195088982582092] [-0.10936242341995239:-0.044884480535984039] [0.033628270030021667:0.22146886587142944] [-0.039845727384090424:0.05075778067111969] [-0.096051596105098724:0.0068136849440634251] [-0.28480139374732971:-0.16141209006309509] [-0.056780602782964706:0.011958991177380085] [-0.017707165330648422:0.11518581956624985] [-0.009194662794470787:0.079872347414493561] [0.087093807756900787:0.19796706736087799] [0.049495179206132889:0.19101223349571228] [-0.078572496771812439:0.014278221875429153] [0.016410527750849724:0.12917234003543854] [-0.11880842596292496:-0.0057240794412791729] [-0.21343812346458435:-0.11380445957183838] [-0.088651753962039948:-0.025148659944534302] [0.037885610014200211:0.10505729168653488] [0.0062739714048802853:0.084009051322937012] [-0.028718195855617523:0.034970082342624664] [-0.21316204965114594:-0.13011407852172852] [-0.17718257009983063:-0.082365565001964569] [-0.01835351251065731:0.096864409744739532] [-0.14704069495201111:-0.0021131280809640884] [0.0395205058157444:0.20957116782665253] [-0.14298854768276215:-0.033503726124763489] [0.15104076266288757:0.19906096160411835] [0.17135120928287506:0.31519040465354919] [-0.15627026557922363:-0.063499376177787781] [0.097509026527404785:0.22665099799633026] [-0.034846939146518707:0.034196648746728897] [-0.045880161225795746:0.042768713086843491] [0.06062588095664978:0.13114459812641144] [-0.06312289834022522:0.024882499128580093] [0.038233201950788498:0.22297400236129761] [-0.042293347418308258:-0.0042907586321234703] [-0.031685568392276764:0.080938071012496948] [-0.062909416854381561:0.48440098762512207] [0.041491836309432983:0.12931765615940094] [-0.49239358305931091:-0.26148930191993713] [-0.023119546473026276:0.046794876456260681] [-0.096982561051845551:0.032211784273386002] [-0.14629459381103516:0.032781776040792465] [-0.069396287202835083:0.020960375666618347] [-0.13787360489368439:0.017795300111174583] [0.028625370934605598:0.16447204351425171] [-0.1911841481924057:-0.1116098016500473] [-0.03964117169380188:0.13772048056125641] [-0.3699491024017334:-0.17423141002655029] [0.032560594379901886:0.24507299065589905] [-0.072749875485897064:0.022094087675213814] [-0.066434726119041443:0.083319395780563354] [0.040481869131326675:0.14777170121669769] [0.12793301045894623:0.25951430201530457] [-0.11906726658344269:0.024765500798821449] [0.13685579597949982:0.30330073833465576] [-0.085933178663253784:-0.021748874336481094] [-0.0094352904707193375:0.042881026864051819] [-0.01139709260314703:0.12681989371776581] [-0.23945020139217377:-0.056730538606643677] [-0.012284650467336178:0.11225710064172745] [-0.073616273701190948:0.017229393124580383] [2.3852211597841233e-05:3.8763417251175269e-05] [0.029288444668054581:0.13855715095996857] [0.12962567806243896:0.70135021209716797] [-0.1142314150929451:-0.017678556963801384] [-0.038984391838312149:0.052432425320148468] [-0.2759840190410614:-0.14598365128040314] [-0.047367744147777557:0.026218045502901077] [-0.15532794594764709:0.029204333201050758] [-0.18902672827243805:-0.13084767758846283] [-0.13581827282905579:-0.048053961247205734] [-0.088793374598026276:0.054613731801509857] [0.071419261395931244:0.16371510922908783] [0.014000272378325462:0.11796295642852783] [0.025175396353006363:0.17433206737041473] [0.0069882441312074661:0.091610893607139587] [0.051284868270158768:0.23567381501197815] [-0.035655751824378967:0.027320623397827148] [0.10014119744300842:0.20350094139575958] [-0.10897940397262573:-0.0025106910616159439] [0.032651707530021667:0.12484415620565414] [-0.079268120229244232:0.035016264766454697] [-0.086238302290439606:0.05974743515253067] [0.067690819501876831:0.18403583765029907] [-0.15343452990055084:-0.063725113868713379] [0.0032788242679089308:0.054386056959629059] [0.16188807785511017:0.34207192063331604] [-0.03743203729391098:0.041434071958065033] [0.022246807813644409:0.088130153715610504] [-0.1157112643122673:0.044677764177322388] [0.41576194763183594:0.56237137317657471] [0.13480079174041748:0.26542547345161438] [-0.19586174190044403:-0.11782246083021164] [-0.11145257949829102:-0.021842995658516884] [-0.077886782586574554:0.016637125983834267] [-0.088525041937828064:0.14714702963829041] [-0.30609056353569031:-0.1499989926815033] [-0.10942041873931885:0.056606750935316086] [-0.048925209790468216:0.021805580705404282] [-0.053694237023591995:0.089367158710956573] [-0.34090715646743774:-0.09432627260684967] [-0.2678377628326416:-0.1638646274805069] [0.036486465483903885:0.13619579374790192] [-0.04262513667345047:0.11480233073234558] [-0.24885183572769165:-0.10471920669078827] [0.013440240174531937:0.13473637402057648] [0.061137516051530838:0.15746963024139404] [0.013317584991455078:0.15466254949569702] [-0.27872991561889648:-0.11552101373672485] [-0.043089356273412704:0.05540793389081955] [-0.091792412102222443:0.018662458285689354] [0.017825897783041:0.23663447797298431] [-0.063449926674365997:0.021468175575137138] [0.037683945149183273:0.24719572067260742] [0.036226704716682434:0.11800123006105423] [0.017039505764842033:0.10787176340818405] [-0.095023117959499359:0.063261941075325012] [0.096488654613494873:0.26747053861618042] [-0.042731285095214844:0.033447239547967911] [-0.32945713400840759:-0.15688559412956238] [-0.0130305215716362:0.044985935091972351] [-0.7118791937828064:-0.41907840967178345] [0.0011722546769306064:0.11681724339723587] [0.071349568665027618:0.33229640126228333] [-0.22435799241065979:0.012258290313184261] [-0.036321364343166351:0.042768962681293488] [0.0094049861654639244:0.40526065230369568] [-0.16671590507030487:-0.015198535285890102] [-0.15963032841682434:-0.039332147687673569] [-0.059518471360206604:0.079501047730445862] [-0.055407438427209854:-0.03286738321185112] [-0.10387136787176132:-0.020439963787794113] [-0.16860432922840118:-0.043076112866401672] [-0.04784543439745903:0.085310637950897217] [-0.11669891327619553:0.065234363079071045] [0.078741826117038727:0.13680990040302277] [-0.0076232273131608963:0.14669749140739441] [0.047074589878320694:0.19831746816635132] [-0.1279774010181427:-0.015259508043527603] [-0.22918833792209625:-0.096868723630905151] [0.10368762165307999:0.21004918217658997] [-0.2838413417339325:-0.11870365589857101] [-0.02224278636276722:0.033452466130256653] [0.035677038133144379:0.14937955141067505] [0.014103305526077747:0.1703239381313324] [-0.24379406869411469:-0.081861481070518494] [-0.11580689996480942:-0.014422264881432056] [0.015687927603721619:0.10929093509912491] [0.13292498886585236:0.31653821468353271] [-0.4951661229133606:-0.25473472476005554] [0.11638291925191879:0.18206390738487244] [0.24005246162414551:0.39631044864654541] [-0.16023954749107361:-0.019849576056003571] [0.029682163149118423:0.15500788390636444] [-0.27853649854660034:-0.19279134273529053] [-0.1058964878320694:-0.019976332783699036] [0.48808971047401428:0.95587742328643799] [-0.40785431861877441:-0.24135735630989075] [-0.050045378506183624:0.06846250593662262] [-0.056357566267251968:0.021004177629947662] [-0.13868638873100281:-0.0028899204917252064] [-0.56457316875457764:-0.39223569631576538] [-0.093199014663696289:0.078759506344795227] [-0.061844464391469955:0.036909766495227814] [-0.34574830532073975:-0.11244738847017288] [-0.0369703508913517:0.1225925013422966] [0.13840672373771667:0.59416353702545166] [0.061318796128034592:0.35139816999435425] [0.16914784908294678:0.28688406944274902] [0.046141918748617172:0.11888682842254639] [0.055440224707126617:0.18435564637184143] [-0.3076128363609314:-0.033861234784126282] [-0.08635430783033371:0.07664160430431366] [0.017277233302593231:0.080874927341938019] [-0.04561261460185051:0.058243047446012497] [-0.22135256230831146:-0.10727043449878693] [-0.086835518479347229:0.010124051943421364] [-0.071720674633979797:0.010547131299972534] [-0.0029093048069626093:0.093376360833644867] [-0.42897936701774597:-0.28803670406341553] [-0.0014018738875165582:0.108465276658535] [-0.21498118340969086:-0.065533362329006195] [0.0063379188068211079:0.13667070865631104] [-0.07047734409570694:0.048566646873950958] [-0.19226111471652985:0.0068233474157750607] [-0.34124958515167236:-0.010444749146699905] [-0.24355702102184296:-0.15218439698219299] [-0.51348084211349487:-0.22322596609592438] [-0.10331954807043076:0.032280378043651581] [-0.19832170009613037:0.027615763247013092] [-0.029912576079368591:0.058525927364826202] [-0.07000722736120224:0.045532435178756714] [-0.16796113550662994:-0.024668635800480843] [-0.19327943027019501:0.021269811317324638] [-0.24633270502090454:-0.16264602541923523] [-0.41727292537689209:-0.28176546096801758] [-0.18199887871742249:0.00054334331071004272] [0.0843958780169487:0.21341374516487122] [-0.10703541338443756:0.12622623145580292] [-0.028755681589245796:0.05204424262046814] [0.011519667692482471:0.095871977508068085] [-0.17304697632789612:-0.019457418471574783] [0.14689122140407562:0.20321187376976013] [-0.045209899544715881:0.065626516938209534] [0.032949946820735931:0.1559017151594162] [-0.13060690462589264:0.069928549230098724] [-0.0083256438374519348:0.066029459238052368] [-0.084211878478527069:0.083511359989643097] [-0.17559799551963806:-0.11056908965110779] [-0.21434277296066284:-0.027823878452181816] [-0.21442462503910065:0.077003076672554016] [-0.11335693299770355:0.10815100371837616] [-0.0074613788165152073:0.0890926793217659] [0.050523284822702408:0.13564470410346985] [-0.0085709178820252419:0.094009242951869965] [-0.24533048272132874:-0.076862111687660217] [-0.23921945691108704:-0.03773362934589386] [0.053564094007015228:0.19875197112560272] [-0.30912500619888306:-0.18296675384044647] [-0.1373380720615387:-0.027387112379074097] [-0.093812465667724609:-0.020781148225069046] [-0.14248375594615936:-0.054680615663528442] [0.048887122422456741:0.15047256648540497] [-0.1774728000164032:-0.096728332340717316] [-0.2039092630147934:-0.020548338070511818] [0.00052276428323239088:0.070830047130584717] [-0.11205262690782547:0.084146156907081604] [-0.11292575299739838:-0.023564476519823074] [-0.099390201270580292:-0.018883500248193741] [0.027743406593799591:0.12434656172990799] [0.053024865686893463:0.1522011011838913] [-0.06711047887802124:0.014801529236137867] [-0.046577543020248413:0.049979299306869507] [-0.021980138495564461:0.081754177808761597] [0.093319594860076904:0.38104340434074402] [0.044526413083076477:0.11758328229188919] [-0.14525662362575531:-0.012632799334824085] [-0.21432867646217346:0.041323717683553696] [-0.057680007070302963:0.070182740688323975] [-0.072387099266052246:0.045658349990844727] [0.051011934876441956:0.14341318607330322] [-0.009456610307097435:0.028091646730899811] [-0.55801290273666382:-0.24378158152103424] [-0.12860825657844543:0.023691806942224503] [0.069793015718460083:0.1959625780582428] [-0.51942849159240723:-0.23132933676242828] [-0.18990695476531982:-0.0048753591254353523] [-0.14201095700263977:-0.04146798700094223] [-0.023056838661432266:0.10400527715682983] [-0.055708583444356918:0.13737475872039795] [-0.21875329315662384:0.063475809991359711] [0.07971181720495224:0.17125435173511505] [-0.043821945786476135:0.11533705145120621] [0.070336624979972839:0.71650558710098267] [-0.1667931079864502:-0.042404040694236755] [0.00088196026626974344:0.077792197465896606] [-0.020170168951153755:0.057927187532186508] [-0.11947495490312576:0.023584477603435516] [0.016445141285657883:0.1635877937078476] [-0.11279387772083282:-0.03169596940279007] [-0.13135698437690735:-0.046489857137203217] [-0.032570142298936844:0.15592171251773834] [-0.19596774876117706:-0.081409074366092682] [0.04685751348733902:0.15472710132598877] [-0.089179150760173798:0.01788034476339817] [-0.25204867124557495:-0.059596586972475052] [-0.0020944306161254644:0.23816588521003723] [-0.047669321298599243:0.043367620557546616] [-0.11809808760881424:0.01912788487970829] [-0.61144715547561646:-0.4052455723285675] [0.4092656672000885:0.94907647371292114] [0.018744407221674919:0.094047866761684418] [0.074025668203830719:0.20042750239372253] [0.013686191290616989:0.085417889058589935] [-0.259581059217453:-0.13458529114723206] [-0.42218363285064697:-0.32454070448875427] [0.083224989473819733:0.21651622653007507] [-0.11880555748939514:-0.04803941398859024] [-0.11392640322446823:0.0093890763819217682] [0.19497548043727875:0.31735101342201233] [0.088906660676002502:0.1815466582775116] [-0.0014490624889731407:0.06115424633026123] [-0.36756801605224609:-0.19828656315803528] [0.055015947669744492:0.11020661145448685] [0.088955342769622803:0.29074418544769287] [-0.0071112671867012978:0.072536200284957886] [-0.24598343670368195:-0.050291147083044052] [0.0060469093732535839:0.075524553656578064] [-0.08091399073600769:0.012415293604135513] [-0.97656697034835815:-0.63038533926010132] [-0.0057186908088624477:0.14741747081279755] [-0.011238665319979191:0.061753295361995697] [-0.048304058611392975:0.031691338866949081] [0.057149887084960938:0.14317278563976288] [0.10277055948972702:0.26022905111312866] [0.074845500290393829:0.18546929955482483] [-0.64274477958679199:-0.38066884875297546] [-0.58820039033889771:-0.33821743726730347] [-0.025015847757458687:0.10974685102701187] [0.040059234946966171:0.15384900569915771] [0.099003709852695465:0.24921578168869019] [0.057372409850358963:0.14939841628074646] [0.13628847897052765:0.32792279124259949] [-0.016036659479141235:0.052596833556890488] [-0.2934192419052124:-0.08120272308588028] [-0.11000422388315201:0.042413517832756042] [0.041044779121875763:0.20446789264678955] [0.038197316229343414:0.0893549844622612] [-0.02939719520509243:0.071914233267307281] [-0.069131337106227875:0.0019757181871682405] [0.030656304210424423:0.16827195882797241] [0.038570679724216461:0.16212922334671021] [-0.021600285544991493:0.081007681787014008] [-0.17349697649478912:-0.0084150424227118492] [-0.31044870615005493:-0.19964465498924255] [-0.17411041259765625:-0.028137821704149246] [-0.11157669126987457:0.04830656573176384] [0.039776075631380081:0.12156064808368683] [-0.067477144300937653:0.026258071884512901] [-0.11938747018575668:-0.0052429083734750748] [-0.25940075516700745:-0.13161465525627136] [0.21645058691501617:0.35784688591957092] [-0.012776101008057594:0.052086461335420609] [-0.13376143574714661:0.059083152562379837] [0.099440068006515503:0.21958991885185242] [0.066736400127410889:0.17428673803806305] [0.11353330314159393:0.29510712623596191] [0.26425334811210632:0.3671080470085144] [-0.23180030286312103:-0.018153350800275803] [-0.1119360476732254:-0.026327721774578094] [-0.2141522616147995:-0.087988659739494324] [-0.033899329602718353:0.097809463739395142] [-0.039263881742954254:0.079591885209083557] [-0.22462624311447144:-0.13395868241786957] [0.17792154848575592:0.29747039079666138] [0.071240998804569244:0.33307898044586182] [-0.10556263476610184:0.0064835380762815475] [-0.26466250419616699:-0.01478451956063509] [0.23193234205245972:0.33407333493232727] [0.10851941257715225:0.23802366852760315] [0.30594834685325623:1.0761935710906982] [0.028848195448517799:0.1828414648771286] [-0.29897403717041016:-0.15848305821418762] [-0.13993938267230988:-0.067459322512149811] [-0.095834672451019287:0.2195630818605423] [0.01773703470826149:0.12395934015512466] [0.37640208005905151:0.49799865484237671] [-0.35883641242980957:-0.20112550258636475] [-0.2003072202205658:0.014433654956519604] [0.1533815860748291:0.30346196889877319] [-0.84204405546188354:-0.38392925262451172] [0.026941992342472076:0.16415883600711823] [0.046454329043626785:0.18961867690086365] [0.078830443322658539:0.22870120406150818] [-0.057730838656425476:0.0031000822782516479] [0.028221135959029198:0.12241702526807785] [-0.086733371019363403:0.045130409300327301] [-0.084783561527729034:-0.010767780244350433] [0.28766247630119324:0.50154662132263184] [-0.056373309344053268:-0.014116593636572361] [-0.05474114790558815:0.05039413645863533] [-0.26555109024047852:-0.15022847056388855] [-0.06148921325802803:0.04390055313706398] [-0.039706088602542877:0.079172976315021515] [-0.28509727120399475:-0.10156193375587463] [0.00074947974644601345:0.08151610940694809] [-0.1326497495174408:-0.040775753557682037] [-0.12982435524463654:-0.024738514795899391] [-0.12255053222179413:0.010870165191590786] [0.088051356375217438:0.20393532514572144] [-0.45980855822563171:-0.22385087609291077] [-0.11440042406320572:-0.014113831333816051] [-0.21949091553688049:-0.024437010288238525] [-0.0008788671693764627:0.064291618764400482] [0.2056792676448822:0.32299891114234924] [0.067989379167556763:0.1333041787147522] [0.19507412612438202:0.36886852979660034] [-0.064087919890880585:0.094786010682582855] [-0.12357156723737717:-0.05146460235118866] [0.0090310899540781975:0.098797790706157684] [0.45503929257392883:0.73723810911178589] [0.036122001707553864:0.096903711557388306] [0.023759949952363968:0.061117827892303467] [0.025578934699296951:0.05755799263715744] [0.018842749297618866:0.049128260463476181] [0.017691364511847496:0.049157742410898209] [0.018835810944437981:0.04969140887260437] [0.020243227481842041:0.044536150991916656] [0.014316348358988762:0.035188786685466766] [0.01464935764670372:0.038631770759820938] [0.023017518222332001:0.063091941177845001] [0.018530102446675301:0.042935024946928024] [0.021477337926626205:0.055511046200990677] [0.020605819299817085:0.05148749053478241] [0.048585500568151474:0.12472118437290192] [0.015414280816912651:0.036169052124023438] [0.022256501019001007:0.057632777839899063] [0.01884804293513298:0.041140057146549225] [0.023957526311278343:0.05861315131187439] [0.064499765634536743:0.16757863759994507] [0.016562175005674362:0.040371999144554138] [0.039133500307798386:0.085430644452571869] [0.018575577065348625:0.04630618542432785] [0.016019098460674286:0.040710356086492538] [0.016530444845557213:0.039173081517219543] [0.025458274409174919:0.064229488372802734] [0.021366113796830177:0.048039481043815613] [0.019142989069223404:0.048576336354017258] [0.019921459257602692:0.049632757902145386] [0.026667151600122452:0.067000821232795715] [0.029054267331957817:0.067153297364711761] [0.016028802841901779:0.033842533826828003] [0.026923555880784988:0.052881374955177307] [0.01778089813888073:0.043241310864686966] [0.02040543220937252:0.047796200960874557] [0.016909947618842125:0.038107980042695999] [0.019636878743767738:0.049480624496936798] [0.015592864714562893:0.032752964645624161] [0.010366886854171753:0.027455849573016167] [0.022866098210215569:0.057133074849843979] [0.019601112231612206:0.039496250450611115] [0.016150876879692078:0.042258653789758682] [0.017955636605620384:0.038612745702266693] [0.014580684714019299:0.0375194251537323] [0.075274482369422913:0.18648776412010193] [0.0249946229159832:0.06267816573381424] [0.024182558059692383:0.054424524307250977] [0.022836556658148766:0.064072571694850922] [0.028111686930060387:0.072928644716739655] [0.021019767969846725:0.049988467246294022] [0.014867130666971207:0.04827331006526947] [0.017496321350336075:0.035085912793874741] [0.014738299883902073:0.038575101643800735] [0.052752651274204254:0.10777705907821655] [0.024459775537252426:0.052770048379898071] [0.013833055272698402:0.032436799257993698] [0.030058292672038078:0.090818591415882111] [0.034950301051139832:0.10234034061431885] [0.016469398513436317:0.040833771228790283] [0.029099831357598305:0.069735169410705566] [0.013977142050862312:0.036878932267427444] [0.025088179856538773:0.070911943912506104] [0.01586504839360714:0.044793188571929932] [0.015893628820776939:0.039705347269773483] [0.018502339720726013:0.046983715146780014] [0.030531525611877441:0.086521908640861511] [0.043133955448865891:0.10666473209857941] [0.021490033715963364:0.077749960124492645] [0.016523886471986771:0.03927239403128624] [0.020072469487786293:0.040607266128063202] [0.025576472282409668:0.057338401675224304] [0.017596112564206123:0.047612026333808899] [0.1267123818397522:0.29077577590942383] [0.018327364698052406:0.07491900771856308] [0.019385388121008873:0.064213410019874573] [0.0041976175270974636:0.011380687355995178] [0.016334328800439835:0.042695581912994385] [0.019616425037384033:0.045415274798870087] [0.016502620652318001:0.037775807082653046] [0.01586693711578846:0.039615437388420105] [0.022356977686285973:0.058739639818668365] [0.017775965854525566:0.035644158720970154] [0.03277839720249176:0.076377511024475098] [0.030504433438181877:0.069970741868019104] [0.014722368679940701:0.040562126785516739] [0.013795572333037853:0.03251517191529274] [0.019648127257823944:0.040856063365936279] [0.021545235067605972:0.055540412664413452] [0.036762960255146027:0.084720462560653687] [0.018816512078046799:0.050832148641347885] [0.028094261884689331:0.072854965925216675] [0.022603245452046394:0.067222326993942261] [0.022697372362017632:0.054865028709173203] [0.023661889135837555:0.055880792438983917] [0.026383254677057266:0.069972217082977295] [0.041372057050466537:0.09339161217212677] [0.018992675468325615:0.046743340790271759] [0.020506039261817932:0.075658544898033142] [0.032295431941747665:0.074372589588165283] [0.08832135796546936:0.20694425702095032] [0.014319956302642822:0.032633908092975616] [0.018289417028427124:0.045471262186765671] [0.016932466998696327:0.044106841087341309] [0.033300664275884628:0.10145239531993866] [0.011777522042393684:0.028182150796055794] [0.031883824616670609:0.082337558269500732] [0.014806987717747688:0.032032404094934464] [0.030929505825042725:0.070319950580596924] [0.024678898975253105:0.049817819148302078] [0.015430332161486149:0.039590194821357727] [0.015329302288591862:0.047728035598993301] [0.013493447564542294:0.044652696698904037] [0.013203396461904049:0.029061645269393921] [0.021000860258936882:0.050305560231208801] [0.014779453165829182:0.033362004905939102] [0.022870428860187531:0.050594203174114227] [0.029025021940469742:0.07386481761932373] [0.028786670416593552:0.064802855253219604] [0.017889883369207382:0.049655765295028687] [0.034156717360019684:0.098826043307781219] [0.047838181257247925:0.099193468689918518] [0.035016562789678574:0.075933128595352173] [0.014321628026664257:0.032626252621412277] [0.18893946707248688:0.37838301062583923] [0.015953987836837769:0.044033374637365341] [0.013994609005749226:0.033800244331359863] [0.017824111506342888:0.046143136918544769] [0.019095428287982941:0.05972718819975853] [0.024682674556970596:0.076107844710350037] [0.019103055819869041:0.038545954972505569] [0.014828297309577465:0.030327264219522476] [0.015882432460784912:0.033792898058891296] [0.015745384618639946:0.030018378049135208] [0.022587437182664871:0.050445210188627243] [0.05057782307267189:0.12288486957550049] [0.015481614507734776:0.033006962388753891] [0.045095816254615784:0.12264516949653625] [0.018703009933233261:0.050684146583080292] [0.021343620494008064:0.059940621256828308] [0.022571230307221413:0.053232599049806595] [0.043772142380475998:0.10760641843080521] [0.019590366631746292:0.049111019819974899] [0.021165834739804268:0.061281614005565643] [0.043977729976177216:0.11382069438695908] [0.013634530827403069:0.035267934203147888] [0.015811486169695854:0.035972904413938522] [0.033309135586023331:0.089997820556163788] [0.023201877251267433:0.042956829071044922] [0.013904886320233345:0.03118722140789032] [0.013067000545561314:0.026664812117815018] [0.01543227955698967:0.044832509011030197] [0.014141182415187359:0.029768053442239761] [0.024338291957974434:0.053879294544458389] [0.01395286712795496:0.03415193036198616] [0.017380664125084877:0.035371910780668259] [0.031317088752985001:0.060346178710460663] [0.016459431499242783:0.051193457096815109] [0.016894461587071419:0.038222741335630417] [0.027306169271469116:0.073951698839664459] [0.016259860247373581:0.042057909071445465] [0.021453963592648506:0.056719232350587845] [0.028142262250185013:0.065663807094097137] [0.050960630178451538:0.11101335287094116] [0.018486442044377327:0.049710087478160858] [0.019267652183771133:0.033959604799747467] [0.0267051812261343:0.056858252733945847] [0.023089466616511345:0.05683131143450737] [0.036130782216787338:0.11818011850118637] [0.019240992143750191:0.044068723917007446] [0.019009953364729881:0.044457413256168365] [0.020904988050460815:0.060361459851264954] [0.018917575478553772:0.049713768064975739] [0.029649566859006882:0.074168160557746887] [0.052514497190713882:0.14059741795063019] [0.016376778483390808:0.041933845728635788] [0.020867280662059784:0.051857180893421173] [0.017678214237093925:0.039558742195367813] [0.015069329179823399:0.036581419408321381] [0.027758890762925148:0.072069019079208374] [0.022591060027480125:0.067779235541820526] [0.029184259474277496:0.073197528719902039] [0.022672848775982857:0.062441423535346985] [0.041006017476320267:0.11677946150302887] [0.033406294882297516:0.076041959226131439] [0.024938508868217468:0.05658731609582901] [0.015994161367416382:0.048227496445178986] [0.012986484915018082:0.053087100386619568] [0.02049972303211689:0.050255097448825836] [0.020571630448102951:0.04884907603263855] [0.015931298956274986:0.038848124444484711] [0.014655407518148422:0.043988965451717377] [0.068931557238101959:0.13470062613487244] [0.01703563891351223:0.035433817654848099] [0.023618172854185104:0.081790253520011902] [0.013572705909609795:0.029915260151028633] [0.012814749032258987:0.036075122654438019] [0.028400972485542297:0.072509139776229858] [0.037912297993898392:0.093120262026786804] [0.035310331732034683:0.093155309557914734] [0.024951562285423279:0.067877426743507385] [0.036567922681570053:0.081751041114330292] [0.04767720028758049:0.11239559948444366] [0.019424568861722946:0.044392608106136322] [0.0081466306000947952:0.022046733647584915] [0.017179833725094795:0.036223020404577255] [0.042951084673404694:0.095939889550209045] [0.010582954622805119:0.023741696029901505] [0.02483280748128891:0.063297845423221588] [0.030858892947435379:0.071140110492706299] [0.01752069965004921:0.04017556831240654] [0.017408080399036407:0.040819123387336731] [0.015252243727445602:0.03789515420794487] [0.018825627863407135:0.041765552014112473] [0.016121117398142815:0.042182106524705887] [0.016095716506242752:0.039800751954317093] [0.015416140668094158:0.032787848263978958] [0.032256137579679489:0.065612651407718658] [0.024208413437008858:0.065023556351661682] [0.021291868761181831:0.050479810684919357] [0.02123536728322506:0.057716887444257736] [0.01449001207947731:0.038460429757833481] [0.018839087337255478:0.041674584150314331] [0.012664107605814934:0.030094373971223831] [0.016282767057418823:0.038996532559394836] [0.017839476466178894:0.04454309493303299] [0.014241334982216358:0.033259645104408264] [0.047011777758598328:0.12253335863351822] [0.035143036395311356:0.062753796577453613] [0.016715474426746368:0.036735668778419495] [0.027508120983839035:0.073365435004234314] [0.026145923882722855:0.059574101120233536] [0.016423663124442101:0.0460704006254673] [0.026245567947626114:0.078279584646224976] [0.036312028765678406:0.11097515374422073] [0.018797701224684715:0.039975225925445557] [0.024494808167219162:0.064192011952400208] [0.02000906877219677:0.052957311272621155] [0.033837366849184036:0.10400109738111496] [0.018818074837327003:0.038906354457139969] [0.01753692701458931:0.058702483773231506] [0.018708866089582443:0.040184561163187027] [0.014533746987581253:0.038582496345043182] [0.039809290319681168:0.1025359109044075] [0.014838597737252712:0.030579328536987305] [0.017978034913539886:0.048433050513267517] [0.041182354092597961:0.1083955243229866] [0.012900660745799541:0.03012617863714695] [0.016261031851172447:0.031904894858598709] [0.019568786025047302:0.044292137026786804] [0.016668112948536873:0.049784999340772629] [0.010396179743111134:0.029842186719179153] [0.04851774126291275:0.12702374160289764] [0.029483232647180557:0.061932120472192764] [0.016936397179961205:0.049377039074897766] [0.026911778375506401:0.078398987650871277] [0.016982885077595711:0.043364748358726501] [0.014979762956500053:0.032356139272451401] [0.016740106046199799:0.046330567449331284] [0.014261232689023018:0.030710354447364807] [0.028718331828713417:0.05742204561829567] [0.01024782657623291:0.025627227500081062] [0.025226838886737823:0.064346805214881897] [0.020003708079457283:0.040710307657718658] [0.031470537185668945:0.072652809321880341] [0.010053508915007114:0.027545837685465813] [0.015683364123106003:0.032942354679107666] [0.014117604121565819:0.033517632633447647] [0.020407281816005707:0.062844902276992798] [0.020165193825960159:0.049187541007995605] [0.041889190673828125:0.10803027451038361] [0.020177682861685753:0.058254063129425049] [0.019125495105981827:0.044927980750799179] [0.026810755953192711:0.06667143851518631] [0.037938173860311508:0.084640868008136749] [0.020190130919218063:0.053251497447490692] [0.019906241446733475:0.061616621911525726] [0.040953829884529114:0.10457588732242584] [0.017170151695609093:0.040830284357070923] [0.012939614243805408:0.030902756378054619] [0.022347800433635712:0.052112534642219543] [0.014371821656823158:0.030397569760680199] [0.015330726280808449:0.049140669405460358] [0.020131219178438187:0.045641131699085236] [0.015626156702637672:0.038374893367290497] [0.087816618382930756:0.23134498298168182] [0.010503957979381084:0.024006001651287079] [0.024973275139927864:0.067418262362480164] [0.013890220783650875:0.03147493302822113] [0.017398487776517868:0.041320603340864182] [0.011627052910625935:0.036073878407478333] [0.013853731565177441:0.036673463881015778] [0.042525455355644226:0.099377617239952087] [0.012592784129083157:0.029093725606799126] [0.012387348338961601:0.032836414873600006] [0.016799777746200562:0.039394650608301163] [0.022251922637224197:0.052620980888605118] [0.018164770677685738:0.043824676424264908] [0.016496524214744568:0.043342512100934982] [0.012392975389957428:0.035229790955781937] [0.016958808526396751:0.039514310657978058] [0.028370475396513939:0.077662192285060883] [0.010351342149078846:0.022207755595445633] [0.018599409610033035:0.045864172279834747] [0.02148200199007988:0.057835754007101059] [0.019649699330329895:0.062196888029575348] [0.019846538081765175:0.045737501233816147] [0.014588950201869011:0.031504999846220016] [0.014778216369450092:0.04043859988451004] [0.012371663935482502:0.027197873219847679] [0.0171686802059412:0.046323239803314209] [0.013760739006102085:0.032064449042081833] [0.016879122704267502:0.05141400545835495] [0.027111329138278961:0.063936449587345123] [0.020048297941684723:0.049497745931148529] [0.013598018325865269:0.026917815208435059] [0.015368991531431675:0.03972591832280159] [0.030228551477193832:0.092573322355747223] [0.019455010071396828:0.044283386319875717] [0.015889236703515053:0.037217967212200165] [0.084856726229190826:0.18246152997016907] [0.01672046072781086:0.037839557975530624] [0.034334346652030945:0.087050959467887878] [0.020958324894309044:0.06072542816400528] [0.025606550276279449:0.050075020641088486] [0.01455596461892128:0.040024943649768829] [0.017300328239798546:0.035816960036754608] [0.014648539014160633:0.044512376189231873] [0.0098983636125922203:0.021209212020039558] [0.015868021175265312:0.031353063881397247] [0.036262795329093933:0.089784786105155945] [0.020153360441327095:0.056570403277873993] [0.014293002896010876:0.031358923763036728] [0.01932736299932003:0.036398518830537796] [0.020955994725227356:0.039595287293195724] [0.011970203369855881:0.027976255863904953] [0.058109037578105927:0.14829857647418976] [0.014203676022589207:0.032754935324192047] [0.022068843245506287:0.05038239061832428] [0.057852450758218765:0.15162543952465057] [0.043482594192028046:0.11300808936357498] [0.016927404329180717:0.039240609854459763] [0.016455765813589096:0.03375614807009697] [0.013610397465527058:0.031898118555545807] [0.025060111656785011:0.049168854951858521] [0.014421205967664719:0.039023812860250473] [0.024376653134822845:0.053199514746665955] [0.015413531102240086:0.03745574876666069] [0.021219914779067039:0.050251774489879608] [0.04998285323381424:0.10460299253463745] [0.020003950223326683:0.050254020839929581] [0.023122988641262054:0.064062431454658508] [0.021453393623232841:0.049161955714225769] [0.018597634509205818:0.057149395346641541] [0.011904437094926834:0.029109954833984375] [0.13566035032272339:0.2551816999912262] [0.019054196774959564:0.046338800340890884] [0.017852084711194038:0.041883163154125214] [0.015593110583722591:0.043775305151939392] [0.014682619832456112:0.038581106811761856] [0.032473467290401459:0.0707692950963974] [0.022142410278320312:0.074402406811714172] [0.01337570883333683:0.033745646476745605] [0.034352302551269531:0.072513625025749207] [0.053532574325799942:0.12261822819709778] [0.015677524730563164:0.044697742909193039] [0.017892885953187943:0.055804125964641571] [0.016063747927546501:0.0414421446621418] [0.042151071131229401:0.10889841616153717] [0.034223161637783051:0.079372026026248932] [0.012256348505616188:0.029885850846767426] [0.031757663935422897:0.076269395649433136] [0.052466154098510742:0.13479681313037872] [0.11948655545711517:0.35917747020721436] [0.058741893619298935:0.11980409175157547] [0.033426851034164429:0.072019614279270172] [0.024605315178632736:0.072534218430519104] [0.018947707489132881:0.04551348090171814] [0.021648239344358444:0.056563001126050949] [0.017470806837081909:0.038003928959369659] [0.022774957120418549:0.057030219584703445] [0.016342874616384506:0.042412620037794113] [0.016632441431283951:0.040114454925060272] [0.031373746693134308:0.067912206053733826] [0.022377271205186844:0.058763261884450912] [0.028720725327730179:0.078545719385147095] [0.018768519163131714:0.043545611202716827] [0.014097376726567745:0.035517562180757523] [0.016571275889873505:0.043766047805547714] [0.022003492340445518:0.059928663074970245] [0.016835249960422516:0.045289356261491776] [0.022930467501282692:0.052679412066936493] [0.015248407609760761:0.045587781816720963] [0.011965823359787464:0.035656210035085678] [0.0371721051633358:0.10398640483617783] [0.015983540564775467:0.041313931345939636] [0.024217471480369568:0.050126407295465469] [0.021896025165915489:0.05167413130402565] [0.01499104592949152:0.035435032099485397] [0.035895857959985733:0.082379840314388275] [0.039992403239011765:0.087530761957168579] [0.015668097883462906:0.045666001737117767] [0.018854986876249313:0.041821308434009552] [0.017614070326089859:0.039939321577548981] [0.021261574700474739:0.050724856555461884] [0.013506480492651463:0.032768793404102325] [0.016634240746498108:0.044974137097597122] [0.014044862240552902:0.03251233696937561] [0.022164899855852127:0.056061062961816788] [0.033261090517044067:0.072837114334106445] [0.014978026039898396:0.033524956554174423] [0.018979268148541451:0.050946027040481567] [0.016277933493256569:0.042363513261079788] [0.015471111051738262:0.034935623407363892] [0.019803546369075775:0.047081358730792999] [0.023904073983430862:0.059209652245044708] [0.018323358148336411:0.042584184557199478] [0.014872601255774498:0.035663135349750519] [0.012481456622481346:0.031635671854019165] [0.015148354694247246:0.040228620171546936] [0.029787993058562279:0.065985225141048431] [0.022294122725725174:0.049837149679660797] [0.0096120182424783707:0.027377316728234291] [0.017341777682304382:0.045901071280241013] [0.020291302353143692:0.043080292642116547] [0.012582408264279366:0.026303902268409729] [0.014327588491141796:0.035276565700769424] [0.020118735730648041:0.043786879628896713] [0.037773579359054565:0.098840959370136261] [0.022980181500315666:0.048569496721029282] [0.013725489377975464:0.032549303025007248] [0.016917318105697632:0.043698620051145554] [0.01993090845644474:0.049443244934082031] [0.020961165428161621:0.059436336159706116] [0.018525131046772003:0.042008776217699051] [0.029412351548671722:0.074405506253242493] [0.024420617148280144:0.068738006055355072] [0.025247786194086075:0.064231187105178833] [0.04471486434340477:0.13987003266811371] [0.027486391365528107:0.050979193300008774] [0.025807948783040047:0.089023716747760773] [0.021039042621850967:0.074692867696285248] [0.017577573657035828:0.057348988950252533] [0.0140181640163064:0.030556511133909225] [0.020470838993787766:0.047606401145458221] [0.02983410656452179:0.062675297260284424] [0.013135668821632862:0.02699686586856842] [0.032808944582939148:0.07553882896900177] [0.019666634500026703:0.04883260652422905] [0.041426181793212891:0.09487546980381012] [0.018974879756569862:0.040018476545810699] [0.029238663613796234:0.06510760635137558] [0.020189154893159866:0.045579217374324799] [0.016349805518984795:0.051965143531560898] [0.019976533949375153:0.054866403341293335] [0.018098942935466766:0.036064479500055313] [0.024054892361164093:0.068762779235839844] [0.019142294302582741:0.050163686275482178] [0.059405487030744553:0.12795251607894897] [0.0381447933614254:0.091389410197734833] [0.024473991245031357:0.061190750449895859] [0.041221823543310165:0.091845467686653137] [0.013009737245738506:0.030619196593761444] [0.040139250457286835:0.092342406511306763] [0.012632308527827263:0.033118858933448792] [0.027317224070429802:0.069737344980239868] [0.031723681837320328:0.077367842197418213] [0.021390020847320557:0.051049239933490753] [0.019521851092576981:0.045565292239189148] [0.039088841527700424:0.082221478223800659] [0.039429713040590286:0.10953179746866226] [0.035768859088420868:0.092970460653305054] [0.017362210899591446:0.051639337092638016] [0.01324209850281477:0.034006837755441666] [0.020065644755959511:0.047425057739019394] [0.024298651143908501:0.052890315651893616] [0.01261601597070694:0.035374727100133896] [0.034844987094402313:0.086558371782302856] [0.056597247719764709:0.14993575215339661] [0.016686789691448212:0.047504659742116928] [0.033812012523412704:0.078167207539081573] [0.016493497416377068:0.044937852770090103] [0.019474877044558525:0.041241351515054703] [0.0087193315848708153:0.023478295654058456] [0.012831139378249645:0.036024939268827438] [0.012562785297632217:0.031555581837892532] [0.012104293331503868:0.0264107845723629] [0.020945701748132706:0.058313284069299698] [0.019383996725082397:0.043175067752599716] [0.01349873561412096:0.033114653080701828] [0.021009625867009163:0.046565871685743332] [0.051913239061832428:0.13265562057495117] [0.011359501630067825:0.023368692025542259] [0.012952303513884544:0.028671717271208763] [0.014929919503629208:0.035490889102220535] [0.014365529641509056:0.035548120737075806] [0.020111259073019028:0.050882048904895782] [0.022844664752483368:0.054975312203168869] [0.016135182231664658:0.038925986737012863] [0.02091854065656662:0.056101709604263306] [0.02925783209502697:0.073401115834712982] [0.028619175776839256:0.067739516496658325] [0.032311335206031799:0.075879141688346863] [0.019787430763244629:0.047509223222732544] [0.024247672408819199:0.063638500869274139] [0.012619296088814735:0.023541240021586418] [0.033486954867839813:0.082461565732955933] [0.013979796320199966:0.045104607939720154] [0.016986370086669922:0.040645778179168701] [0.024726821109652519:0.057900868356227875] [0.029193714261054993:0.060799721628427505] [0.023697586730122566:0.074348330497741699] [0.024981126189231873:0.062864609062671661] [0.019091373309493065:0.042777735739946365] [0.031822346150875092:0.087483040988445282] [0.031806599348783493:0.07547345757484436] [0.014653932303190231:0.036273188889026642] [0.021858444437384605:0.052713066339492798] [0.019881235435605049:0.042916599661111832] [0.094717100262641907:0.22477567195892334] [0.011788279749453068:0.02669520303606987] [0.016508683562278748:0.038186617195606232] [0.012504156678915024:0.038375642150640488] [0.020843373611569405:0.054826058447360992] [0.018747545778751373:0.051396436989307404] [0.10982467234134674:0.23612082004547119] [0.039311658591032028:0.10875581204891205] [0.025866491720080376:0.056496128439903259] [0.013382759876549244:0.031809538602828979] [0.051208730787038803:0.12643373012542725] [0.019543983042240143:0.053308375179767609] [0.022884413599967957:0.062297753989696503] [0.014150748960673809:0.032752621918916702] [0.041954006999731064:0.10120449215173721] [0.013472964987158775:0.027844915166497231] [0.02506793849170208:0.073259137570858002] [0.017999153584241867:0.049730472266674042] [0.021380674093961716:0.053949415683746338] [0.025017498061060905:0.071064837276935577] [0.013790863566100597:0.034072611480951309] [0.021613037213683128:0.050593100488185883] [0.027626942843198776:0.072959557175636292] [0.019776314496994019:0.048230312764644623] [0.029008664190769196:0.068559952080249786] [0.026806460693478584:0.072301723062992096] [0.01903536356985569:0.061853930354118347] [0.031796243041753769:0.070784464478492737] [0.016320440918207169:0.036740608513355255] [0.02386530302464962:0.057926703244447708] [0.016420377418398857:0.036563359200954437] [0.015020199120044708:0.044350478798151016] [0.013464971445500851:0.036979861557483673] [0.016550827771425247:0.036756258457899094] [0.011660197749733925:0.025804432108998299] [0.020823195576667786:0.060812290757894516] [0.012076431885361671:0.028218012303113937] [0.026501622051000595:0.056687567383050919] [0.013902358710765839:0.033567365258932114] [0.022384652867913246:0.063294671475887299] [0.017210464924573898:0.036540042608976364] [0.020601872354745865:0.051323175430297852] [0.019557712599635124:0.044658765196800232] [0.01627371646463871:0.042203038930892944] [0.019526343792676926:0.046274762600660324] [0.017832627519965172:0.044416774064302444] [0.016449732705950737:0.035489663481712341] [0.039248090237379074:0.094270758330821991] [0.017809517681598663:0.05516592413187027] [0.037231549620628357:0.093514822423458099] [0.01536927092820406:0.041382044553756714] [0.018281081691384315:0.045859362930059433] [0.016244301572442055:0.041968617588281631] [0.015632551163434982:0.034834232181310654] [0.02244882844388485:0.060303870588541031] [0.023192338645458221:0.059048186987638474] [0.05791323259472847:0.13266526162624359] [0.048134807497262955:0.15142872929573059] [0.020259741693735123:0.058929409831762314] [0.021067198365926743:0.049959562718868256] [0.017446791753172874:0.037180371582508087] [0.015155660919845104:0.041900619864463806] [0.024893654510378838:0.062564164400100708] [0.015661777928471565:0.037307716906070709] [0.019116718322038651:0.042749397456645966] [0.019714541733264923:0.043729420751333237] [0.014732800424098969:0.030642354860901833] [0.033921301364898682:0.097193300724029541] [0.015957126393914223:0.039433989673852921] [0.013608710840344429:0.029100099578499794] [0.021283332258462906:0.055391855537891388] [0.013871295377612114:0.03491547703742981] [0.039227277040481567:0.088071346282958984] [0.013212201185524464:0.033900953829288483] [0.014095762744545937:0.031499583274126053] [0.031929362565279007:0.10547515749931335] [0.058777358382940292:0.13507497310638428] [0.022858107462525368:0.05277923122048378] [0.015644552186131477:0.038781125098466873] [0.032804626971483231:0.093679234385490417] [0.017420705407857895:0.041122376918792725] [0.017201118171215057:0.046187657862901688] [0.017862804234027863:0.04610775038599968] [0.020871184766292572:0.052434198558330536] [0.015875300392508507:0.048096764832735062] [0.022775633260607719:0.068480648100376129] [0.019519250839948654:0.044706128537654877] [0.042622487992048264:0.10602205246686935] [0.019005317240953445:0.064178653061389923] [0.01511987391859293:0.042513024061918259] [0.024718340486288071:0.076338417828083038] [0.014425835572183132:0.039083011448383331] [0.027890333905816078:0.064751416444778442] [0.023279735818505287:0.051482833921909332] [0.040604636073112488:0.10002141445875168] [0.015591707080602646:0.043233856558799744] [0.020809641107916832:0.052063096314668655] [0.017190873622894287:0.055431872606277466] [0.013391128741204739:0.029547244310379028] [0.028165390715003014:0.081891804933547974] [0.013504423201084137:0.031907700002193451] [0.03929838165640831:0.096952542662620544] [0.043877776712179184:0.10650168359279633] [0.011810875497758389:0.026475094258785248] [0.026721032336354256:0.068615943193435669] [0.020965907722711563:0.045044343918561935] [0.020174011588096619:0.043187748640775681] [0.03953128308057785:0.088568463921546936] [0.05739467591047287:0.12411274760961533] [0.033876169472932816:0.07445041835308075] [0.02426503412425518:0.069156281650066376] [0.021699981763958931:0.064273029565811157] [0.012933177873492241:0.0343485027551651] [0.02965874969959259:0.073838375508785248] [0.013991657644510269:0.03023127093911171] [0.035461258143186569:0.076289273798465729] [0.033136013895273209:0.062366217374801636] [0.029708271846175194:0.073611900210380554] [0.023504411801695824:0.064594626426696777] [0.020312784239649773:0.051251500844955444] [0.013005172833800316:0.030784839764237404] [0.017747685313224792:0.037041816860437393] [0.02712329663336277:0.068182907998561859] [0.036571718752384186:0.090364210307598114] [0.018422016873955727:0.041627950966358185] [0.019670667126774788:0.05048675462603569] [0.018143163993954659:0.041545409709215164] [0.014336481690406799:0.040686924010515213] [0.048914205282926559:0.12463757395744324] [0.020554570481181145:0.052432224154472351] [0.013489381410181522:0.040063571184873581] [0.029912123456597328:0.073500059545040131] [0.011454800143837929:0.031581643968820572] [0.020945027470588684:0.055242449045181274] [0.012910314835608006:0.030954252928495407] [0.029083671048283577:0.084467977285385132] [0.019166802987456322:0.047848895192146301] [0.023510092869400978:0.064861178398132324] [0.022915441542863846:0.068600602447986603] [0.02251565083861351:0.057151049375534058] [0.02470799908041954:0.060753908008337021] [0.017083900049328804:0.044703066349029541] [0.014200714416801929:0.049198508262634277] [0.012389092706143856:0.031895957887172699] [0.01264369860291481:0.026005277410149574] [0.013125794939696789:0.026797277852892876] [0.01858067512512207:0.048642601817846298] [0.016335101798176765:0.037885531783103943] [0.027828853577375412:0.077846281230449677] [0.084978505969047546:0.19759690761566162] [0.018295967951416969:0.042960673570632935] [0.017646713182330132:0.044002193957567215] [0.025181751698255539:0.062495041638612747] [0.019321106374263763:0.047840222716331482] [0.019663654267787933:0.051266342401504517] [0.01205087173730135:0.030424444004893303] [0.017789363861083984:0.048903018236160278] [0.017960334196686745:0.03717011958360672] [0.013519862666726112:0.032928820699453354] [0.028198527172207832:0.06866852194070816] [0.011466163210570812:0.022317925468087196] [0.024721337482333183:0.062507987022399902] [0.097464136779308319:0.2507818341255188] [0.014628295786678791:0.034913856536149979] [0.04643622413277626:0.12798944115638733] [0.014375369995832443:0.036194853484630585] [0.016795938834547997:0.046605214476585388] [0.023504456505179405:0.064101725816726685] [0.01300714910030365:0.051254849880933762] [0.019445093348622322:0.051645651459693909] [0.017430011183023453:0.049268212169408798] [0.018265526741743088:0.045604489743709564] [0.028331341221928596:0.070556856691837311] [0.057287264615297318:0.13704241812229156] [0.023934688419103622:0.076346024870872498] [0.013733761385083199:0.040705706924200058] [0.013809020631015301:0.035155016928911209] [0.024175973609089851:0.057572659105062485] [0.030994415283203125:0.070213824510574341] [0.016587728634476662:0.042757488787174225] [0.017973583191633224:0.05059775710105896] [0.017638102173805237:0.043817061930894852] [0.014619439840316772:0.033716265112161636] [0.021660530939698219:0.050265707075595856] [0.0193449966609478:0.048532743006944656] [0.037797987461090088:0.098108008503913879] [0.01511111855506897:0.042862992733716965] [5.7672295952215791e-06:1.377254375256598e-05] [0.015910187736153603:0.038596130907535553] [0.099270649254322052:0.21650305390357971] [0.017348624765872955:0.037121806293725967] [0.01494327187538147:0.031214168295264244] [0.020158389583230019:0.057635806500911713] [0.015208461321890354:0.036431770771741867] [0.023577755317091942:0.0640215203166008] [0.024320082738995552:0.051252774894237518] [0.014989797957241535:0.03399508073925972] [0.015385407023131847:0.052296511828899384] [0.015140422619879246:0.035644214600324631] [0.014992770738899708:0.030684009194374084] 