tree
version=v4
num_class=1
num_tree_per_iteration=1
label_index=0
max_feature_idx=2047
objective=binary sigmoid:1
feature_names=Column_0 Column_1 Column_2 Column_3 Column_4 Column_5 Column_6 Column_7 Column_8 Column_9 Column_10 Column_11 Column_12 Column_13 Column_14 Column_15 Column_16 Column_17 Column_18 Column_19 Column_20 Column_21 Column_22 Column_23 Column_24 Column_25 Column_26 Column_27 Column_28 Column_29 Column_30 Column_31 Column_32 Column_33 Column_34 Column_35 Column_36 Column_37 Column_38 Column_39 Column_40 Column_41 Column_42 Column_43 Column_44 Column_45 Column_46 Column_47 Column_48 Column_49 Column_50 Column_51 Column_52 Column_53 Column_54 Column_55 Column_56 Column_57 Column_58 Column_59 Column_60 Column_61 Column_62 Column_63 Column_64 Column_65 Column_66 Column_67 Column_68 Column_69 Column_70 Column_71 Column_72 Column_73 Column_74 Column_75 Column_76 Column_77 Column_78 Column_79 Column_80 Column_81 Column_82 Column_83 Column_84 Column_85 Column_86 Column_87 Column_88 Column_89 Column_90 Column_91 Column_92 Column_93 Column_94 Column_95 Column_96 Column_97 Column_98 Column_99 Column_100 Column_101 Column_102 Column_103 Column_104 Column_105 Column_106 Column_107 Column_108 Column_109 Column_110 Column_111 Column_112 Column_113 Column_114 Column_115 Column_116 Column_117 Column_118 Column_119 Column_120 Column_121 Column_122 Column_123 Column_124 Column_125 Column_126 Column_127 Column_128 Column_129 Column_130 Column_131 Column_132 Column_133 Column_134 Column_135 Column_136 Column_137 Column_138 Column_139 Column_140 Column_141 Column_142 Column_143 Column_144 Column_145 Column_146 Column_147 Column_148 Column_149 Column_150 Column_151 Column_152 Column_153 Column_154 Column_155 Column_156 Column_157 Column_158 Column_159 Column_160 Column_161 Column_162 Column_163 Column_164 Column_165 Column_166 Column_167 Column_168 Column_169 Column_170 Column_171 Column_172 Column_173 Column_174 Column_175 Column_176 Column_177 Column_178 Column_179 Column_180 Column_181 Column_182 Column_183 Column_184 Column_185 Column_186 Column_187 Column_188 Column_189 Column_190 Column_191 Column_192 Column_193 Column_194 Column_195 Column_196 Column_197 Column_198 Column_199 Column_200 Column_201 Column_202 Column_203 Column_204 Column_205 Column_206 Column_207 Column_208 Column_209 Column_210 Column_211 Column_212 Column_213 Column_214 Column_215 Column_216 Column_217 Column_218 Column_219 Column_220 Column_221 Column_222 Column_223 Column_224 Column_225 Column_226 Column_227 Column_228 Column_229 Column_230 Column_231 Column_232 Column_233 Column_234 Column_235 Column_236 Column_237 Column_238 Column_239 Column_240 Column_241 Column_242 Column_243 Column_244 Column_245 Column_246 Column_247 Column_248 Column_249 Column_250 Column_251 Column_252 Column_253 Column_254 Column_255 Column_256 Column_257 Column_258 Column_259 Column_260 Column_261 Column_262 Column_263 Column_264 Column_265 Column_266 Column_267 Column_268 Column_269 Column_270 Column_271 Column_272 Column_273 Column_274 Column_275 Column_276 Column_277 Column_278 Column_279 Column_280 Column_281 Column_282 Column_283 Column_284 Column_285 Column_286 Column_287 Column_288 Column_289 Column_290 Column_291 Column_292 Column_293 Column_294 Column_295 Column_296 Column_297 Column_298 Column_299 Column_300 Column_301 Column_302 Column_303 Column_304 Column_305 Column_306 Column_307 Column_308 Column_309 Column_310 Column_311 Column_312 Column_313 Column_314 Column_315 Column_316 Column_317 Column_318 Column_319 Column_320 Column_321 Column_322 Column_323 Column_324 Column_325 Column_326 Column_327 Column_328 Column_329 Column_330 Column_331 Column_332 Column_333 Column_334 Column_335 Column_336 Column_337 Column_338 Column_339 Column_340 Column_341 Column_342 Column_343 Column_344 Column_345 Column_346 Column_347 Column_348 Column_349 Column_350 Column_351 Column_352 Column_353 Column_354 Column_355 Column_356 Column_357 Column_358 Column_359 Column_360 Column_361 Column_362 Column_363 Column_364 Column_365 Column_366 Column_367 Column_368 Column_369 Column_370 Column_371 Column_372 Column_373 Column_374 Column_375 Column_376 Column_377 Column_378 Column_379 Column_380 Column_381 Column_382 Column_383 Column_384 Column_385 Column_386 Column_387 Column_388 Column_389 Column_390 Column_391 Column_392 Column_393 Column_394 Column_395 Column_396 Column_397 Column_398 Column_399 Column_400 Column_401 Column_402 Column_403 Column_404 Column_405 Column_406 Column_407 Column_408 Column_409 Column_410 Column_411 Column_412 Column_413 Column_414 Column_415 Column_416 Column_417 Column_418 Column_419 Column_420 Column_421 Column_422 Column_423 Column_424 Column_425 Column_426 Column_427 Column_428 Column_429 Column_430 Column_431 Column_432 Column_433 Column_434 Column_435 Column_436 Column_437 Column_438 Column_439 Column_440 Column_441 Column_442 Column_443 Column_444 Column_445 Column_446 Column_447 Column_448 Column_449 Column_450 Column_451 Column_452 Column_453 Column_454 Column_455 Column_456 Column_457 Column_458 Column_459 Column_460 Column_461 Column_462 Column_463 Column_464 Column_465 Column_466 Column_467 Column_468 Column_469 Column_470 Column_471 Column_472 Column_473 Column_474 Column_475 Column_476 Column_477 Column_478 Column_479 Column_480 Column_481 Column_482 Column_483 Column_484 Column_485 Column_486 Column_487 Column_488 Column_489 Column_490 Column_491 Column_492 Column_493 Column_494 Column_495 Column_496 Column_497 Column_498 Column_499 Column_500 Column_501 Column_502 Column_503 Column_504 Column_505 Column_506 Column_507 Column_508 Column_509 Column_510 Column_511 Column_512 Column_513 Column_514 Column_515 Column_516 Column_517 Column_518 Column_519 Column_520 Column_521 Column_522 Column_523 Column_524 Column_525 Column_526 Column_527 Column_528 Column_529 Column_530 Column_531 Column_532 Column_533 Column_534 Column_535 Column_536 Column_537 Column_538 Column_539 Column_540 Column_541 Column_542 Column_543 Column_544 Column_545 Column_546 Column_547 Column_548 Column_549 Column_550 Column_551 Column_552 Column_553 Column_554 Column_555 Column_556 Column_557 Column_558 Column_559 Column_560 Column_561 Column_562 Column_563 Column_564 Column_565 Column_566 Column_567 Column_568 Column_569 Column_570 Column_571 Column_572 Column_573 Column_574 Column_575 Column_576 Column_577 Column_578 Column_579 Column_580 Column_581 Column_582 Column_583 Column_584 Column_585 Column_586 Column_587 Column_588 Column_589 Column_590 Column_591 Column_592 Column_593 Column_594 Column_595 Column_596 Column_597 Column_598 Column_599 Column_600 Column_601 Column_602 Column_603 Column_604 Column_605 Column_606 Column_607 Column_608 Column_609 Column_610 Column_611 Column_612 Column_613 Column_614 Column_615 Column_616 Column_617 Column_618 Column_619 Column_620 Column_621 Column_622 Column_623 Column_624 Column_625 Column_626 Column_627 Column_628 Column_629 Column_630 Column_631 Column_632 Column_633 Column_634 Column_635 Column_636 Column_637 Column_638 Column_639 Column_640 Column_641 Column_642 Column_643 Column_644 Column_645 Column_646 Column_647 Column_648 Column_649 Column_650 Column_651 Column_652 Column_653 Column_654 Column_655 Column_656 Column_657 Column_658 Column_659 Column_660 Column_661 Column_662 Column_663 Column_664 Column_665 Column_666 Column_667 Column_668 Column_669 Column_670 Column_671 Column_672 Column_673 Column_674 Column_675 Column_676 Column_677 Column_678 Column_679 Column_680 Column_681 Column_682 Column_683 Column_684 Column_685 Column_686 Column_687 Column_688 Column_689 Column_690 Column_691 Column_692 Column_693 Column_694 Column_695 Column_696 Column_697 Column_698 Column_699 Column_700 Column_701 Column_702 Column_703 Column_704 Column_705 Column_706 Column_707 Column_708 Column_709 Column_710 Column_711 Column_712 Column_713 Column_714 Column_715 Column_716 Column_717 Column_718 Column_719 Column_720 Column_721 Column_722 Column_723 Column_724 Column_725 Column_726 Column_727 Column_728 Column_729 Column_730 Column_731 Column_732 Column_733 Column_734 Column_735 Column_736 Column_737 Column_738 Column_739 Column_740 Column_741 Column_742 Column_743 Column_744 Column_745 Column_746 Column_747 Column_748 Column_749 Column_750 Column_751 Column_752 Column_753 Column_754 Column_755 Column_756 Column_757 Column_758 Column_759 Column_760 Column_761 Column_762 Column_763 Column_764 Column_765 Column_766 Column_767 Column_768 Column_769 Column_770 Column_771 Column_772 Column_773 Column_774 Column_775 Column_776 Column_777 Column_778 Column_779 Column_780 Column_781 Column_782 Column_783 Column_784 Column_785 Column_786 Column_787 Column_788 Column_789 Column_790 Column_791 Column_792 Column_793 Column_794 Column_795 Column_796 Column_797 Column_798 Column_799 Column_800 Column_801 Column_802 Column_803 Column_804 Column_805 Column_806 Column_807 Column_808 Column_809 Column_810 Column_811 Column_812 Column_813 Column_814 Column_815 Column_816 Column_817 Column_818 Column_819 Column_820 Column_821 Column_822 Column_823 Column_824 Column_825 Column_826 Column_827 Column_828 Column_829 Column_830 Column_831 Column_832 Column_833 Column_834 Column_835 Column_836 Column_837 Column_838 Column_839 Column_840 Column_841 Column_842 Column_843 Column_844 Column_845 Column_846 Column_847 Column_848 Column_849 Column_850 Column_851 Column_852 Column_853 Column_854 Column_855 Column_856 Column_857 Column_858 Column_859 Column_860 Column_861 Column_862 Column_863 Column_864 Column_865 Column_866 Column_867 Column_868 Column_869 Column_870 Column_871 Column_872 Column_873 Column_874 Column_875 Column_876 Column_877 Column_878 Column_879 Column_880 Column_881 Column_882 Column_883 Column_884 Column_885 Column_886 Column_887 Column_888 Column_889 Column_890 Column_891 Column_892 Column_893 Column_894 Column_895 Column_896 Column_897 Column_898 Column_899 Column_900 Column_901 Column_902 Column_903 Column_904 Column_905 Column_906 Column_907 Column_908 Column_909 Column_910 Column_911 Column_912 Column_913 Column_914 Column_915 Column_916 Column_917 Column_918 Column_919 Column_920 Column_921 Column_922 Column_923 Column_924 Column_925 Column_926 Column_927 Column_928 Column_929 Column_930 Column_931 Column_932 Column_933 Column_934 Column_935 Column_936 Column_937 Column_938 Column_939 Column_940 Column_941 Column_942 Column_943 Column_944 Column_945 Column_946 Column_947 Column_948 Column_949 Column_950 Column_951 Column_952 Column_953 Column_954 Column_955 Column_956 Column_957 Column_958 Column_959 Column_960 Column_961 Column_962 Column_963 Column_964 Column_965 Column_966 Column_967 Column_968 Column_969 Column_970 Column_971 Column_972 Column_973 Column_974 Column_975 Column_976 Column_977 Column_978 Column_979 Column_980 Column_981 Column_982 Column_983 Column_984 Column_985 Column_986 Column_987 Column_988 Column_989 Column_990 Column_991 Column_992 Column_993 Column_994 Column_995 Column_996 Column_997 Column_998 Column_999 Column_1000 Column_1001 Column_1002 Column_1003 Column_1004 Column_1005 Column_1006 Column_1007 Column_1008 Column_1009 Column_1010 Column_1011 Column_1012 Column_1013 Column_1014 Column_1015 Column_1016 Column_1017 Column_1018 Column_1019 Column_1020 Column_1021 Column_1022 Column_1023 Column_1024 Column_1025 Column_1026 Column_1027 Column_1028 Column_1029 Column_1030 Column_1031 Column_1032 Column_1033 Column_1034 Column_1035 Column_1036 Column_1037 Column_1038 Column_1039 Column_1040 Column_1041 Column_1042 Column_1043 Column_1044 Column_1045 Column_1046 Column_1047 Column_1048 Column_1049 Column_1050 Column_1051 Column_1052 Column_1053 Column_1054 Column_1055 Column_1056 Column_1057 Column_1058 Column_1059 Column_1060 Column_1061 Column_1062 Column_1063 Column_1064 Column_1065 Column_1066 Column_1067 Column_1068 Column_1069 Column_1070 Column_1071 Column_1072 Column_1073 Column_1074 Column_1075 Column_1076 Column_1077 Column_1078 Column_1079 Column_1080 Column_1081 Column_1082 Column_1083 Column_1084 Column_1085 Column_1086 Column_1087 Column_1088 Column_1089 Column_1090 Column_1091 Column_1092 Column_1093 Column_1094 Column_1095 Column_1096 Column_1097 Column_1098 Column_1099 Column_1100 Column_1101 Column_1102 Column_1103 Column_1104 Column_1105 Column_1106 Column_1107 Column_1108 Column_1109 Column_1110 Column_1111 Column_1112 Column_1113 Column_1114 Column_1115 Column_1116 Column_1117 Column_1118 Column_1119 Column_1120 Column_1121 Column_1122 Column_1123 Column_1124 Column_1125 Column_1126 Column_1127 Column_1128 Column_1129 Column_1130 Column_1131 Column_1132 Column_1133 Column_1134 Column_1135 Column_1136 Column_1137 Column_1138 Column_1139 Column_1140 Column_1141 Column_1142 Column_1143 Column_1144 Column_1145 Column_1146 Column_1147 Column_1148 Column_1149 Column_1150 Column_1151 Column_1152 Column_1153 Column_1154 Column_1155 Column_1156 Column_1157 Column_1158 Column_1159 Column_1160 Column_1161 Column_1162 Column_1163 Column_1164 Column_1165 Column_1166 Column_1167 Column_1168 Column_1169 Column_1170 Column_1171 Column_1172 Column_1173 Column_1174 Column_1175 Column_1176 Column_1177 Column_1178 Column_1179 Column_1180 Column_1181 Column_1182 Column_1183 Column_1184 Column_1185 Column_1186 Column_1187 Column_1188 Column_1189 Column_1190 Column_1191 Column_1192 Column_1193 Column_1194 Column_1195 Column_1196 Column_1197 Column_1198 Column_1199 Column_1200 Column_1201 Column_1202 Column_1203 Column_1204 Column_1205 Column_1206 Column_1207 Column_1208 Column_1209 Column_1210 Column_1211 Column_1212 Column_1213 Column_1214 Column_1215 Column_1216 Column_1217 Column_1218 Column_1219 Column_1220 Column_1221 Column_1222 Column_1223 Column_1224 Column_1225 Column_1226 Column_1227 Column_1228 Column_1229 Column_1230 Column_1231 Column_1232 Column_1233 Column_1234 Column_1235 Column_1236 Column_1237 Column_1238 Column_1239 Column_1240 Column_1241 Column_1242 Column_1243 Column_1244 Column_1245 Column_1246 Column_1247 Column_1248 Column_1249 Column_1250 Column_1251 Column_1252 Column_1253 Column_1254 Column_1255 Column_1256 Column_1257 Column_1258 Column_1259 Column_1260 Column_1261 Column_1262 Column_1263 Column_1264 Column_1265 Column_1266 Column_1267 Column_1268 Column_1269 Column_1270 Column_1271 Column_1272 Column_1273 Column_1274 Column_1275 Column_1276 Column_1277 Column_1278 Column_1279 Column_1280 Column_1281 Column_1282 Column_1283 Column_1284 Column_1285 Column_1286 Column_1287 Column_1288 Column_1289 Column_1290 Column_1291 Column_1292 Column_1293 Column_1294 Column_1295 Column_1296 Column_1297 Column_1298 Column_1299 Column_1300 Column_1301 Column_1302 Column_1303 Column_1304 Column_1305 Column_1306 Column_1307 Column_1308 Column_1309 Column_1310 Column_1311 Column_1312 Column_1313 Column_1314 Column_1315 Column_1316 Column_1317 Column_1318 Column_1319 Column_1320 Column_1321 Column_1322 Column_1323 Column_1324 Column_1325 Column_1326 Column_1327 Column_1328 Column_1329 Column_1330 Column_1331 Column_1332 Column_1333 Column_1334 Column_1335 Column_1336 Column_1337 Column_1338 Column_1339 Column_1340 Column_1341 Column_1342 Column_1343 Column_1344 Column_1345 Column_1346 Column_1347 Column_1348 Column_1349 Column_1350 Column_1351 Column_1352 Column_1353 Column_1354 Column_1355 Column_1356 Column_1357 Column_1358 Column_1359 Column_1360 Column_1361 Column_1362 Column_1363 Column_1364 Column_1365 Column_1366 Column_1367 Column_1368 Column_1369 Column_1370 Column_1371 Column_1372 Column_1373 Column_1374 Column_1375 Column_1376 Column_1377 Column_1378 Column_1379 Column_1380 Column_1381 Column_1382 Column_1383 Column_1384 Column_1385 Column_1386 Column_1387 Column_1388 Column_1389 Column_1390 Column_1391 Column_1392 Column_1393 Column_1394 Column_1395 Column_1396 Column_1397 Column_1398 Column_1399 Column_1400 Column_1401 Column_1402 Column_1403 Column_1404 Column_1405 Column_1406 Column_1407 Column_1408 Column_1409 Column_1410 Column_1411 Column_1412 Column_1413 Column_1414 Column_1415 Column_1416 Column_1417 Column_1418 Column_1419 Column_1420 Column_1421 Column_1422 Column_1423 Column_1424 Column_1425 Column_1426 Column_1427 Column_1428 Column_1429 Column_1430 Column_1431 Column_1432 Column_1433 Column_1434 Column_1435 Column_1436 Column_1437 Column_1438 Column_1439 Column_1440 Column_1441 Column_1442 Column_1443 Column_1444 Column_1445 Column_1446 Column_1447 Column_1448 Column_1449 Column_1450 Column_1451 Column_1452 Column_1453 Column_1454 Column_1455 Column_1456 Column_1457 Column_1458 Column_1459 Column_1460 Column_1461 Column_1462 Column_1463 Column_1464 Column_1465 Column_1466 Column_1467 Column_1468 Column_1469 Column_1470 Column_1471 Column_1472 Column_1473 Column_1474 Column_1475 Column_1476 Column_1477 Column_1478 Column_1479 Column_1480 Column_1481 Column_1482 Column_1483 Column_1484 Column_1485 Column_1486 Column_1487 Column_1488 Column_1489 Column_1490 Column_1491 Column_1492 Column_1493 Column_1494 Column_1495 Column_1496 Column_1497 Column_1498 Column_1499 Column_1500 Column_1501 Column_1502 Column_1503 Column_1504 Column_1505 Column_1506 Column_1507 Column_1508 Column_1509 Column_1510 Column_1511 Column_1512 Column_1513 Column_1514 Column_1515 Column_1516 Column_1517 Column_1518 Column_1519 Column_1520 Column_1521 Column_1522 Column_1523 Column_1524 Column_1525 Column_1526 Column_1527 Column_1528 Column_1529 Column_1530 Column_1531 Column_1532 Column_1533 Column_1534 Column_1535 Column_1536 Column_1537 Column_1538 Column_1539 Column_1540 Column_1541 Column_1542 Column_1543 Column_1544 Column_1545 Column_1546 Column_1547 Column_1548 Column_1549 Column_1550 Column_1551 Column_1552 Column_1553 Column_1554 Column_1555 Column_1556 Column_1557 Column_1558 Column_1559 Column_1560 Column_1561 Column_1562 Column_1563 Column_1564 Column_1565 Column_1566 Column_1567 Column_1568 Column_1569 Column_1570 Column_1571 Column_1572 Column_1573 Column_1574 Column_1575 Column_1576 Column_1577 Column_1578 Column_1579 Column_1580 Column_1581 Column_1582 Column_1583 Column_1584 Column_1585 Column_1586 Column_1587 Column_1588 Column_1589 Column_1590 Column_1591 Column_1592 Column_1593 Column_1594 Column_1595 Column_1596 Column_1597 Column_1598 Column_1599 Column_1600 Column_1601 Column_1602 Column_1603 Column_1604 Column_1605 Column_1606 Column_1607 Column_1608 Column_1609 Column_1610 Column_1611 Column_1612 Column_1613 Column_1614 Column_1615 Column_1616 Column_1617 Column_1618 Column_1619 Column_1620 Column_1621 Column_1622 Column_1623 Column_1624 Column_1625 Column_1626 Column_1627 Column_1628 Column_1629 Column_1630 Column_1631 Column_1632 Column_1633 Column_1634 Column_1635 Column_1636 Column_1637 Column_1638 Column_1639 Column_1640 Column_1641 Column_1642 Column_1643 Column_1644 Column_1645 Column_1646 Column_1647 Column_1648 Column_1649 Column_1650 Column_1651 Column_1652 Column_1653 Column_1654 Column_1655 Column_1656 Column_1657 Column_1658 Column_1659 Column_1660 Column_1661 Column_1662 Column_1663 Column_1664 Column_1665 Column_1666 Column_1667 Column_1668 Column_1669 Column_1670 Column_1671 Column_1672 Column_1673 Column_1674 Column_1675 Column_1676 Column_1677 Column_1678 Column_1679 Column_1680 Column_1681 Column_1682 Column_1683 Column_1684 Column_1685 Column_1686 Column_1687 Column_1688 Column_1689 Column_1690 Column_1691 Column_1692 Column_1693 Column_1694 Column_1695 Column_1696 Column_1697 Column_1698 Column_1699 Column_1700 Column_1701 Column_1702 Column_1703 Column_1704 Column_1705 Column_1706 Column_1707 Column_1708 Column_1709 Column_1710 Column_1711 Column_1712 Column_1713 Column_1714 Column_1715 Column_1716 Column_1717 Column_1718 Column_1719 Column_1720 Column_1721 Column_1722 Column_1723 Column_1724 Column_1725 Column_1726 Column_1727 Column_1728 Column_1729 Column_1730 Column_1731 Column_1732 Column_1733 Column_1734 Column_1735 Column_1736 Column_1737 Column_1738 Column_1739 Column_1740 Column_1741 Column_1742 Column_1743 Column_1744 Column_1745 Column_1746 Column_1747 Column_1748 Column_1749 Column_1750 Column_1751 Column_1752 Column_1753 Column_1754 Column_1755 Column_1756 Column_1757 Column_1758 Column_1759 Column_1760 Column_1761 Column_1762 Column_1763 Column_1764 Column_1765 Column_1766 Column_1767 Column_1768 Column_1769 Column_1770 Column_1771 Column_1772 Column_1773 Column_1774 Column_1775 Column_1776 Column_1777 Column_1778 Column_1779 Column_1780 Column_1781 Column_1782 Column_1783 Column_1784 Column_1785 Column_1786 Column_1787 Column_1788 Column_1789 Column_1790 Column_1791 Column_1792 Column_1793 Column_1794 Column_1795 Column_1796 Column_1797 Column_1798 Column_1799 Column_1800 Column_1801 Column_1802 Column_1803 Column_1804 Column_1805 Column_1806 Column_1807 Column_1808 Column_1809 Column_1810 Column_1811 Column_1812 Column_1813 Column_1814 Column_1815 Column_1816 Column_1817 Column_1818 Column_1819 Column_1820 Column_1821 Column_1822 Column_1823 Column_1824 Column_1825 Column_1826 Column_1827 Column_1828 Column_1829 Column_1830 Column_1831 Column_1832 Column_1833 Column_1834 Column_1835 Column_1836 Column_1837 Column_1838 Column_1839 Column_1840 Column_1841 Column_1842 Column_1843 Column_1844 Column_1845 Column_1846 Column_1847 Column_1848 Column_1849 Column_1850 Column_1851 Column_1852 Column_1853 Column_1854 Column_1855 Column_1856 Column_1857 Column_1858 Column_1859 Column_1860 Column_1861 Column_1862 Column_1863 Column_1864 Column_1865 Column_1866 Column_1867 Column_1868 Column_1869 Column_1870 Column_1871 Column_1872 Column_1873 Column_1874 Column_1875 Column_1876 Column_1877 Column_1878 Column_1879 Column_1880 Column_1881 Column_1882 Column_1883 Column_1884 Column_1885 Column_1886 Column_1887 Column_1888 Column_1889 Column_1890 Column_1891 Column_1892 Column_1893 Column_1894 Column_1895 Column_1896 Column_1897 Column_1898 Column_1899 Column_1900 Column_1901 Column_1902 Column_1903 Column_1904 Column_1905 Column_1906 Column_1907 Column_1908 Column_1909 Column_1910 Column_1911 Column_1912 Column_1913 Column_1914 Column_1915 Column_1916 Column_1917 Column_1918 Column_1919 Column_1920 Column_1921 Column_1922 Column_1923 Column_1924 Column_1925 Column_1926 Column_1927 Column_1928 Column_1929 Column_1930 Column_1931 Column_1932 Column_1933 Column_1934 Column_1935 Column_1936 Column_1937 Column_1938 Column_1939 Column_1940 Column_1941 Column_1942 Column_1943 Column_1944 Column_1945 Column_1946 Column_1947 Column_1948 Column_1949 Column_1950 Column_1951 Column_1952 Column_1953 Column_1954 Column_1955 Column_1956 Column_1957 Column_1958 Column_1959 Column_1960 Column_1961 Column_1962 Column_1963 Column_1964 Column_1965 Column_1966 Column_1967 Column_1968 Column_1969 Column_1970 Column_1971 Column_1972 Column_1973 Column_1974 Column_1975 Column_1976 Column_1977 Column_1978 Column_1979 Column_1980 Column_1981 Column_1982 Column_1983 Column_1984 Column_1985 Column_1986 Column_1987 Column_1988 Column_1989 Column_1990 Column_1991 Column_1992 Column_1993 Column_1994 Column_1995 Column_1996 Column_1997 Column_1998 Column_1999 Column_2000 Column_2001 Column_2002 Column_2003 Column_2004 Column_2005 Column_2006 Column_2007 Column_2008 Column_2009 Column_2010 Column_2011 Column_2012 Column_2013 Column_2014 Column_2015 Column_2016 Column_2017 Column_2018 Column_2019 Column_2020 Column_2021 Column_2022 Column_2023 Column_2024 Column_2025 Column_2026 Column_2027 Column_2028 Column_2029 Column_2030 Column_2031 Column_2032 Column_2033 Column_2034 Column_2035 Column_2036 Column_2037 Column_2038 Column_2039 Column_2040 Column_2041 Column_2042 Column_2043 Column_2044 Column_2045 Column_2046 Column_2047
feature_infos=[0.031625762581825256:0.18548896908760071] [-0.077899761497974396:0.092257082462310791] [-0.0094509869813919067:0.15718846023082733] [-0.033624559640884399:0.037507157772779465] [-0.11057211458683014:0.093554504215717316] [-0.12634585797786713:-0.0011235648998990655] [-0.098035380244255066:0.04775489866733551] [0.00061047158669680357:0.064454540610313416] [-0.12407473474740982:-0.060604847967624664] [-0.32706671953201294:-0.10886239260435104] [-0.2057095468044281:-0.1401604562997818] [-0.2829858660697937:-0.19513869285583496] [-0.077872328460216522:0.0073849023319780827] [0.16397872567176819:0.35039788484573364] [0.037936240434646606:0.095858611166477203] [-0.12075990438461304:0.065362811088562012] [0.18751253187656403:0.27618050575256348] [-0.059006795287132263:0.033381585031747818] [-0.66081571578979492:-0.31164157390594482] [-0.062476657330989838:0.077567204833030701] [-0.011525796726346016:0.083161577582359314] [-0.016454190015792847:0.063293300569057465] [-0.06529843807220459:0.049386490136384964] [-0.15788343548774719:-0.083523258566856384] [0.023582093417644501:0.19255442917346954] [0.28908944129943848:0.48563483357429504] [0.13414783775806427:0.257062166929245] [-0.036214049905538559:0.15844033658504486] [-0.1315125972032547:-0.01387433148920536] [-0.065761364996433258:0.063243754208087921] [0.05107647180557251:0.1087644025683403] [-0.27835375070571899:-0.16187094151973724] [-0.168979212641716:-0.067276835441589355] [0.11817389726638794:0.21725617349147797] [0.019288809970021248:0.099320590496063232] [-0.15194135904312134:-0.060505423694849014] [-0.13681434094905853:-0.039537124335765839] [-0.0074034254066646099:0.086463943123817444] [-0.17936412990093231:-0.10234856605529785] [-0.039480090141296387:0.030384602025151253] [-0.1224794015288353:-0.051334120333194733] [-0.059705428779125214:0.025349773466587067] [-0.036103364080190659:0.031738270074129105] [-0.51076501607894897:-0.12983597815036774] [-0.018450088798999786:0.16320675611495972] [0.27069258689880371:0.35958114266395569] [0.19771714508533478:0.26314732432365417] [-0.018242597579956055:0.155220627784729] [-0.052586697041988373:0.069066122174263] [-0.032560922205448151:0.067979380488395691] [-0.25725334882736206:-0.18805930018424988] [0.0084268487989902496:0.074851542711257935] [0.015188577584922314:0.20478543639183044] [0.0027866549789905548:0.15015280246734619] [-0.087187990546226501:-0.0042015593498945236] [0.083749264478683472:0.23299039900302887] [-0.29614934325218201:-0.10344713926315308] [0.039933718740940094:0.14262296259403229] [0.24582082033157349:0.37630107998847961] [-0.066089652478694916:0.021027307957410812] [-0.23838558793067932:-0.050690844655036926] [-0.10334420949220657:-0.029678529128432274] [-0.17041896283626556:-0.001552897272631526] [-0.019600497558712959:0.066824100911617279] [-0.096631921827793121:0.056420180946588516] [-0.41951021552085876:-0.17195586860179901] [-0.18232132494449615:-0.026850786060094833] [0.13654740154743195:0.21341374516487122] [0.048802349716424942:0.094084538519382477] [-0.059239070862531662:0.10947217792272568] [-0.020337183028459549:0.08653753250837326] [-0.94984745979309082:-0.32049190998077393] [-0.21777580678462982:-0.01877901703119278] [-0.10182393342256546:-0.030291646718978882] [-0.017485855147242546:-0.0053606098517775536] [0.055265042930841446:0.16586638987064362] [0.021388232707977295:0.13833917677402496] [0.0095494817942380905:0.11810121685266495] [-0.036138750612735748:0.033348482102155685] [-0.1284714937210083:-0.046630341559648514] [-0.12357550114393234:-0.053541477769613266] [-0.063418000936508179:0.13756905496120453] [-0.086760640144348145:-0.016437117010354996] [0.11893293261528015:0.25178837776184082] [-0.092581391334533691:-0.0030297602061182261] [-0.046806775033473969:0.031081445515155792] [0.044396959245204926:0.10724924504756927] [-0.14465078711509705:0.02971644327044487] [-0.16231952607631683:-0.027401862666010857] [0.079482689499855042:0.2214508056640625] [0.14042764902114868:0.27383828163146973] [-0.05185936763882637:0.058422643691301346] [-0.022207910194993019:0.15320827066898346] [-0.12970156967639923:-0.024404697120189667] [0.22098763287067413:0.39615413546562195] [-0.14297986030578613:-0.021364906802773476] [-0.070028088986873627:0.092068314552307129] [-0.028276810422539711:0.10147733241319656] [0.35463106632232666:0.74425292015075684] [-0.1249367818236351:-0.063139274716377258] [-0.081544086337089539:0.056195136159658432] [-0.23491443693637848:-0.10971055179834366] [-0.017845168709754944:0.16645608842372894] [-0.062569461762905121:0.0064722090028226376] [0.054877668619155884:0.28682953119277954] [-0.16179066896438599:-0.089694373309612274] [-0.17769929766654968:-0.08739154040813446] [-0.17737133800983429:-0.045656327158212662] [-0.026464655995368958:0.099168762564659119] [-0.17449399828910828:-0.042263824492692947] [-0.03808283805847168:0.047554716467857361] [-0.15788714587688446:-0.025329850614070892] [-0.020922653377056122:0.10735512524843216] [0.016658790409564972:0.070503294467926025] [-0.030431183055043221:0.091936998069286346] [-0.27394181489944458:-0.12657469511032104] [-0.044310722500085831:0.093831218779087067] [0.0091430339962244034:0.078746587038040161] [-0.12571053206920624:0.050592374056577682] [-0.19821199774742126:-0.0034924980718642473] [0.071711786091327667:0.20164461433887482] [-0.0088087543845176697:0.089891195297241211] [0.48430922627449036:1.0455368757247925] [0.0032054763287305832:0.06053629145026207] [-0.15420308709144592:-0.097442060708999634] [-0.073648020625114441:0.029196761548519135] [-0.19940581917762756:0.008975708857178688] [-0.04433189332485199:0.10898050665855408] [0.19759823381900787:0.32038581371307373] [-0.11352849006652832:-0.041396517306566238] [-0.11811108142137527:-0.043513704091310501] [0.065834932029247284:0.13306480646133423] [-0.031745608896017075:0.075466081500053406] [-0.36818712949752808:-0.11486449092626572] [-0.16873107850551605:-0.093456774950027466] [-0.054823886603116989:0.25898700952529907] [-0.052478484809398651:0.069027036428451538] [0.062306970357894897:0.17216897010803223] [0.0015224635135382414:0.070841632783412933] [0.019442074000835419:0.20411908626556396] [0.083723574876785278:0.15449033677577972] [-0.19348463416099548:-0.021554021164774895] [0.075097374618053436:0.26577490568161011] [-0.034879207611083984:0.038659632205963135] [0.058477006852626801:0.12919904291629791] [-0.046818103641271591:0.11354526877403259] [-0.018430629745125771:0.069673068821430206] [-0.012191150337457657:0.043351363390684128] [0.020541680976748466:0.063589602708816528] [-0.053740497678518295:0.015147813595831394] [-0.079244881868362427:-0.00043894699774682522] [-0.10945332050323486:-0.013300478458404541] [-0.10698774456977844:-0.013365276157855988] [0.057406358420848846:0.11734805256128311] [-0.19375818967819214:-0.081112727522850037] [-0.2208811491727829:-0.046901535242795944] [-0.099550910294055939:-0.0071680443361401558] [-0.18072204291820526:0.014141243882477283] [-0.085555575788021088:-0.016954556107521057] [-0.018011320382356644:0.085278443992137909] [-0.089774377644062042:0.095974966883659363] [-0.11401695013046265:0.055616576224565506] [-0.08369021862745285:-0.027629632502794266] [0.11498625576496124:0.18357528746128082] [-0.096464045345783234:0.031011240556836128] [-0.18435561656951904:-0.065141506493091583] [-0.44622847437858582:-0.25866758823394775] [-0.033828422427177429:0.012343067675828934] [-0.24203966557979584:-0.13562265038490295] [-0.053781498223543167:0.19345946609973907] [-0.066375300288200378:0.068237818777561188] [0.012625434435904026:0.24677069485187531] [-0.030970780178904533:0.13642849028110504] [-0.11619684100151062:-0.045265991240739822] [-0.13125109672546387:0.018623992800712585] [-0.014002152718603611:0.028674010187387466] [-0.077582292258739471:0.021758846938610077] [-0.093567386269569397:0.039419617503881454] [-0.042923979461193085:0.085206076502799988] [-0.14590311050415039:0.022791849449276924] [-0.14310480654239655:-0.034973245114088058] [-0.46130096912384033:-0.27179273962974548] [-0.28353202342987061:-0.11147133260965347] [-0.19584456086158752:-0.062387797981500626] [-0.12857984006404877:-0.028732899576425552] [-0.00058941281167790294:0.083835497498512268] [-0.18191306293010712:-0.069028973579406738] [0.012648642063140869:0.15596947073936462] [0.038754090666770935:0.19236426055431366] [-0.08547365665435791:-0.0025177295319736004] [-0.51610821485519409:-0.32940113544464111] [0.0082004275172948837:0.094070166349411011] [0.10373454540967941:0.25280106067657471] [-0.11467026174068451:-0.051949344575405121] [0.011508136987686157:0.063265390694141388] [-0.14405268430709839:-0.017553664743900299] [-0.029073204845190048:0.17667068541049957] [-0.057186342775821686:0.19685539603233337] [0.11323674768209457:0.26756668090820312] [-0.31568261981010437:-0.13271398842334747] [-0.43823486566543579:-0.26589775085449219] [0.034912519156932831:0.11601851880550385] [-0.067644275724887848:-0.031746350228786469] [-0.048340585082769394:-0.00024748410214670002] [-0.29080456495285034:-0.13559079170227051] [-0.069502003490924835:-0.026125844568014145] [-0.065339289605617523:0.090114578604698181] [-0.14756031334400177:0.0072737983427941799] [0.1587655246257782:0.26023784279823303] [-0.081544764339923859:-0.019277350977063179] [-0.0027643044013530016:0.055598292499780655] [-0.031160552054643631:0.058193206787109375] [0.05515650287270546:0.21913501620292664] [-0.023958392441272736:0.070274822413921356] [-0.098155848681926727:-0.015722943469882011] [-0.11971010267734528:0.064805597066879272] [-0.18229778110980988:-0.0013417031150311232] [-0.051670361310243607:0.031982433050870895] [-0.19982923567295074:-0.027623007073998451] [0.15478913486003876:0.24293814599514008] [-0.052899263799190521:0.047450289130210876] [0.026051007211208344:0.10970398038625717] [-0.15688693523406982:-0.058084309101104736] [0.18187373876571655:0.25305071473121643] [-0.002238001674413681:0.059553425759077072] [-0.064141049981117249:0.05392991378903389] [-0.089865997433662415:0.070807173848152161] [-0.051269941031932831:0.057445220649242401] [-0.048585571348667145:0.076403707265853882] [-0.20885856449604034:-0.087511986494064331] [-0.16697351634502411:-0.076718688011169434] [-0.072424769401550293:0.046735264360904694] [0.2866208553314209:0.46343719959259033] [0.14019966125488281:0.24195857346057892] [0.021538374945521355:0.12938795983791351] [0.0080156642943620682:0.15022090077400208] [-0.21963787078857422:-0.044187072664499283] [0.028439227491617203:0.070481762290000916] [-0.084456063807010651:0.036240577697753906] [-0.031153406947851181:0.042324230074882507] [-0.054253634065389633:0.066112436354160309] [0.11552222818136215:0.31123080849647522] [-0.11031587421894073:-0.037892021238803864] [0.016582779586315155:0.073972120881080627] [0.32028302550315857:0.51535648107528687] [0.01385097298771143:0.076934173703193665] [-0.20161212980747223:-0.10416314005851746] [-0.1678842157125473:-0.091020829975605011] [0.0043010157532989979:0.19436222314834595] [-0.068169929087162018:0.0026738857850432396] [0.10824901610612869:0.37692990899085999] [0.025216380134224892:0.11847006529569626] [0.26309171319007874:0.37382000684738159] [-0.10447710007429123:0.07589227706193924] [-0.065602347254753113:0.036107555031776428] [0.089739248156547546:0.19493125379085541] [0.022883474826812744:0.074080832302570343] [-0.027373645454645157:0.025316152721643448] [0.094435602426528931:0.23205526173114777] [-0.018526937812566757:0.018455760553479195] [-0.21626418828964233:-0.057473760098218918] [-0.13384272158145905:-0.055885083973407745] [0.1608370840549469:0.24895469844341278] [-0.093332521617412567:-0.0361068956553936] [-0.031017571687698364:0.032137475907802582] [0.054838079959154129:0.14982208609580994] [-0.25573119521141052:-0.042359694838523865] [0.071357838809490204:0.24550049006938934] [0.014562512747943401:0.19473445415496826] [-0.011678392067551613:0.052398424595594406] [-0.091927297413349152:0.045722819864749908] [-0.028923097997903824:0.14433139562606812] [-0.019836753606796265:0.10328614711761475] [-0.068887077271938324:0.017953446134924889] [-0.025654414668679237:0.14011980593204498] [0.2370302826166153:0.40741452574729919] [-0.071163840591907501:0.014715526252985001] [-0.067776471376419067:0.030065929517149925] [-0.013946725986897945:0.11510501801967621] [0.02449166402220726:0.1078067347407341] [0.059439081698656082:0.14980140328407288] [0.19204658269882202:0.31446936726570129] [-0.072845198214054108:0.050842806696891785] [-0.55812811851501465:-0.074013903737068176] [0.0065006539225578308:0.037180289626121521] [0.13000847399234772:0.26406148076057434] [-0.089982911944389343:-0.032498225569725037] [0.0023867404088377953:0.054989326745271683] [-0.020796371623873711:0.053997907787561417] [-0.048283696174621582:0.039009418338537216] [0.21234065294265747:0.30818942189216614] [0.05304272472858429:0.13290645182132721] [0.056262996047735214:0.11917837709188461] [-0.039837393909692764:0.045680861920118332] [0.059691336005926132:0.17137748003005981] [-0.14248517155647278:-0.0087839141488075256] [-0.025520062074065208:0.053381685167551041] [-0.078000068664550781:-0.025603193789720535] [0.084547378122806549:0.16023263335227966] [-0.16099642217159271:-0.04704613983631134] [0.03600078821182251:0.10328357666730881] [-0.1276845782995224:-0.026857836171984673] [0.086941994726657867:0.22553406655788422] [-0.19283828139305115:-0.11662796139717102] [0.03859967365860939:0.10736562311649323] [0.10908977687358856:0.17883118987083435] [0.014969144947826862:0.082030348479747772] [-0.09666404128074646:-0.037023387849330902] [-0.12817834317684174:-0.031698990613222122] [-0.039135493338108063:0.027227034792304039] [0.20261457562446594:0.31487548351287842] [0.17121239006519318:0.31097596883773804] [-0.22962239384651184:-0.056053608655929565] [-0.057840980589389801:0.046803262084722519] [0.060998126864433289:0.12746572494506836] [0.21953156590461731:0.4127478301525116] [0.018444390967488289:0.14611014723777771] [-0.033215813338756561:0.037395976483821869] [0.47740122675895691:0.75729823112487793] [-0.1022331714630127:-0.040085896849632263] [0.23304516077041626:0.42720592021942139] [0.087594494223594666:0.21612229943275452] [0.13621990382671356:0.23227648437023163] [-0.031967826187610626:0.090941965579986572] [-0.030136667191982269:0.06102023646235466] [0.019329218193888664:0.12057084590196609] [-0.023212961852550507:0.020136194303631783] [0.033028412610292435:0.11288782954216003] [0.065333232283592224:0.24768918752670288] [-0.2041219174861908:-0.073255695402622223] [-0.042811889201402664:0.0047426754608750343] [-0.17382334172725677:-0.11853818595409393] [0.096010409295558929:0.16884537041187286] [-0.053306929767131805:0.0032695403788238764] [-0.30605459213256836:-0.14850887656211853] [-0.070190630853176117:-0.0036379673983901739] [-0.32379922270774841:-0.1622067391872406] [0.11848824471235275:0.48376092314720154] [0.12646041810512543:0.28596806526184082] [-0.082970835268497467:0.021795166656374931] [0.15643338859081268:0.24065980315208435] [-0.063363656401634216:0.012578723020851612] [-0.42010986804962158:-0.26822063326835632] [0.0081102615222334862:0.1438366174697876] [0.1591743677854538:0.28051501512527466] [-0.0020294943824410439:0.11466680467128754] [-0.069848120212554932:0.034869369119405746] [-0.1327422559261322:0.11087284982204437] [-0.1049632653594017:-0.010375521145761013] [-0.013066078536212444:0.083844110369682312] [-0.0172309260815382:0.061842840164899826] [0.071428142488002777:0.16988246142864227] [0.0062553542666137218:0.061911918222904205] [-0.39210152626037598:-0.083828166127204895] [0.078349262475967407:0.17474031448364258] [0.073454715311527252:0.14063346385955811] [-0.093737535178661346:-0.0083790402859449387] [-0.0076766395941376686:0.071562387049198151] [0.036520484834909439:0.23842544853687286] [0.12970808148384094:0.32388350367546082] [0.082511082291603088:0.13705927133560181] [-0.059880342334508896:0.031916473060846329] [-0.025332760065793991:0.26428943872451782] [0.0053461072966456413:0.099952735006809235] [0.0097604729235172272:0.098574087023735046] [0.053424019366502762:0.14329564571380615] [-0.33370715379714966:-0.18212470412254333] [-0.11795125901699066:0.080746814608573914] [0.052237294614315033:0.12393929809331894] [-0.04621274396777153:0.1603451669216156] [0.018383830785751343:0.26266345381736755] [-1.242759108543396:-0.55825746059417725] [-0.32032215595245361:-0.19620224833488464] [-0.19466680288314819:-0.090104140341281891] [-0.30092382431030273:-0.18445385992527008] [0.012167963199317455:0.132700115442276] [-0.011137129738926888:0.1854393482208252] [-0.1761302649974823:-0.099916435778141022] [0.033370655030012131:0.23828566074371338] [-0.04167141392827034:0.05334143340587616] [-0.014806472696363926:0.043994013220071793] [0.17319664359092712:0.31866985559463501] [0.075973160564899445:0.2150236964225769] [-0.10232184082269669:0.065671049058437347] [-0.21487663686275482:-0.11074691265821457] [-0.048267967998981476:0.019519053399562836] [-0.061500601470470428:0.062336146831512451] [-0.047313682734966278:0.054001472890377045] [-0.061010181903839111:-0.00066267995862290263] [0.042008835822343826:0.12200996279716492] [-0.036212507635354996:0.10335696488618851] [-0.16590845584869385:-0.089260116219520569] [0.26709833741188049:0.41568678617477417] [-0.026956185698509216:0.05744507908821106] [-0.00065741001162678003:0.08042415976524353] [-0.069022580981254578:0.011556677520275116] [0.047275025397539139:0.14992551505565643] [-0.27752122282981873:-0.0075937425717711449] [-0.31866291165351868:-0.072981506586074829] [-0.1411343514919281:-0.051766075193881989] [0.060634210705757141:0.18298359215259552] [-0.057552829384803772:0.10867934674024582] [-0.026602579280734062:0.034517224878072739] [-0.063905425369739532:0.050866875797510147] [0.088427156209945679:0.22514669597148895] [-0.012866882607340813:0.025779122486710548] [0.22904236614704132:0.33872634172439575] [-0.081336244940757751:0.071187205612659454] [-0.1882224828004837:-0.1005096435546875] [-0.18573679029941559:-0.023237800225615501] [0.28170058131217957:0.37467071413993835] [-0.11765364557504654:0.0047592963092029095] [-0.21938033401966095:-0.12158353626728058] [-0.10444507002830505:-7.3255716415587813e-05] [0.073309935629367828:0.15389528870582581] [-0.029452407732605934:0.045729424804449081] [-0.066845983266830444:0.057376179844141006] [-0.16134108603000641:-0.049610886722803116] [-0.29167833924293518:-0.11779151111841202] [-0.044883560389280319:0.13473361730575562] [-0.079445019364356995:0.009301256388425827] [-0.096236005425453186:0.098266094923019409] [-0.086603611707687378:-0.019568383693695068] [-0.044258102774620056:0.025092968717217445] [-0.050278164446353912:0.050355974584817886] [0.049327462911605835:0.18340596556663513] [-0.019174067303538322:0.16256715357303619] [-0.12451730668544769:-0.032432999461889267] [-0.057140644639730453:0.022149614989757538] [-0.051343545317649841:0.056159846484661102] [0.081836141645908356:0.1951286643743515] [0.03243611752986908:0.13939289748668671] [-0.068824127316474915:0.0342734195291996] [-0.25936642289161682:-0.13365525007247925] [-0.013833764009177685:0.10841779410839081] [0.013426955789327621:0.18104681372642517] [-0.4545891284942627:-0.30243748426437378] [-0.044761765748262405:0.087834969162940979] [-0.34557580947875977:-0.21913498640060425] [0.10028640925884247:0.25595831871032715] [-0.23403805494308472:0.040554586797952652] [-0.045155622065067291:0.031150517985224724] [-7.9337471106555313e-05:0.12138621509075165] [0.087595716118812561:0.24990364909172058] [-0.12274486571550369:-0.039641272276639938] [-0.074783295392990112:0.092853933572769165] [-0.022231660783290863:0.086845576763153076] [-0.38259086012840271:-0.14454938471317291] [-0.098979510366916656:-0.011718841269612312] [-0.043001540005207062:0.071843504905700684] [-0.05772780254483223:0.068572148680686951] [0.056795407086610794:0.15193565189838409] [-0.03659917414188385:0.042687151581048965] [-0.15627896785736084:-0.042279772460460663] [-0.023939503356814384:0.038717545568943024] [0.11692400276660919:0.21545968949794769] [-0.5523332953453064:-0.38758537173271179] [-0.18042013049125671:-0.059025660157203674] [0.049711171537637711:0.18514274060726166] [-0.065280504524707794:0.15204666554927826] [0.017987152561545372:0.069104604423046112] [0.3021635115146637:0.4230993390083313] [0.0029702403116971254:0.047037668526172638] [-0.039376068860292435:0.051115330308675766] [-0.21121282875537872:-0.086287274956703186] [-0.10236610472202301:0.0033823698759078979] [-0.17284515500068665:-0.098726660013198853] [-0.15354214608669281:0.033146660774946213] [-0.25456756353378296:-0.085464291274547577] [-0.46868249773979187:-0.35803800821304321] [-0.0075856596231460571:0.11161721497774124] [-0.056630991399288177:0.019524265080690384] [-0.082154460251331329:0.016115348786115646] [0.14722265303134918:0.21913062036037445] [0.012343616224825382:0.10287877172231674] [-0.048112306743860245:0.13274097442626953] [-0.68534547090530396:-0.4458949863910675] [0.0083686336874961853:0.076968826353549957] [-0.072576723992824554:0.1097947284579277] [0.022367386147379875:0.081866584718227386] [0.033021759241819382:0.14783865213394165] [0.0051168287172913551:0.03505246713757515] [0.16508693993091583:0.25658771395683289] [-0.043189145624637604:0.040523532778024673] [0.039501629769802094:0.088811233639717102] [-0.17740772664546967:-0.035647332668304443] [-0.012743563391268253:0.052823089063167572] [-0.0044300449080765247:0.075449451804161072] [-0.13047888875007629:-0.06939484179019928] [-0.4952714741230011:-0.29693493247032166] [-0.03217625617980957:0.036891862750053406] [-0.095102168619632721:-0.013167758472263813] [0.037934400141239166:0.13400563597679138] [0.076287731528282166:0.15833057463169098] [-0.044347681105136871:0.063840463757514954] [-0.51357036828994751:-0.38044777512550354] [-0.12177855521440506:-0.043368469923734665] [0.094406746327877045:0.19037145376205444] [-0.28491261601448059:-0.18954336643218994] [0.019538955762982368:0.10471852123737335] [-0.11552536487579346:-0.016094999387860298] [-0.052771423012018204:0.01059991680085659] [-0.18291288614273071:0.011038204655051231] [-0.013888644985854626:0.045302204787731171] [0.24062727391719818:0.38797396421432495] [0.080193229019641876:0.25334516167640686] [-0.08313896507024765:-0.00070149428211152554] [0.029668468981981277:0.14458799362182617] [-0.13640135526657104:-0.015711497515439987] [0.25099131464958191:0.34366965293884277] [-0.077572643756866455:0.017832808196544647] [-0.18089082837104797:-0.12985862791538239] [-0.10010549426078796:0.076420307159423828] [-0.38354036211967468:-0.25905832648277283] [0.011098224669694901:0.079057052731513977] [0.10043248534202576:0.17748743295669556] [0.019796743988990784:0.16163702309131622] [0.38132712244987488:0.7458307147026062] [-0.1034308448433876:-0.01362963579595089] [-0.24876879155635834:-0.17816451191902161] [-0.062697216868400574:0.031564433127641678] [-0.041886679828166962:0.063658639788627625] [-0.14980292320251465:-0.023258188739418983] [-0.87371063232421875:-0.43789801001548767] [0.17567357420921326:0.29220288991928101] [-0.23683194816112518:-0.13602361083030701] [-0.15670713782310486:-0.048899766057729721] [-0.41402542591094971:-0.17330600321292877] [-0.15828506648540497:-0.078411348164081573] [-0.13336606323719025:0.01112659927457571] [-0.12968236207962036:-0.049895904958248138] [-0.38779175281524658:-0.23435446619987488] [-0.078289151191711426:-0.048567336052656174] [-0.023870272561907768:0.17281186580657959] [-0.14710420370101929:-0.081125237047672272] [-0.20016270875930786:-0.076833292841911316] [0.018209939822554588:0.13633054494857788] [-0.1271769106388092:-0.012600184418261051] [-0.027488520368933678:0.073355644941329956] [-0.15440689027309418:0.031997427344322205] [-0.22916692495346069:-0.13046656548976898] [-0.11511298269033432:0.03950798511505127] [0.10060964524745941:0.23127396404743195] [-0.17566901445388794:-0.044337660074234009] [0.16627438366413116:0.31006240844726562] [-0.044975526630878448:0.053384795784950256] [-0.099777050316333771:0.00023808761034160852] [0.10523319244384766:0.21400988101959229] [0.18307952582836151:0.27404969930648804] [-0.14843054115772247:-0.0052986531518399715] [-0.013676878064870834:0.033618774265050888] [-0.0033216900192201138:0.058646887540817261] [0.099793702363967896:0.1896013617515564] [0.0018217302858829498:0.043158102780580521] [-0.035687841475009918:0.086051434278488159] [0.049577992409467697:0.14012442529201508] [-0.23077486455440521:-0.12426293641328812] [0.12817658483982086:0.23677001893520355] [-0.32556778192520142:-0.23360402882099152] [0.10978464037179947:0.20742624998092651] [0.1369754821062088:0.23455119132995605] [-0.020735105499625206:0.076089933514595032] [-0.21046371757984161:-0.089709781110286713] [0.064565367996692657:0.13055992126464844] [-0.63813036680221558:-0.40495079755783081] [0.019176660105586052:0.13404726982116699] [0.052241891622543335:0.13906900584697723] [-0.02113938145339489:0.051981579512357712] [-0.039046142250299454:0.040253784507513046] [-0.16474375128746033:-0.068110823631286621] [0.17148163914680481:0.25382402539253235] [-0.039259295910596848:0.094008810818195343] [0.17607471346855164:0.26346740126609802] [0.11488556861877441:0.39840003848075867] [-0.19871844351291656:-0.039206787943840027] [-0.14084261655807495:-0.049765992909669876] [0.15332984924316406:0.32941991090774536] [-0.062574766576290131:0.059573240578174591] [-0.055097095668315887:0.056468311697244644] [0.17127160727977753:0.27335953712463379] [0.026924151927232742:0.08864254504442215] [-0.11501891165971756:0.0046603805385529995] [-0.074924938380718231:0.0078227091580629349] [-0.098183095455169678:0.0091736055910587311] [0.067299269139766693:0.25604072213172913] [-0.012724586762487888:0.076451748609542847] [0.038703929632902145:0.089376427233219147] [-0.090941764414310455:-0.008814721368253231] [0.011173390783369541:0.16970403492450714] [-0.030946601182222366:0.16141067445278168] [-0.021981719881296158:0.041962627321481705] [-0.16353900730609894:-0.041677709668874741] [-0.032104097306728363:0.1017451137304306] [-0.4780656099319458:-0.27030649781227112] [-0.083324410021305084:0.042946603149175644] [-0.045601923018693924:0.020170656964182854] [-0.40727391839027405:-0.16887523233890533] [-0.017987428233027458:0.10009869933128357] [0.036496493965387344:0.17574842274188995] [0.01819252036511898:0.12579423189163208] [-0.19170258939266205:-0.037592373788356781] [-0.12027432769536972:-0.036720909178256989] [-0.0053799632005393505:0.15411065518856049] [-0.0033535677939653397:0.10547209531068802] [0.10453613847494125:0.24466243386268616] [-0.10053116828203201:0.034714300185441971] [0.05757618322968483:0.11782537400722504] [-0.01799759641289711:0.194419264793396] [-0.097103148698806763:-0.022263826802372932] [0.075855664908885956:0.2448333203792572] [-0.12664733827114105:-0.041622772812843323] [-0.052162013947963715:0.16547417640686035] [0.025254355743527412:0.12397076934576035] [-0.3698371946811676:-0.21023377776145935] [-0.055829860270023346:0.049777429550886154] [-0.019384663552045822:0.048916749656200409] [-0.028749233111739159:0.20690469443798065] [-0.026125192642211914:0.033364824950695038] [-0.40553593635559082:-0.2197243869304657] [-0.42983201146125793:-0.24653682112693787] [-0.012817363254725933:0.072569161653518677] [0.13682578504085541:0.25644314289093018] [-0.19391003251075745:-0.11671771854162216] [0.13592185080051422:0.27406781911849976] [-0.58298897743225098:-0.43596947193145752] [0.18365402519702911:0.35391527414321899] [-0.1788984090089798:-0.069174379110336304] [-0.025283442810177803:0.10740131884813309] [-0.14417381584644318:-0.05880901962518692] [-0.013280780985951424:0.089491046965122223] [-0.15866461396217346:-0.042954687029123306] [-0.051407147198915482:0.016522647812962532] [-0.27208751440048218:-0.15448884665966034] [-0.13382461667060852:0.050196036696434021] [-0.1227525919675827:0.11378210783004761] [-0.004291917197406292:0.097343474626541138] [-0.27252447605133057:-0.087661057710647583] [-0.021509846672415733:0.071912810206413269] [-0.29367917776107788:-0.22956985235214233] [0.049398094415664673:0.19938457012176514] [-0.31183427572250366:-0.068661972880363464] [-0.084153078496456146:0.060268618166446686] [-0.11818947643041611:0.031685095280408859] [0.1531207263469696:0.24802829325199127] [-0.10596246272325516:-0.051147777587175369] [0.033488653600215912:0.17299869656562805] [-0.030772674828767776:0.048725701868534088] [-0.09653899073600769:0.015325004234910011] [-0.28876525163650513:-0.17662791907787323] [-0.049690138548612595:0.011848736554384232] [-0.017707165330648422:0.11518581956624985] [-0.0033218853641301394:0.080328062176704407] [0.091836199164390564:0.1895231306552887] [0.042912404984235764:0.1701253354549408] [-0.072049058973789215:0.022780455648899078] [0.013199174776673317:0.12917234003543854] [-0.1158100888133049:-0.014284264296293259] [-0.20431579649448395:-0.11137773841619492] [-0.088651753962039948:-0.026129821315407753] [0.035877574235200882:0.10537826269865036] [0.0082205869257450104:0.08465198427438736] [-0.029191980138421059:0.036853484809398651] [-0.21847094595432281:-0.12398235499858856] [-0.17452062666416168:-0.098656058311462402] [-0.016382884234189987:0.083429224789142609] [-0.12509512901306152:-0.0082054724916815758] [0.060728807002305984:0.18293464183807373] [-0.12172684818506241:-0.033503726124763489] [0.15590275824069977:0.1977023184299469] [0.17572999000549316:0.3086811900138855] [-0.15824681520462036:-0.066791847348213196] [0.10732740163803101:0.22412016987800598] [-0.029550623148679733:0.030767934396862984] [-0.04407719150185585:0.02935420349240303] [0.067704692482948303:0.12911880016326904] [-0.058263618499040604:0.020682398229837418] [0.039249971508979797:0.22297400236129761] [-0.042339734733104706:-0.0062928767874836922] [-0.011876026168465614:0.086366087198257446] [-0.041921161115169525:0.51169556379318237] [0.041491836309432983:0.10686855018138885] [-0.49239358305931091:-0.29092434048652649] [-0.0045762010850012302:0.048745788633823395] [-0.10143682360649109:0.017638212069869041] [-0.1434628963470459:0.034096647053956985] [-0.059397380799055099:0.01898372545838356] [-0.12571407854557037:0.01898631826043129] [0.023816607892513275:0.12839707732200623] [-0.17967581748962402:-0.11311551183462143] [-0.039002146571874619:0.12882891297340393] [-0.35489910840988159:-0.16541846096515656] [0.019656259566545486:0.2294345498085022] [-0.059167183935642242:0.026276957243680954] [-0.057777456939220428:0.083319395780563354] [0.051007974892854691:0.14706359803676605] [0.12279075384140015:0.26271757483482361] [-0.11785759776830673:0.022570867091417313] [0.13683696091175079:0.30639693140983582] [-0.072210811078548431:-0.024730060249567032] [-0.0084691848605871201:0.037796642631292343] [-0.0018428927287459373:0.12681989371776581] [-0.25498467683792114:-0.055004701018333435] [-0.015986856073141098:0.07750992476940155] [-0.055654603987932205:0.009930608794093132] [2.3825110474717803e-05:3.6310131690697744e-05] [0.029996298253536224:0.13283541798591614] [0.20479285717010498:0.69998252391815186] [-0.11623287945985794:-0.022506674751639366] [-0.034367773681879044:0.049541238695383072] [-0.27350181341171265:-0.15069288015365601] [-0.0411653071641922:0.01621674932539463] [-0.15532794594764709:0.027268359437584877] [-0.18394534289836884:-0.12107300758361816] [-0.13060352206230164:-0.042716436088085175] [-0.087795950472354889:0.054613731801509857] [0.072106577455997467:0.15004539489746094] [0.032387629151344299:0.11796295642852783] [0.025447547435760498:0.15881599485874176] [0.0067250235006213188:0.081098668277263641] [0.091613687574863434:0.23567381501197815] [-0.037247925996780396:0.027320623397827148] [0.11769168078899384:0.20621724426746368] [-0.10098996013402939:-0.0025106910616159439] [0.029815280809998512:0.1110338568687439] [-0.085436791181564331:0.028629621490836143] [-0.088052816689014435:0.050118669867515564] [0.077954821288585663:0.19775877892971039] [-0.13816367089748383:-0.063725113868713379] [0.0029287661891430616:0.055450484156608582] [0.14632333815097809:0.31832492351531982] [-0.029717190191149712:0.034338627010583878] [0.014011033810675144:0.088673092424869537] [-0.1157112643122673:0.0027965535409748554] [0.42008587718009949:0.56195557117462158] [0.15463598072528839:0.26599869132041931] [-0.1825522780418396:-0.11034905910491943] [-0.10479490458965302:-0.027935611084103584] [-0.077886782586574554:0.0099468370899558067] [-0.053301818668842316:0.14873985946178436] [-0.2894916832447052:-0.16126461327075958] [-0.090115778148174286:0.049827765673398972] [-0.045902073383331299:0.018968610092997551] [-0.059361211955547333:0.077443316578865051] [-0.34090715646743774:-0.11523905396461487] [-0.2678377628326416:-0.16314329206943512] [0.028778981417417526:0.13299544155597687] [-0.013587318360805511:0.11480233073234558] [-0.25324201583862305:-0.098397418856620789] [0.0063541834242641926:0.12387795746326447] [0.056900229305028915:0.15746963024139404] [0.0095354290679097176:0.1409921795129776] [-0.27121913433074951:-0.11797008663415909] [-0.041878249496221542:0.058955196291208267] [-0.091288134455680847:-0.00092037464492022991] [0.032403863966464996:0.24065111577510834] [-0.063449926674365997:0.0050710202194750309] [0.032793350517749786:0.20293216407299042] [0.044923793524503708:0.11450381577014923] [0.02015979215502739:0.10829813033342361] [-0.074645943939685822:0.073643714189529419] [0.096488654613494873:0.26979714632034302] [-0.04168754443526268:0.023198964074254036] [-0.32843953371047974:-0.15517668426036835] [-0.0052456213161349297:0.044167496263980865] [-0.7118791937828064:-0.47667068243026733] [0.017385855317115784:0.11953797936439514] [0.065725229680538177:0.35098898410797119] [-0.22698011994361877:-0.028273873031139374] [-0.036321364343166351:0.033652212470769882] [0.072325132787227631:0.41246119141578674] [-0.15270723402500153:-0.0056970207951962948] [-0.16841207444667816:-0.039825975894927979] [-0.062147796154022217:0.068618856370449066] [-0.051683753728866577:-0.03286738321185112] [-0.088835880160331726:-0.020439963787794113] [-0.16482062637805939:-0.047513749450445175] [-0.070000447332859039:0.072495743632316589] [-0.13165238499641418:0.054777234792709351] [0.078540027141571045:0.13583159446716309] [0.014494248665869236:0.14125354588031769] [0.055709801614284515:0.18697547912597656] [-0.12179640680551529:-0.0099387187510728836] [-0.21531762182712555:-0.10124532878398895] [0.10755664110183716:0.21313475072383881] [-0.2838413417339325:-0.13669873774051666] [-0.015708321705460548:0.033508602529764175] [0.033513806760311127:0.12975379824638367] [0.034067742526531219:0.1703239381313324] [-0.24379406869411469:-0.11301670968532562] [-0.12460199743509293:-0.013838476501405239] [0.018407685682177544:0.097781285643577576] [0.12970910966396332:0.32737639546394348] [-0.50091356039047241:-0.28910958766937256] [0.11916685849428177:0.17682020366191864] [0.24161107838153839:0.38760876655578613] [-0.14862313866615295:-0.01300271600484848] [0.031025614589452744:0.13178485631942749] [-0.27624964714050293:-0.19130972027778625] [-0.108889140188694:-0.019976332783699036] [0.54946452379226685:0.95764964818954468] [-0.4085986316204071:-0.28136646747589111] [-0.039950486272573471:0.068218536674976349] [-0.065749518573284149:0.021441007032990456] [-0.13868638873100281:-0.0061700139194726944] [-0.57378041744232178:-0.40121203660964966] [-0.10057526081800461:0.051239334046840668] [-0.034386992454528809:0.036909766495227814] [-0.35176289081573486:-0.12008872628211975] [-0.013725927099585533:0.12981855869293213] [0.17776583135128021:0.62104493379592896] [0.059263370931148529:0.31665953993797302] [0.1651206761598587:0.28609457612037659] [0.060433410108089447:0.1182001456618309] [0.065620973706245422:0.1856645792722702] [-0.27765631675720215:-0.029957344755530357] [-0.091073594987392426:0.07664160430431366] [0.018266411498188972:0.088358521461486816] [-0.042845245450735092:0.037865336984395981] [-0.22135256230831146:-0.10845968872308731] [-0.090055674314498901:0.019595043733716011] [-0.074223078787326813:0.0047000483609735966] [0.0014919635141268373:0.083712548017501831] [-0.41944459080696106:-0.29889717698097229] [0.0012809754116460681:0.10103734582662582] [-0.20340843498706818:-0.065644867718219757] [0.0063379188068211079:0.14059124886989594] [-0.064388327300548553:0.032683175057172775] [-0.19900934398174286:0.0011215381091460586] [-0.35196709632873535:-0.04520270973443985] [-0.24241387844085693:-0.15495370328426361] [-0.51348084211349487:-0.26078939437866211] [-0.088388971984386444:0.030450316146016121] [-0.19866438210010529:0.003323643933981657] [-0.027495604008436203:0.045075714588165283] [-0.055115357041358948:0.046811122447252274] [-0.15498329699039459:-0.024668635800480843] [-0.16217529773712158:0.017586259171366692] [-0.23446004092693329:-0.1670210063457489] [-0.40055757761001587:-0.27665314078330994] [-0.1678779125213623:0.0054683256894350052] [0.086758248507976532:0.20591957867145538] [-0.091222263872623444:0.12118008732795715] [-0.029196014627814293:0.044683121144771576] [-0.0047643310390412807:0.094195939600467682] [-0.15873385965824127:-0.022975564002990723] [0.14397299289703369:0.20058231055736542] [-0.028647920116782188:0.084374211728572845] [0.032949946820735931:0.12777873873710632] [-0.13300555944442749:0.047531776130199432] [-0.0083819180727005005:0.063031755387783051] [-0.058337870985269547:0.083961375057697296] [-0.17718498408794403:-0.10928501933813095] [-0.1989290863275528:-0.027823878452181816] [-0.15096224844455719:0.076196335256099701] [-0.058328054845333099:0.10821425914764404] [0.0040716980583965778:0.098897844552993774] [0.057787638157606125:0.13480016589164734] [-0.0036783295217901468:0.10468289256095886] [-0.22039379179477692:-0.083441175520420074] [-0.22713965177536011:-0.039989829063415527] [0.055110231041908264:0.19613315165042877] [-0.29199919104576111:-0.1828024834394455] [-0.14510497450828552:-0.032818146049976349] [-0.091194875538349152:-0.025330308824777603] [-0.15336720645427704:-0.054680615663528442] [0.053684636950492859:0.14823620021343231] [-0.1770806610584259:-0.099124833941459656] [-0.18202699720859528:-0.02406751923263073] [-0.00057268212549388409:0.071751520037651062] [-0.11205262690782547:0.084146156907081604] [-0.11292575299739838:-0.021774785593152046] [-0.086104199290275574:-0.027711322531104088] [0.028123734518885612:0.12125056236982346] [0.055271971970796585:0.1522011011838913] [-0.063013084232807159:0.01028797123581171] [-0.044832505285739899:0.049979299306869507] [-0.010833876207470894:0.076557934284210205] [0.088662669062614441:0.38839995861053467] [0.050170861184597015:0.11674782633781433] [-0.13077814877033234:-0.012632799334824085] [-0.22366169095039368:0.020615715533494949] [-0.042601529508829117:0.070182740688323975] [-0.05411817878484726:0.045658349990844727] [0.059137981384992599:0.14092372357845306] [-0.0093995565548539162:0.023085139691829681] [-0.56004601716995239:-0.2668476402759552] [-0.11863814294338226:0.043315514922142029] [0.07218874990940094:0.20122608542442322] [-0.52832436561584473:-0.25478163361549377] [-0.15670517086982727:-0.019002551212906837] [-0.13091859221458435:-0.04858892410993576] [-0.017098307609558105:0.10461267083883286] [-0.050305522978305817:0.13201530277729034] [-0.21875329315662384:0.037446234375238419] [0.091521658003330231:0.1674044132232666] [-0.027911324054002762:0.1163652241230011] [0.16834272444248199:0.75483894348144531] [-0.15399380028247833:-0.057215910404920578] [-0.0010229594772681594:0.069291777908802032] [-0.020170168951153755:0.062295466661453247] [-0.11484697461128235:0.022803377360105515] [0.017898919060826302:0.1635877937078476] [-0.10531409829854965:-0.031468410044908524] [-0.12137499451637268:-0.046489857137203217] [-0.024819323793053627:0.15805700421333313] [-0.17351187765598297:-0.0846843421459198] [0.065083980560302734:0.14082808792591095] [-0.063782654702663422:0.019462646916508675] [-0.25195831060409546:-0.078970976173877716] [0.0060025961138308048:0.23431386053562164] [-0.036229301244020462:0.043034449219703674] [-0.11679673194885254:0.01912788487970829] [-0.58177250623703003:-0.39527654647827148] [0.48412749171257019:0.94907647371292114] [0.025376120582222939:0.091357134282588959] [0.075827009975910187:0.19930754601955414] [0.0097293490543961525:0.082809492945671082] [-0.25717633962631226:-0.14254233241081238] [-0.40488463640213013:-0.32532837986946106] [0.099687427282333374:0.19918486475944519] [-0.11759898066520691:-0.045073628425598145] [-0.1118122860789299:0.001351528218947351] [0.19497548043727875:0.31102240085601807] [0.09029783308506012:0.17177408933639526] [-0.0041573583148419857:0.04360487312078476] [-0.36747199296951294:-0.19642457365989685] [0.050566595047712326:0.10014063864946365] [0.08862227201461792:0.26824623346328735] [-0.0077376747503876686:0.057135757058858871] [-0.24796310067176819:-0.060727410018444061] [0.0075180954299867153:0.070705175399780273] [-0.069894231855869293:0.012415293604135513] [-0.96442824602127075:-0.68440687656402588] [-0.013336040079593658:0.1413462907075882] [-0.011213663965463638:0.05812561884522438] [-0.037035845220088959:0.031691338866949081] [0.061152301728725433:0.1250348687171936] [0.090604901313781738:0.26022905111312866] [0.082860387861728668:0.18615561723709106] [-0.64459949731826782:-0.43565058708190918] [-0.58075994253158569:-0.38816279172897339] [-0.026800159364938736:0.12454985082149506] [0.046922598034143448:0.16249033808708191] [0.099003709852695465:0.22038458287715912] [0.054897468537092209:0.14191512763500214] [0.1656770259141922:0.3285984992980957] [-0.023692987859249115:0.029843002557754517] [-0.26384451985359192:-0.086595170199871063] [-0.095714360475540161:0.022679965943098068] [0.035870321094989777:0.1951615959405899] [0.037722956389188766:0.086834795773029327] [-0.0099764121696352959:0.070734404027462006] [-0.069426111876964569:0.0025147134438157082] [0.030656304210424423:0.14843836426734924] [0.054725863039493561:0.16096025705337524] [-0.019100738689303398:0.073132522404193878] [-0.17614278197288513:-0.040178429335355759] [-0.28502702713012695:-0.1944158673286438] [-0.15009003877639771:-0.028137821704149246] [-0.11239231377840042:0.021422673016786575] [0.037129100412130356:0.10828505456447601] [-0.063016913831233978:0.026138676330447197] [-0.12609593570232391:-0.018579617142677307] [-0.25328907370567322:-0.12575836479663849] [0.2324574738740921:0.35362944006919861] [-0.0099273836240172386:0.047557227313518524] [-0.1078767403960228:0.056211326271295547] [0.099440068006515503:0.20325480401515961] [0.055684208869934082:0.16160091757774353] [0.10602312535047531:0.26149529218673706] [0.25898715853691101:0.36660966277122498] [-0.23180030286312103:-0.018598072230815887] [-0.099994868040084839:-0.011298115365207195] [-0.22087275981903076:-0.091101400554180145] [-0.04069770872592926:0.10304085165262222] [-0.041525036096572876:0.065648481249809265] [-0.20489929616451263:-0.1287229061126709] [0.16709591448307037:0.28514084219932556] [0.13310582935810089:0.33422291278839111] [-0.10556263476610184:0.0082922466099262238] [-0.27079737186431885:-0.045863449573516846] [0.22217251360416412:0.33175438642501831] [0.11397287249565125:0.2331857830286026] [0.42522579431533813:1.0873361825942993] [0.029104376211762428:0.20021140575408936] [-0.27564269304275513:-0.16148349642753601] [-0.14585165679454803:-0.064735680818557739] [-0.078651554882526398:0.15581247210502625] [0.030296692624688148:0.11800196766853333] [0.36692348122596741:0.46339115500450134] [-0.35311418771743774:-0.19629666209220886] [-0.20232298970222473:-0.024411682039499283] [0.14710159599781036:0.28806817531585693] [-0.83767431974411011:-0.45052856206893921] [0.025903848931193352:0.16356691718101501] [0.064123190939426422:0.18123391270637512] [0.078830443322658539:0.22252565622329712] [-0.057003319263458252:0.0038053290918469429] [0.02553277462720871:0.10576968640089035] [-0.090425975620746613:0.032943528145551682] [-0.08177977055311203:-0.012579022906720638] [0.29651153087615967:0.50154662132263184] [-0.057266145944595337:-0.023941997438669205] [-0.054932955652475357:0.059903975576162338] [-0.27065140008926392:-0.1488490104675293] [-0.053723860532045364:0.031954068690538406] [-0.064464554190635681:0.072586916387081146] [-0.2889065146446228:-0.11660981923341751] [0.0082457540556788445:0.069469749927520752] [-0.12604911625385284:-0.047388020902872086] [-0.12809915840625763:-0.035238470882177353] [-0.11390359699726105:0.0093799978494644165] [0.090350732207298279:0.20009511709213257] [-0.45980855822563171:-0.2861955463886261] [-0.11473800241947174:-0.021509887650609016] [-0.21949091553688049:-0.024437010288238525] [0.0066732261329889297:0.063398204743862152] [0.21772336959838867:0.32299891114234924] [0.062594600021839142:0.13694824278354645] [0.19310162961483002:0.34494346380233765] [-0.064420983195304871:0.10488760471343994] [-0.12357156723737717:-0.05146460235118866] [0.0090310899540781975:0.094376541674137115] [0.48437029123306274:0.72620260715484619] [0.036122001707553864:0.090740449726581573] [0.023759949952363968:0.061117827892303467] [0.025092823430895805:0.056199692189693451] [0.018842749297618866:0.048271641135215759] [0.019743867218494415:0.047171656042337418] [0.018835810944437981:0.049354329705238342] [0.020535709336400032:0.041847042739391327] [0.01383254025131464:0.02902253158390522] [0.01464935764670372:0.035821825265884399] [0.022945638746023178:0.057924672961235046] [0.018530102446675301:0.04412706196308136] [0.020558234304189682:0.055216837674379349] [0.02011784166097641:0.047606196254491806] [0.048585500568151474:0.11786001175642014] [0.015119866468012333:0.029658934101462364] [0.020861560478806496:0.055566277354955673] [0.019580317661166191:0.038558069616556168] [0.024509994313120842:0.05640731006860733] [0.071237199008464813:0.16142985224723816] [0.016387080773711205:0.032952114939689636] [0.039133500307798386:0.081114672124385834] [0.018562933430075645:0.041682284325361252] [0.016452107578516006:0.039582952857017517] [0.016530444845557213:0.035912774503231049] [0.023923331871628761:0.057718858122825623] [0.021366113796830177:0.043127316981554031] [0.019142989069223404:0.043587338179349899] [0.021071493625640869:0.044315610080957413] [0.028327334672212601:0.067302636802196503] [0.028938520699739456:0.065124161541461945] [0.015361292287707329:0.033839326351881027] [0.027786239981651306:0.051426231861114502] [0.018763307482004166:0.037801835685968399] [0.024541664868593216:0.047796200960874557] [0.016909947618842125:0.033630579710006714] [0.021029561758041382:0.044662881642580032] [0.015489688143134117:0.033308491110801697] [0.010366886854171753:0.021384390071034431] [0.023945773020386696:0.047874320298433304] [0.019667737185955048:0.037835314869880676] [0.016150876879692078:0.041661381721496582] [0.018481709063053131:0.04072900116443634] [0.015216704457998276:0.037373241037130356] [0.087146960198879242:0.19608820974826813] [0.0249946229159832:0.062169447541236877] [0.024182558059692383:0.04822394996881485] [0.022549174726009369:0.063136003911495209] [0.028868101537227631:0.06704256683588028] [0.020718365907669067:0.047418244183063507] [0.016067663207650185:0.040607526898384094] [0.018882216885685921:0.037494990974664688] [0.015776216983795166:0.033950407058000565] [0.054132856428623199:0.11058000475168228] [0.02413848415017128:0.047087602317333221] [0.014416730962693691:0.029198508709669113] [0.030470788478851318:0.075690634548664093] [0.031746551394462585:0.095705769956111908] [0.016259428113698959:0.035553794354200363] [0.029900403693318367:0.06458146870136261] [0.014473495073616505:0.0356270931661129] [0.024869693443179131:0.066208519041538239] [0.0143689950928092:0.040820155292749405] [0.015448987483978271:0.033029578626155853] [0.018502339720726013:0.040679149329662323] [0.040806170552968979:0.084287717938423157] [0.043133955448865891:0.11032126098871231] [0.027456609532237053:0.062744602560997009] [0.01555293146520853:0.03431108221411705] [0.020072469487786293:0.039958760142326355] [0.029400425031781197:0.058641936630010605] [0.018338669091463089:0.042241185903549194] [0.13959589600563049:0.28938734531402588] [0.018327364698052406:0.064428366720676422] [0.019098410382866859:0.054376427084207535] [0.0042483382858335972:0.011104537174105644] [0.016221102327108383:0.03804054856300354] [0.020340431481599808:0.035674784332513809] [0.017976978793740273:0.038609784096479416] [0.016242925077676773:0.03669307753443718] [0.023452769964933395:0.055322907865047455] [0.017167922109365463:0.033436991274356842] [0.032650243490934372:0.079770877957344055] [0.030662072822451591:0.065473251044750214] [0.014509967528283596:0.041635382920503616] [0.013802274130284786:0.030050965026021004] [0.019260220229625702:0.038288414478302002] [0.020833229646086693:0.054455049335956573] [0.035242140293121338:0.075011655688285828] [0.018123660236597061:0.045903168618679047] [0.028094261884689331:0.067052610218524933] [0.022603245452046394:0.064873754978179932] [0.023017402738332748:0.053784754127264023] [0.023661889135837555:0.050434034317731857] [0.029586959630250931:0.053177129477262497] [0.040144167840480804:0.093377627432346344] [0.019091818481683731:0.039535015821456909] [0.020131472498178482:0.071917183697223663] [0.031739454716444016:0.059758663177490234] [0.095761723816394806:0.20801596343517303] [0.015548801049590111:0.030522584915161133] [0.017480470240116119:0.043500471860170364] [0.020584389567375183:0.045045431703329086] [0.033300664275884628:0.095611900091171265] [0.011421444825828075:0.023291110992431641] [0.032475568354129791:0.081436067819595337] [0.014435197226703167:0.027954686433076859] [0.029170138761401176:0.065583407878875732] [0.024678898975253105:0.04371291771531105] [0.015430332161486149:0.039590194821357727] [0.017143020406365395:0.043093409389257431] [0.012827517464756966:0.039963245391845703] [0.013290619477629662:0.026718426495790482] [0.019752433523535728:0.051925074309110641] [0.016026835888624191:0.031061513349413872] [0.021879980340600014:0.048351973295211792] [0.028162414208054543:0.066880136728286743] [0.02756362222135067:0.064993120729923248] [0.017851186916232109:0.035015720874071121] [0.034156717360019684:0.09666917473077774] [0.043147962540388107:0.095124252140522003] [0.034222390502691269:0.076303340494632721] [0.014308854937553406:0.030641878023743629] [0.18893946707248688:0.35368853807449341] [0.014614125713706017:0.043636146932840347] [0.014411722309887409:0.028458081185817719] [0.017824111506342888:0.039822451770305634] [0.019029241055250168:0.05560234934091568] [0.024682674556970596:0.074587754905223846] [0.019042205065488815:0.038545954972505569] [0.014564241282641888:0.02870643325150013] [0.015790535137057304:0.033792898058891296] [0.015905585139989853:0.029584968462586403] [0.020829981192946434:0.048723656684160233] [0.048620905727148056:0.12045788764953613] [0.016562798991799355:0.031546521931886673] [0.045322805643081665:0.12097197026014328] [0.019453534856438637:0.047061800956726074] [0.021343620494008064:0.045592300593852997] [0.023352205753326416:0.049637928605079651] [0.04585304856300354:0.10148890316486359] [0.019023904576897621:0.040171366184949875] [0.025572450831532478:0.061281614005565643] [0.043496280908584595:0.11080209165811539] [0.013634530827403069:0.029979676008224487] [0.016229694709181786:0.032800938934087753] [0.033309135586023331:0.084259726107120514] [0.023362690582871437:0.039076961576938629] [0.013914487324655056:0.029114840552210808] [0.013989796862006187:0.024463612586259842] [0.013717854395508766:0.043461933732032776] [0.01569368876516819:0.027904490008950233] [0.024338291957974434:0.054332930594682693] [0.01395286712795496:0.031615398824214935] [0.017380664125084877:0.034199569374322891] [0.031317088752985001:0.053547501564025879] [0.01752169243991375:0.041388008743524551] [0.016586864367127419:0.036836016923189163] [0.023441845551133156:0.0727105513215065] [0.015227325260639191:0.036337714642286301] [0.025410166010260582:0.054944086819887161] [0.026624094694852829:0.060429707169532776] [0.046845559030771255:0.1089451014995575] [0.01775691844522953:0.042460475116968155] [0.018170274794101715:0.032957565039396286] [0.025489082559943199:0.056744702160358429] [0.022122060880064964:0.051883857697248459] [0.036130782216787338:0.11288610845804214] [0.019817300140857697:0.040012035518884659] [0.019060118123888969:0.039114084094762802] [0.021467585116624832:0.048033963888883591] [0.02180921845138073:0.049713768064975739] [0.026728777214884758:0.074419990181922913] [0.052657697349786758:0.12397483736276627] [0.016666151583194733:0.037464939057826996] [0.020867280662059784:0.048616684973239899] [0.018339255824685097:0.036322273313999176] [0.015069329179823399:0.031819533556699753] [0.025720918551087379:0.068602725863456726] [0.021138140931725502:0.072976000607013702] [0.028903774917125702:0.062757328152656555] [0.022672848775982857:0.060087494552135468] [0.050996553152799606:0.1141526997089386] [0.031028416007757187:0.075424380600452423] [0.024938508868217468:0.05658731609582901] [0.015626471489667892:0.040030758827924728] [0.013275818899273872:0.035293333232402802] [0.019966879859566689:0.049345239996910095] [0.020986586809158325:0.049087624996900558] [0.015931298956274986:0.035316817462444305] [0.014655407518148422:0.039251036942005157] [0.072078801691532135:0.13788227736949921] [0.017054058611392975:0.03141382709145546] [0.023321833461523056:0.065396532416343689] [0.01444729883223772:0.028481524437665939] [0.012814749032258987:0.036862552165985107] [0.029552318155765533:0.070176452398300171] [0.037304852157831192:0.087955668568611145] [0.031583275645971298:0.086874179542064667] [0.024713480845093727:0.066922284662723541] [0.032760288566350937:0.078335225582122803] [0.042167950421571732:0.10961177945137024] [0.01969548687338829:0.03754260390996933] [0.0085599739104509354:0.021219749003648758] [0.017179833725094795:0.033395625650882721] [0.036591079086065292:0.092491447925567627] [0.0096545396372675896:0.02019331231713295] [0.025924578309059143:0.062911152839660645] [0.030957115814089775:0.069578297436237335] [0.017331723123788834:0.037280980497598648] [0.017408080399036407:0.036395616829395294] [0.014851612038910389:0.035154834389686584] [0.01887928694486618:0.037963267415761948] [0.016121117398142815:0.042182106524705887] [0.01670384593307972:0.034939438104629517] [0.016911020502448082:0.032515965402126312] [0.030788067728281021:0.064736142754554749] [0.024208413437008858:0.062622152268886566] [0.022784210741519928:0.046349506825208664] [0.020135177299380302:0.053931605070829391] [0.015079131349921227:0.036978404968976974] [0.020666390657424927:0.038672838360071182] [0.012664107605814934:0.024582525715231895] [0.01675252802670002:0.036017902195453644] [0.017839476466178894:0.040883637964725494] [0.014489022083580494:0.030997686088085175] [0.044405389577150345:0.11677584797143936] [0.036580394953489304:0.059895571321249008] [0.016715474426746368:0.033429849892854691] [0.028723636642098427:0.06804792582988739] [0.023916808888316154:0.057643752545118332] [0.016306251287460327:0.045959655195474625] [0.024879580363631248:0.073946192860603333] [0.036318086087703705:0.10349962115287781] [0.019617160782217979:0.039281278848648071] [0.023691138252615929:0.066229112446308136] [0.02000906877219677:0.042637888342142105] [0.033837366849184036:0.09864131361246109] [0.018818074837327003:0.03764449805021286] [0.016426721587777138:0.052013564854860306] [0.01880955696105957:0.038041260093450546] [0.015618789009749889:0.036652505397796631] [0.040639098733663559:0.095196202397346497] [0.012945037335157394:0.028467133641242981] [0.017324618995189667:0.040840931236743927] [0.041182354092597961:0.10153195261955261] [0.012900660745799541:0.027581682428717613] [0.016316134482622147:0.031447667628526688] [0.017901498824357986:0.044194422662258148] [0.018208596855401993:0.037207610905170441] [0.010263643227517605:0.024827025830745697] [0.046484261751174927:0.12115689367055893] [0.029312103986740112:0.057425875216722488] [0.016936397179961205:0.047857653349637985] [0.025259071961045265:0.07749629020690918] [0.018068801611661911:0.045198947191238403] [0.015306114219129086:0.031236164271831512] [0.016740106046199799:0.043189898133277893] [0.014707891270518303:0.025453649461269379] [0.029342997819185257:0.055163320153951645] [0.011027966625988483:0.022043341770768166] [0.027639664709568024:0.059894241392612457] [0.020450064912438393:0.039080008864402771] [0.031392794102430344:0.068293564021587372] [0.012135283090174198:0.025757241994142532] [0.015514970757067204:0.03337603434920311] [0.017035569995641708:0.032094512134790421] [0.023469440639019012:0.064586721360683441] [0.020504478365182877:0.048660468310117722] [0.041867662221193314:0.10638688504695892] [0.020357396453619003:0.051345009356737137] [0.021994201466441154:0.043081238865852356] [0.027056293562054634:0.059852354228496552] [0.039387505501508713:0.077698454260826111] [0.019511353224515915:0.052942320704460144] [0.019791895523667336:0.05382300540804863] [0.048522349447011948:0.10831169784069061] [0.017170151695609093:0.038166787475347519] [0.012939614243805408:0.028003556653857231] [0.023767149075865746:0.047211602330207825] [0.013478422537446022:0.030397569760680199] [0.015330726280808449:0.048119861632585526] [0.018394013866782188:0.044347502291202545] [0.017180217429995537:0.034397467970848083] [0.099392257630825043:0.22960087656974792] [0.010503957979381084:0.020404612645506859] [0.025750761851668358:0.062990300357341766] [0.014279898256063461:0.028379306197166443] [0.018309395760297775:0.041320603340864182] [0.012245785444974899:0.035717997699975967] [0.013853731565177441:0.03553159162402153] [0.041487172245979309:0.097842060029506683] [0.012592784129083157:0.026739664375782013] [0.014459419064223766:0.030483672395348549] [0.017004376277327538:0.039394650608301163] [0.022251922637224197:0.049406141042709351] [0.018129924312233925:0.042744927108287811] [0.016201294958591461:0.036274801939725876] [0.012392975389957428:0.029719749465584755] [0.017338905483484268:0.036116272211074829] [0.028370475396513939:0.077437877655029297] [0.010119456797838211:0.019628947600722313] [0.019113294780254364:0.042394798249006271] [0.02148200199007988:0.05214984342455864] [0.019578510895371437:0.052181020379066467] [0.02106095477938652:0.04573306068778038] [0.014566455036401749:0.031897332519292831] [0.015004090033471584:0.034440178424119949] [0.012371663935482502:0.022785225883126259] [0.0171686802059412:0.044122226536273956] [0.014465379528701305:0.034666247665882111] [0.016268542036414146:0.045169692486524582] [0.02789241261780262:0.058841299265623093] [0.020048297941684723:0.043902158737182617] [0.013598018325865269:0.026238197460770607] [0.015368991531431675:0.036626819521188736] [0.029077518731355667:0.088499829173088074] [0.017650987952947617:0.044632051140069962] [0.015234068036079407:0.032192215323448181] [0.084301643073558807:0.19122342765331268] [0.015640746802091599:0.0328172966837883] [0.032170411199331284:0.082279212772846222] [0.019285304471850395:0.056542780250310898] [0.025606550276279449:0.047854248434305191] [0.013702800497412682:0.040024943649768829] [0.014694834128022194:0.035563956946134567] [0.015480375848710537:0.041957911103963852] [0.0098983636125922203:0.01814560778439045] [0.015437029302120209:0.029123116284608841] [0.04059557244181633:0.086116619408130646] [0.021665496751666069:0.051002826541662216] [0.013565231114625931:0.030521515756845474] [0.01932736299932003:0.035464353859424591] [0.021294862031936646:0.042093373835086823] [0.011947783641517162:0.025419456884264946] [0.060237586498260498:0.13632248342037201] [0.013068089261651039:0.027519792318344116] [0.023859350010752678:0.05038239061832428] [0.059711318463087082:0.14732101559638977] [0.042525898665189743:0.107471764087677] [0.017661459743976593:0.036989212036132812] [0.015975017100572586:0.031928017735481262] [0.013610397465527058:0.030462870374321938] [0.022455774247646332:0.04635031521320343] [0.013565042987465858:0.04051542654633522] [0.026935577392578125:0.052581246942281723] [0.015413531102240086:0.033914219588041306] [0.022674273699522018:0.044135052710771561] [0.049870658665895462:0.10376343876123428] [0.019566474482417107:0.045239299535751343] [0.022278144955635071:0.056162506341934204] [0.021789334714412689:0.044443212449550629] [0.019130870699882507:0.047804925590753555] [0.011755893938243389:0.027671834453940392] [0.12838874757289886:0.25080850720405579] [0.018816795200109482:0.045498136430978775] [0.016682099550962448:0.034897305071353912] [0.016054097563028336:0.038852706551551819] [0.014682619832456112:0.033248215913772583] [0.032473467290401459:0.067195594310760498] [0.021353453397750854:0.069397442042827606] [0.013951611705124378:0.031487058848142624] [0.034566305577754974:0.069048911333084106] [0.051771946251392365:0.11276136338710785] [0.015677524730563164:0.040588218718767166] [0.018532512709498405:0.053298462182283401] [0.016063747927546501:0.037234358489513397] [0.038666162639856339:0.10305088758468628] [0.033774115145206451:0.08128693699836731] [0.012963307090103626:0.031742863357067108] [0.03616003692150116:0.079727090895175934] [0.056031331419944763:0.14012224972248077] [0.1525423526763916:0.36248874664306641] [0.058741893619298935:0.11002683639526367] [0.035941794514656067:0.067475102841854095] [0.024605315178632736:0.068469181656837463] [0.018947707489132881:0.04251696914434433] [0.020043790340423584:0.052271313965320587] [0.016735142096877098:0.033503450453281403] [0.021996337920427322:0.051286287605762482] [0.016953436657786369:0.036915570497512817] [0.016632441431283951:0.037345688790082932] [0.029417481273412704:0.068272560834884644] [0.023123152554035187:0.050017222762107849] [0.028593774884939194:0.07373201847076416] [0.018602786585688591:0.040832296013832092] [0.013948959298431873:0.035359211266040802] [0.016129227355122566:0.041851717978715897] [0.021615512669086456:0.053519926965236664] [0.016835249960422516:0.040414359420537949] [0.024434693157672882:0.04555857926607132] [0.015248407609760761:0.038603167980909348] [0.013687481172382832:0.035861346870660782] [0.033243309706449509:0.097909286618232727] [0.015823284164071083:0.039822526276111603] [0.02225830964744091:0.045449797064065933] [0.021582800894975662:0.045523997396230698] [0.01577150821685791:0.037324585020542145] [0.035949282348155975:0.081877656280994415] [0.036458998918533325:0.083963543176651001] [0.014612733386456966:0.044248297810554504] [0.018809013068675995:0.038096558302640915] [0.017681676894426346:0.035390306264162064] [0.021475793793797493:0.05145561695098877] [0.013320925645530224:0.033708296716213226] [0.016833990812301636:0.043216805905103683] [0.013248969800770283:0.030658353120088577] [0.024418162181973457:0.057613901793956757] [0.033261090517044067:0.069846190512180328] [0.014222623780369759:0.034272726625204086] [0.018979268148541451:0.045155197381973267] [0.016277933493256569:0.040537893772125244] [0.015471111051738262:0.033766992390155792] [0.018027419224381447:0.046279571950435638] [0.024476213380694389:0.056987706571817398] [0.018214914947748184:0.036695849150419235] [0.014376114122569561:0.031540803611278534] [0.014204584062099457:0.032105684280395508] [0.01378422137349844:0.03293696790933609] [0.031578280031681061:0.067096158862113953] [0.022127876058220863:0.04939752072095871] [0.010192626155912876:0.020688189193606377] [0.018472587689757347:0.039182189851999283] [0.019926950335502625:0.038383640348911285] [0.011807043105363846:0.025627158582210541] [0.015161989256739616:0.033637262880802155] [0.020421100780367851:0.043159186840057373] [0.041316021233797073:0.099664367735385895] [0.023915605619549751:0.05019741877913475] [0.013725489377975464:0.026043558493256569] [0.016940983012318611:0.036815334111452103] [0.019317671656608582:0.041909918189048767] [0.020961165428161621:0.053592175245285034] [0.017580041661858559:0.034034527838230133] [0.02819037064909935:0.06820572167634964] [0.024420617148280144:0.068252250552177429] [0.028595481067895889:0.064231187105178833] [0.04471486434340477:0.13463811576366425] [0.026835128664970398:0.050979193300008774] [0.027332738041877747:0.086128063499927521] [0.021039042621850967:0.05837591364979744] [0.016347074881196022:0.053665969520807266] [0.013650108128786087:0.028826825320720673] [0.020712191238999367:0.043439041823148727] [0.029351305216550827:0.056605212390422821] [0.013135668821632862:0.026627577841281891] [0.032808944582939148:0.075850494205951691] [0.021909933537244797:0.045067619532346725] [0.043673794716596603:0.091800287365913391] [0.016693662852048874:0.03796660527586937] [0.028891107067465782:0.06143546849489212] [0.020849108695983887:0.042890485376119614] [0.016349805518984795:0.049196552485227585] [0.019976533949375153:0.05414770171046257] [0.018343307077884674:0.036766912788152695] [0.027157435193657875:0.056220386177301407] [0.019142294302582741:0.049650270491838455] [0.059405487030744553:0.12719394266605377] [0.035185389220714569:0.088151566684246063] [0.025284824892878532:0.057114481925964355] [0.036417067050933838:0.089222274720668793] [0.013009737245738506:0.027017045766115189] [0.040139250457286835:0.090573668479919434] [0.012632308527827263:0.030695401132106781] [0.030195750296115875:0.069737344980239868] [0.030364053323864937:0.079390458762645721] [0.022213317453861237:0.04449298232793808] [0.018284730613231659:0.042323913425207138] [0.038739416748285294:0.076691940426826477] [0.035398032516241074:0.097801052033901215] [0.035768859088420868:0.085464403033256531] [0.02003808319568634:0.051504869014024734] [0.014404513873159885:0.031322982162237167] [0.020065644755959511:0.045124728232622147] [0.024870408698916435:0.052204199135303497] [0.013760837726294994:0.028823908418416977] [0.034844987094402313:0.081199467182159424] [0.056597247719764709:0.14068347215652466] [0.016686789691448212:0.041207373142242432] [0.033383734524250031:0.074355550110340118] [0.016165481880307198:0.042461276054382324] [0.01787903718650341:0.040314104408025742] [0.00836898572742939:0.021068742498755455] [0.016279136762022972:0.036185044795274734] [0.013170764781534672:0.026885192841291428] [0.011612024158239365:0.025976249948143959] [0.020945701748132706:0.056456398218870163] [0.019383996725082397:0.039505504071712494] [0.013656118884682655:0.028072614222764969] [0.020785383880138397:0.039856810122728348] [0.0509670190513134:0.13406725227832794] [0.011408393271267414:0.021420048549771309] [0.012952303513884544:0.027779027819633484] [0.015842396765947342:0.033806070685386658] [0.014977350831031799:0.033394891768693924] [0.021341279149055481:0.047906383872032166] [0.02307162806391716:0.050910882651805878] [0.017734469845890999:0.03715447336435318] [0.019761951640248299:0.049952462315559387] [0.027661990374326706:0.067118085920810699] [0.028619175776839256:0.064180545508861542] [0.031404148787260056:0.081342391669750214] [0.019787430763244629:0.045406874269247055] [0.031236486509442329:0.065056279301643372] [0.012619296088814735:0.023396264761686325] [0.030200084671378136:0.074268631637096405] [0.015306241810321808:0.03555108979344368] [0.016986370086669922:0.035766385495662689] [0.023080209270119667:0.057976100593805313] [0.027460353448987007:0.060335375368595123] [0.023697586730122566:0.071001976728439331] [0.023654315620660782:0.058277063071727753] [0.018386123701930046:0.036785434931516647] [0.032550983130931854:0.08049657940864563] [0.029803270474076271:0.074486032128334045] [0.014653932303190231:0.032316200435161591] [0.021574046462774277:0.050399478524923325] [0.020123831927776337:0.040629617869853973] [0.094581417739391327:0.22091051936149597] [0.011788279749453068:0.023805271834135056] [0.017484422773122787:0.035641070455312729] [0.013266740366816521:0.038006093353033066] [0.020873220637440681:0.050970591604709625] [0.018823312595486641:0.04906725138425827] [0.10247791558504105:0.22890825569629669] [0.039418876171112061:0.10171443969011307] [0.025866491720080376:0.052346799522638321] [0.012567661702632904:0.030645484104752541] [0.048778720200061798:0.11563275009393692] [0.020422270521521568:0.055314492434263229] [0.023639721795916557:0.055212303996086121] [0.014881937764585018:0.03134474903345108] [0.04094342514872551:0.097184598445892334] [0.013472964987158775:0.029276680201292038] [0.02877395786345005:0.069320119917392731] [0.018329793587327003:0.047444440424442291] [0.022699411958456039:0.050442289561033249] [0.024758592247962952:0.066863909363746643] [0.013910496607422829:0.027086460962891579] [0.021525759249925613:0.048411741852760315] [0.027626942843198776:0.068692527711391449] [0.019776314496994019:0.046424038708209991] [0.029636098071932793:0.063577331602573395] [0.026806460693478584:0.067143239080905914] [0.020366964861750603:0.056402165442705154] [0.031796243041753769:0.071892604231834412] [0.015384253114461899:0.034428324550390244] [0.02386530302464962:0.05734209343791008] [0.017296507954597473:0.034803066402673721] [0.016446527093648911:0.038960475474596024] [0.016003796830773354:0.034545186907052994] [0.017426421865820885:0.037627760320901871] [0.011068521067500114:0.022732783108949661] [0.022068971768021584:0.059325374662876129] [0.012963398359715939:0.026052778586745262] [0.026501622051000595:0.055914223194122314] [0.013902358710765839:0.029336431995034218] [0.022384652867913246:0.059737127274274826] [0.018690438941121101:0.03364885225892067] [0.020601872354745865:0.04600834846496582] [0.019446553662419319:0.040467135608196259] [0.019111482426524162:0.039455596357584] [0.019526343792676926:0.043174143880605698] [0.017491025850176811:0.036339424550533295] [0.01673860102891922:0.032282520085573196] [0.037824418395757675:0.092571251094341278] [0.018880987539887428:0.042924351990222931] [0.038629461079835892:0.081545166671276093] [0.016689712181687355:0.040147308260202408] [0.0181559007614851:0.044002439826726913] [0.016814891248941422:0.041461218148469925] [0.016369886696338654:0.031181169673800468] [0.021337870508432388:0.056739795953035355] [0.022744119167327881:0.054545186460018158] [0.056517571210861206:0.13265129923820496] [0.051837757229804993:0.12083296477794647] [0.020259741693735123:0.05512690544128418] [0.021067198365926743:0.046830989420413971] [0.017264394089579582:0.03083471953868866] [0.016451951116323471:0.042298939079046249] [0.024893654510378838:0.05731118842959404] [0.015661777928471565:0.031551145017147064] [0.018635764718055725:0.046931587159633636] [0.018946249037981033:0.035599850118160248] [0.015306545421481133:0.02786928229033947] [0.033921301364898682:0.092736877501010895] [0.015447972342371941:0.035665292292833328] [0.013608710840344429:0.02628113329410553] [0.025260625407099724:0.057883284986019135] [0.013763254508376122:0.031251009553670883] [0.0375068299472332:0.086908236145973206] [0.013212201185524464:0.030832134187221527] [0.014203363098204136:0.028991736471652985] [0.035437487065792084:0.10547515749931335] [0.058777358382940292:0.13237209618091583] [0.020568756386637688:0.049661990255117416] [0.015644552186131477:0.035161864012479782] [0.032125931233167648:0.076146528124809265] [0.017420705407857895:0.036736577749252319] [0.016589215025305748:0.036330725997686386] [0.018212513998150826:0.041121300309896469] [0.018843745812773705:0.04588719829916954] [0.019285857677459717:0.050757355988025665] [0.022775633260607719:0.059655334800481796] [0.020158197730779648:0.041221439838409424] [0.042622487992048264:0.10334299504756927] [0.019648265093564987:0.058363858610391617] [0.013975122943520546:0.042513024061918259] [0.024718340486288071:0.068435825407505035] [0.014981602318584919:0.030713172629475594] [0.027890333905816078:0.055890090763568878] [0.025384252890944481:0.051336120814085007] [0.037389673292636871:0.10210617631673813] [0.018108371645212173:0.044360551983118057] [0.020809641107916832:0.047374390065670013] [0.01746831089258194:0.046540915966033936] [0.013896526768803596:0.027169255539774895] [0.027295961976051331:0.080349519848823547] [0.013504423201084137:0.02593938447535038] [0.042921848595142365:0.096338711678981781] [0.041775941848754883:0.098234273493289948] [0.012263163924217224:0.022446133196353912] [0.025844966992735863:0.059828083962202072] [0.020344235002994537:0.046021509915590286] [0.020174011588096619:0.043730881065130234] [0.039959359914064407:0.076362937688827515] [0.057488836348056793:0.10872101038694382] [0.033876169472932816:0.073225066065788269] [0.02426503412425518:0.063859276473522186] [0.022599035874009132:0.058933231979608536] [0.014179670251905918:0.032412711530923843] [0.028926804661750793:0.073198094964027405] [0.012495260685682297:0.027553178369998932] [0.035498976707458496:0.078066930174827576] [0.033085014671087265:0.056418068706989288] [0.031863253563642502:0.070704005658626556] [0.022771589457988739:0.052065014839172363] [0.019600680097937584:0.052206497639417648] [0.013584279455244541:0.028685783967375755] [0.018136514350771904:0.035189628601074219] [0.032847996801137924:0.070194974541664124] [0.034685343503952026:0.088634707033634186] [0.021649770438671112:0.042894791811704636] [0.018740469589829445:0.05048675462603569] [0.01707463338971138:0.034650560468435287] [0.013426928780972958:0.035847634077072144] [0.048914205282926559:0.10035023093223572] [0.020143521949648857:0.050920683890581131] [0.013489381410181522:0.029945876449346542] [0.029513588175177574:0.072933956980705261] [0.011380992829799652:0.030781380832195282] [0.022555768489837646:0.053450245410203934] [0.013439132831990719:0.025523163378238678] [0.030448803678154945:0.077082477509975433] [0.019020548090338707:0.035468444228172302] [0.026644600555300713:0.067553721368312836] [0.022915441542863846:0.068616166710853577] [0.02251565083861351:0.057811666280031204] [0.023842815309762955:0.057707119733095169] [0.017083900049328804:0.042114783078432083] [0.014200714416801929:0.048852488398551941] [0.012389092706143856:0.028478695079684258] [0.012680462561547756:0.024402432143688202] [0.011853482574224472:0.026376886293292046] [0.01858067512512207:0.045106250792741776] [0.017041860148310661:0.035478483885526657] [0.030233735218644142:0.074678249657154083] [0.084978505969047546:0.20233003795146942] [0.018018722534179688:0.03805910050868988] [0.016929822042584419:0.040834497660398483] [0.024139607325196266:0.058003421872854233] [0.019134271889925003:0.041438035666942596] [0.022821268066763878:0.05479038879275322] [0.01205087173730135:0.028585759922862053] [0.017752531915903091:0.049924980849027634] [0.017322249710559845:0.036447405815124512] [0.014259760268032551:0.032266393303871155] [0.028006922453641891:0.068355254828929901] [0.011563518084585667:0.02212047390639782] [0.024721337482333183:0.060941301286220551] [0.11753015965223312:0.2579093873500824] [0.014256257563829422:0.030936563387513161] [0.04643622413277626:0.12573717534542084] [0.014381014741957188:0.034091249108314514] [0.016795938834547997:0.048087209463119507] [0.022794885560870171:0.059860214591026306] [0.013698095455765724:0.042793378233909607] [0.019052809104323387:0.047601182013750076] [0.020057838410139084:0.048219546675682068] [0.018265526741743088:0.0429186150431633] [0.027704257518053055:0.068506933748722076] [0.057287264615297318:0.12082000821828842] [0.024771535769104958:0.066259421408176422] [0.014355534687638283:0.037687905132770538] [0.013802217319607735:0.034005776047706604] [0.02679041214287281:0.053315695375204086] [0.030994415283203125:0.069014698266983032] [0.017797868698835373:0.038320410996675491] [0.017973583191633224:0.046766072511672974] [0.017524879425764084:0.042817384004592896] [0.01543146837502718:0.030288156121969223] [0.025094732642173767:0.050265707075595856] [0.0193449966609478:0.045381225645542145] [0.040927644819021225:0.098108008503913879] [0.015710670500993729:0.035379759967327118] [5.232323474047007e-06:1.3137504538462963e-05] [0.016476238146424294:0.037204701453447342] [0.090759009122848511:0.227657750248909] [0.017071349546313286:0.034007586538791656] [0.014740707352757454:0.030160270631313324] [0.019672561436891556:0.050799772143363953] [0.014686343260109425:0.028828375041484833] [0.029993008822202682:0.061132732778787613] [0.023061778396368027:0.050135150551795959] [0.014323865994811058:0.030816106125712395] [0.015385407023131847:0.04839751124382019] [0.014781424775719643:0.033570561558008194] 